{
  "layers": [
    { "out_depth": 1, "out_sx": 24, "out_sy": 24, "layer_type": "input" },
    {
      "sx": 5,
      "sy": 5,
      "stride": 1,
      "in_depth": 1,
      "out_depth": 8,
      "out_sx": 24,
      "out_sy": 24,
      "layer_type": "conv",
      "l1_decay_mul": 0,
      "l2_decay_mul": 1,
      "pad": 2,
      "filters": [
        {
          "sx": 5,
          "sy": 5,
          "depth": 1,
          "w": {
            "0": 0.09799294196379024,
            "1": 0.33106626755431706,
            "2": 0.5954192067224621,
            "3": 0.5488343539805725,
            "4": 0.9193029315032485,
            "5": -0.21457342415289754,
            "6": -0.07105022285751111,
            "7": 0.4514334820601859,
            "8": 0.10256997890740874,
            "9": -0.13153103200539695,
            "10": -0.5033834060174596,
            "11": -0.6769147793042205,
            "12": -0.5619980897399427,
            "13": -0.585199875142991,
            "14": -0.39810098018540996,
            "15": 0.022183908168949842,
            "16": -0.2164258104117215,
            "17": -0.785564222147933,
            "18": -0.4398081432754549,
            "19": -0.41514905440409483,
            "20": 0.15033911417433998,
            "21": 0.24158805181772017,
            "22": 0.04019100724740535,
            "23": 0.3517814091635064,
            "24": 0.22866762828661574
          }
        },
        {
          "sx": 5,
          "sy": 5,
          "depth": 1,
          "w": {
            "0": -0.5162596039338835,
            "1": -0.5351036193126033,
            "2": -0.28352268763179267,
            "3": -0.13545247649263017,
            "4": -0.0655743097332429,
            "5": 0.31738340314175645,
            "6": -0.3026962090954755,
            "7": -0.3969208706738895,
            "8": -0.21952805244351387,
            "9": -0.13157213526359474,
            "10": 0.212168607614429,
            "11": 0.025321353654024797,
            "12": 0.008831706593552813,
            "13": -0.3773051107364701,
            "14": -0.3834043853239045,
            "15": 0.16967451136242498,
            "16": 0.4339520666197752,
            "17": 0.417488924366845,
            "18": 0.2369423273288726,
            "19": 0.19590057623416054,
            "20": 0.051580797572265406,
            "21": 0.19090128322243743,
            "22": 0.08852562828979046,
            "23": 0.4999941353043519,
            "24": 0.08895128100054066
          }
        },
        {
          "sx": 5,
          "sy": 5,
          "depth": 1,
          "w": {
            "0": -0.027802373373321698,
            "1": 0.15768216502732363,
            "2": 0.06221994111800381,
            "3": -0.3387433658329728,
            "4": -0.2577170934964659,
            "5": 0.06879404935741298,
            "6": 0.15144002216935795,
            "7": -0.007615744519660296,
            "8": -0.048716460016173746,
            "9": -0.22323728348384217,
            "10": 0.1183690528702361,
            "11": 0.5678701825268396,
            "12": 0.5752614152366341,
            "13": 0.5663569903616779,
            "14": 0.2185966340749767,
            "15": -0.41329139480547167,
            "16": -0.015149996550805372,
            "17": 0.03856223534971666,
            "18": 0.23616869403799054,
            "19": 0.07592336871566628,
            "20": -0.41249549793786516,
            "21": -0.45051572248086164,
            "22": -0.2845184673958588,
            "23": 0.041256844635819696,
            "24": 0.08282571212350179
          }
        },
        {
          "sx": 5,
          "sy": 5,
          "depth": 1,
          "w": {
            "0": -0.02196682124139288,
            "1": 0.06854669515001013,
            "2": 0.0581219862144641,
            "3": 0.3601487298074577,
            "4": 0.17183705508254724,
            "5": -0.15088004313246806,
            "6": 0.16769347583799815,
            "7": 0.34228137425781185,
            "8": -0.20738286048067034,
            "9": -0.2241885708066176,
            "10": 0.1535142288339666,
            "11": 0.30957062720305734,
            "12": 0.35254172158475117,
            "13": -0.04513096939727691,
            "14": -0.376756940283373,
            "15": 0.5784440868290961,
            "16": 0.13116791761514032,
            "17": -0.006111010830636631,
            "18": -0.3976316664245523,
            "19": -0.35806096681652017,
            "20": 0.35685003671244125,
            "21": -0.06403489758666489,
            "22": -0.4779846482407983,
            "23": -0.439334201433129,
            "24": -0.48250744530676204
          }
        },
        {
          "sx": 5,
          "sy": 5,
          "depth": 1,
          "w": {
            "0": -0.4902072302179798,
            "1": -0.7046972491450046,
            "2": -0.11460000529824321,
            "3": 0.32372084805212675,
            "4": 0.09623115248164114,
            "5": -0.2914229487187152,
            "6": -0.32821821994537703,
            "7": 0.5606183968882926,
            "8": 0.05251002011996235,
            "9": -0.07004210416262673,
            "10": -0.3409721135689078,
            "11": 0.09763782113030252,
            "12": -0.11757362093746826,
            "13": 0.153027220642662,
            "14": 0.14541391353021374,
            "15": 0.13106534853101146,
            "16": 0.20035200385914956,
            "17": 0.11785833925696342,
            "18": -0.040409001762911505,
            "19": 0.35274367536701223,
            "20": 0.496167501708292,
            "21": 0.3296500048146314,
            "22": 0.038389314035150814,
            "23": -0.1688982701943004,
            "24": -0.31693741243815754
          }
        },
        {
          "sx": 5,
          "sy": 5,
          "depth": 1,
          "w": {
            "0": 0.08382340990763792,
            "1": -0.35936513867306574,
            "2": -0.5016067714135275,
            "3": -0.10294677242775378,
            "4": 0.10175866750385262,
            "5": 0.4081885734079039,
            "6": 0.05703325451981576,
            "7": -0.4961529454769758,
            "8": -0.6009920908811888,
            "9": 0.39728014905941955,
            "10": 0.3175715359368481,
            "11": 0.7102881747063424,
            "12": -0.4682714519518703,
            "13": -0.6970490577352354,
            "14": 0.006052861085790364,
            "15": -0.06618098847504778,
            "16": 0.531478180138112,
            "17": 0.30416095673981364,
            "18": -0.4597818064351437,
            "19": -0.31836064267119957,
            "20": 0.02400659543389197,
            "21": 0.4266111661656055,
            "22": 0.23902135389984086,
            "23": -0.07684052567039451,
            "24": -0.3065400978468279
          }
        },
        {
          "sx": 5,
          "sy": 5,
          "depth": 1,
          "w": {
            "0": -0.23913704375302233,
            "1": -0.8908479063743366,
            "2": -0.3988366366625457,
            "3": -0.28608424257227494,
            "4": 0.035210018107855436,
            "5": 0.0593168474942844,
            "6": -0.003417780007948545,
            "7": 0.06036367032711855,
            "8": 0.023476381466205357,
            "9": 0.31894977578384476,
            "10": 0.5553259972625342,
            "11": 0.10236231784698589,
            "12": 0.30631259829761226,
            "13": 0.23558404525678195,
            "14": -0.31571543263544316,
            "15": 0.11077857545911558,
            "16": 0.42542299122311134,
            "17": 0.053181144360364474,
            "18": -0.05397886660813284,
            "19": -0.26331554859991363,
            "20": -0.11572869674122147,
            "21": -0.2338515307427193,
            "22": 0.09566507848156428,
            "23": -0.06797161093779543,
            "24": 0.2344820944166952
          }
        },
        {
          "sx": 5,
          "sy": 5,
          "depth": 1,
          "w": {
            "0": -0.21915948911752528,
            "1": -0.11985589100484291,
            "2": 0.07158268652643214,
            "3": 0.27377322952323263,
            "4": 0.40834869375751226,
            "5": -0.004767317764405707,
            "6": -0.23907581749445292,
            "7": 0.20613371082038023,
            "8": 0.26398842468679573,
            "9": 0.4430042915005041,
            "10": -0.44223512037562906,
            "11": 0.012692196228183489,
            "12": 0.12983008101606625,
            "13": 0.2096988923396432,
            "14": 0.5666346822109746,
            "15": 0.08213689801805817,
            "16": -0.436003465707916,
            "17": 0.06439554886462023,
            "18": 0.11192209877323891,
            "19": 0.35804475815598125,
            "20": -0.5568964200878376,
            "21": -0.0390597176608155,
            "22": -0.262983324525171,
            "23": -0.05023639428998999,
            "24": -0.13463554467603894
          }
        }
      ],
      "biases": {
        "sx": 1,
        "sy": 1,
        "depth": 8,
        "w": {
          "0": 0.07571086333863147,
          "1": -0.011054919296577898,
          "2": -0.14766491671710608,
          "3": 0.06511870794477595,
          "4": -0.08178912485904506,
          "5": 0.18080504288883228,
          "6": -0.03846195406608595,
          "7": -0.15261234513600447
        }
      }
    },
    { "out_depth": 8, "out_sx": 24, "out_sy": 24, "layer_type": "relu" },
    {
      "sx": 2,
      "sy": 2,
      "stride": 2,
      "in_depth": 8,
      "out_depth": 8,
      "out_sx": 12,
      "out_sy": 12,
      "layer_type": "pool",
      "pad": 0
    },
    {
      "sx": 5,
      "sy": 5,
      "stride": 1,
      "in_depth": 8,
      "out_depth": 16,
      "out_sx": 12,
      "out_sy": 12,
      "layer_type": "conv",
      "l1_decay_mul": 0,
      "l2_decay_mul": 1,
      "pad": 2,
      "filters": [
        {
          "sx": 5,
          "sy": 5,
          "depth": 8,
          "w": {
            "0": 0.04008026945530522,
            "1": 0.19905170028497743,
            "2": -0.01697173771172179,
            "3": -0.13094922985362825,
            "4": -0.09916193070585233,
            "5": -0.14731343670225164,
            "6": 0.4242760888042202,
            "7": -0.3194167593776866,
            "8": -0.1464095860630991,
            "9": 0.019547727014694177,
            "10": 0.20619207123710617,
            "11": -0.26330925925438897,
            "12": 0.01519561056540765,
            "13": -0.4400337671835438,
            "14": 0.21744555153199877,
            "15": 0.2460651678307044,
            "16": -0.23867209019006252,
            "17": -0.17928385714191106,
            "18": 0.054917033104756346,
            "19": 0.1676029902677193,
            "20": 0.0824678337964126,
            "21": -0.1699575229357961,
            "22": -0.14311136549090345,
            "23": 0.18863729277831226,
            "24": -0.010421739591652369,
            "25": -0.14930283293555746,
            "26": 0.0047140135719013114,
            "27": 0.2205935249503826,
            "28": -0.018082302911983632,
            "29": -0.23799221461562123,
            "30": -0.10217753317172114,
            "31": -0.08959804207026975,
            "32": 0.05868436608398814,
            "33": 0.08885684543532403,
            "34": 0.017180587228377453,
            "35": 0.11033019730481221,
            "36": -0.11926641839378888,
            "37": 0.04403041478034499,
            "38": 0.05664922442219765,
            "39": -0.039779991715760354,
            "40": 0.15998817984079566,
            "41": -0.2876419042836651,
            "42": -0.04975333351216229,
            "43": -0.2827659082601497,
            "44": -0.3318815644372923,
            "45": -0.2866595449744968,
            "46": -0.021404095253787333,
            "47": -0.0484677119762972,
            "48": -0.2184721918668168,
            "49": -0.5066732683518793,
            "50": -0.044897314191066365,
            "51": -0.3830895947876055,
            "52": -0.20645982450599126,
            "53": -0.303891876571029,
            "54": -0.3020385245690319,
            "55": 0.3109374189507631,
            "56": -0.360746994194472,
            "57": -0.5018296828743563,
            "58": -0.020403927035378192,
            "59": 0.39093464714853016,
            "60": -0.2144176674491102,
            "61": -0.08510953027196641,
            "62": -0.35592018865385916,
            "63": 0.030160771044476765,
            "64": -0.12759519715911138,
            "65": -0.41705319815173636,
            "66": -0.0757157011836835,
            "67": 0.2579516921725763,
            "68": -0.11999948813048335,
            "69": -0.07791322238450098,
            "70": -0.18113694123741267,
            "71": 0.03635326344670787,
            "72": -0.010869802861152553,
            "73": -0.19868754489787385,
            "74": -0.06354538276311879,
            "75": -0.015411840532851223,
            "76": -0.10696180589543147,
            "77": -0.2509522577412751,
            "78": -0.2105091495201008,
            "79": -0.03440966312399714,
            "80": -0.1018960758082674,
            "81": -0.33671853340839636,
            "82": -0.2979788661760125,
            "83": -0.5276583733142984,
            "84": -0.06991386124613423,
            "85": -0.0979969598548479,
            "86": -0.3858987684149611,
            "87": 0.028737678006653673,
            "88": -0.4135078686149757,
            "89": -0.2671654021888693,
            "90": -0.08643816911082024,
            "91": -0.13226509541159642,
            "92": 0.1887406999650397,
            "93": -0.011443356361668686,
            "94": -0.1818578914849578,
            "95": 0.29704233065820956,
            "96": -0.41064859756499345,
            "97": -0.08186622570257326,
            "98": 0.2415732900697311,
            "99": 0.08703023020160286,
            "100": 0.1294600095497995,
            "101": 0.16946040153572295,
            "102": -0.33350823309350963,
            "103": 0.04452745014826785,
            "104": -0.1943678565053852,
            "105": 0.06837506403896576,
            "106": 0.23054906746850273,
            "107": 0.06791381422030908,
            "108": -0.19433002318116535,
            "109": 0.11846471198825274,
            "110": -0.08025013045697715,
            "111": -0.14498213554013706,
            "112": 0.03527068755517478,
            "113": 0.0098897254239711,
            "114": -0.03980271849422877,
            "115": 0.01436653394893047,
            "116": 0.13993539675342426,
            "117": 0.013801208447958587,
            "118": -0.03899615901853466,
            "119": -0.15109603600412058,
            "120": -0.42168683960649866,
            "121": -0.19318084495620547,
            "122": -0.14109604753229102,
            "123": -0.2156148192340982,
            "124": 0.19556536812821185,
            "125": -0.2941392600612259,
            "126": -0.3142987933358048,
            "127": 0.06402213705151306,
            "128": -0.28704965559773266,
            "129": -0.07165183131795093,
            "130": -0.055851894742898374,
            "131": -0.23781183331771444,
            "132": 0.08942829003410141,
            "133": -0.16487055312897375,
            "134": -0.06663378713855053,
            "135": 0.26641616626025016,
            "136": -0.19634205482544234,
            "137": 0.06985999208815054,
            "138": 0.2640093967579103,
            "139": 0.02445725051100786,
            "140": 0.02604937148467071,
            "141": 0.30257076149713336,
            "142": -0.06186466582781964,
            "143": -0.10923323137443376,
            "144": -0.038384494054025824,
            "145": -0.033969089699556136,
            "146": 0.11866812973527482,
            "147": -0.17188216983979568,
            "148": -0.35603625586816745,
            "149": 0.03771003736944689,
            "150": 0.06468818861398805,
            "151": -0.07227010972487433,
            "152": -0.012283828069992737,
            "153": 0.25051435289799195,
            "154": 0.05877212539042112,
            "155": -0.03948507929427084,
            "156": -0.054031013022034724,
            "157": 0.33393657576612,
            "158": 0.20845278552254942,
            "159": -0.28420606014573024,
            "160": -0.4837575741028642,
            "161": -0.0021035305552604927,
            "162": -0.2118544134197085,
            "163": 0.02778366636859948,
            "164": 0.1383417636912979,
            "165": -0.24789244214769135,
            "166": -0.04020967431860224,
            "167": 0.0071896091903928955,
            "168": -0.004988052069699798,
            "169": 0.006017555546084612,
            "170": 0.006059491470878768,
            "171": 0.13394276209817077,
            "172": 0.062308452357275994,
            "173": -0.12390469688224368,
            "174": 0.09782473576510078,
            "175": 0.005280495745158,
            "176": 0.06627442785138637,
            "177": -0.2119219812933935,
            "178": -0.02335753032371573,
            "179": 0.004229143417812689,
            "180": -0.20603922728230112,
            "181": -0.06264512937776819,
            "182": 0.09411567427744531,
            "183": -0.06662156705481749,
            "184": 0.18399155586999716,
            "185": -0.023780162490869797,
            "186": -0.045732636413572315,
            "187": -0.18899956545200394,
            "188": -0.21089893438898955,
            "189": -0.1822334747078479,
            "190": 0.06833064579484897,
            "191": -0.0038199623844861015,
            "192": -0.0052708709580731854,
            "193": -0.018893103383686587,
            "194": 0.030883039054824306,
            "195": -0.18991978901962406,
            "196": -0.4225556382875869,
            "197": 0.1038782048882774,
            "198": 0.08851027728295166,
            "199": -0.23002302679168063
          }
        },
        {
          "sx": 5,
          "sy": 5,
          "depth": 8,
          "w": {
            "0": 0.003582494803242811,
            "1": -0.30630116905313604,
            "2": -0.07948286005933088,
            "3": 0.24060453605268278,
            "4": -0.2677087286857713,
            "5": 0.268115204029846,
            "6": -0.13530510408258128,
            "7": -0.09516168781140896,
            "8": -0.0456157253251256,
            "9": -0.16820454032515808,
            "10": -0.10065851216953671,
            "11": -0.1854414195446714,
            "12": -0.06652646494875464,
            "13": 0.22505589840935308,
            "14": -0.288483744902205,
            "15": 0.07702423274233863,
            "16": -0.18369743803153957,
            "17": -0.13362422689791492,
            "18": -0.04441189557850566,
            "19": 0.1075326326576218,
            "20": -0.03310853469835528,
            "21": 0.04570888913621786,
            "22": -0.2528394291849813,
            "23": 0.1128501829579548,
            "24": 0.03740437121258806,
            "25": -0.03487526956364482,
            "26": -0.015541787082550036,
            "27": 0.1194843211286012,
            "28": -0.048214691319558,
            "29": 0.2865804436420324,
            "30": -0.049109550149346766,
            "31": -0.04977435061151431,
            "32": 0.20135832709264004,
            "33": 0.07347249833885189,
            "34": -0.014067732434165585,
            "35": 0.14274667010596048,
            "36": 0.019808223873165748,
            "37": 0.031707553424518885,
            "38": -0.12678688412363537,
            "39": -0.02047373813215806,
            "40": 0.006446633090097928,
            "41": -0.3298837180267591,
            "42": -0.28421207476933935,
            "43": -0.048980704066728144,
            "44": -0.24141676784291188,
            "45": 0.2665268059631066,
            "46": -0.16011524498647295,
            "47": -0.1031506411032233,
            "48": -0.030311178170427725,
            "49": -0.1734912837324457,
            "50": -0.20727458346666552,
            "51": -0.3111677397263394,
            "52": -0.019173665709947604,
            "53": 0.012757050143301724,
            "54": -0.16757100452267293,
            "55": 0.06207853298260791,
            "56": 0.028536505868456095,
            "57": -0.06373831773128648,
            "58": 0.005400124606749873,
            "59": 0.09556127663299503,
            "60": -0.03209347407138158,
            "61": 0.2075300615057182,
            "62": -0.16960309383815353,
            "63": 0.11617191325855336,
            "64": -0.05497754588498207,
            "65": -0.1580208439466482,
            "66": -0.16995890150474158,
            "67": 0.28509969907077914,
            "68": -0.18080332021423856,
            "69": 0.2594174977177575,
            "70": -0.1385582773184735,
            "71": 0.04318957077032841,
            "72": 0.1623967024305061,
            "73": -0.2794247379516267,
            "74": -0.28226584772507646,
            "75": 0.0713571092730803,
            "76": -0.10708260884544714,
            "77": -0.06203784172249498,
            "78": -0.20790710452782846,
            "79": -0.18146611567602772,
            "80": -0.15790345962800298,
            "81": 0.011005567029173404,
            "82": -0.2135288733456072,
            "83": -0.1520003756169736,
            "84": -0.17386664020080675,
            "85": 0.2541348015086742,
            "86": -0.11494111558255272,
            "87": -0.14285781217658977,
            "88": 0.2965654890232304,
            "89": 0.007016597199265271,
            "90": -0.23151658893460175,
            "91": -0.3399299985807533,
            "92": -0.007432649759221787,
            "93": 0.21817664374821816,
            "94": -0.08566068626806965,
            "95": -0.11754609316065975,
            "96": 0.46605718144998254,
            "97": 0.043765987759695035,
            "98": -0.08125340215724798,
            "99": 0.023013937058599002,
            "100": -0.14545476459634252,
            "101": -0.10679348523468267,
            "102": -0.009332043374650904,
            "103": -0.040769888335582115,
            "104": 0.2901142220706682,
            "105": 0.007596022425047512,
            "106": -0.12847835704080382,
            "107": 0.04287400460027614,
            "108": -0.21726960462293982,
            "109": -0.11752692194686452,
            "110": 0.006905419489268167,
            "111": -0.28453397152425625,
            "112": -0.19977504104817626,
            "113": -0.02554732012212239,
            "114": -0.2580437396433608,
            "115": -0.23677064848020893,
            "116": -0.12854123020055747,
            "117": -0.297494389127454,
            "118": -0.1838428065783379,
            "119": -0.2934404272039596,
            "120": -0.03968499080746978,
            "121": -0.04737657873289288,
            "122": -0.22314575048407828,
            "123": -0.2166998218488097,
            "124": -0.08444580653080629,
            "125": -0.11013882108753646,
            "126": -0.08587495488546745,
            "127": -0.35885070393461604,
            "128": 0.25350827936288184,
            "129": -0.06335049753430817,
            "130": -0.30062494717354593,
            "131": -0.02301397974811725,
            "132": -0.03282934366890951,
            "133": 0.06048065730679949,
            "134": -0.046527701571590724,
            "135": -0.2897025581997428,
            "136": 0.14989742430034167,
            "137": 0.22969037512526402,
            "138": -0.20048544960980882,
            "139": 0.08541633634762669,
            "140": -0.05868928131837415,
            "141": -0.13975561737177739,
            "142": 0.2142768530646089,
            "143": -0.2645222878868535,
            "144": 0.22593256871972894,
            "145": 0.15832985242659584,
            "146": -0.3043870747810966,
            "147": -0.04938634692294439,
            "148": 0.1694625303913969,
            "149": -0.24335957604347633,
            "150": -0.04668146961455704,
            "151": -0.20551996607708692,
            "152": 0.01629262530853906,
            "153": 0.27484182836293786,
            "154": 0.02647313820862251,
            "155": -0.20173338065016708,
            "156": 0.185247343776543,
            "157": -0.1798445992178178,
            "158": 0.04908275950464311,
            "159": -0.12688434114191285,
            "160": -0.03449576785732256,
            "161": 0.11741957034881306,
            "162": -0.11861038943722049,
            "163": -0.09532169807907503,
            "164": 0.16003845009273157,
            "165": -0.14060529623993298,
            "166": -0.007207881193814845,
            "167": -0.21980060515001656,
            "168": -0.08787847107647424,
            "169": 0.2703105641535991,
            "170": -0.10658450188876213,
            "171": -0.0405040572004198,
            "172": 0.11554254574168683,
            "173": -0.10759913117478041,
            "174": 0.16213667997768658,
            "175": -0.21740297498307762,
            "176": -0.04717586544416528,
            "177": 0.2207436026442838,
            "178": -0.011157730727613882,
            "179": 0.19904723376369352,
            "180": 0.22910401790842666,
            "181": -0.2029772062986345,
            "182": 0.17813308798428906,
            "183": 0.012134462784972403,
            "184": 0.12674604363986217,
            "185": 0.15997866203318578,
            "186": 0.04621367105915504,
            "187": 0.2397329543504954,
            "188": 0.21154741890791615,
            "189": -0.2553842294338002,
            "190": 0.2682763660717747,
            "191": 0.17973169229154826,
            "192": 0.20205875014886004,
            "193": 0.09146050142986623,
            "194": 0.2622204200762707,
            "195": 0.10551542261985453,
            "196": 0.16721745118319528,
            "197": -0.37153030985885194,
            "198": 0.19981220286168738,
            "199": 0.1862522630318577
          }
        },
        {
          "sx": 5,
          "sy": 5,
          "depth": 8,
          "w": {
            "0": -0.014974729865282786,
            "1": -0.29248927481047327,
            "2": -0.05989133347968955,
            "3": 0.020962344901111655,
            "4": -0.1941995390355375,
            "5": 0.17279696281565382,
            "6": -0.2274383861980205,
            "7": -0.09325108805383707,
            "8": 0.10212823179146878,
            "9": -0.15248450383746712,
            "10": -0.12323894756235367,
            "11": -0.020450735570544994,
            "12": -0.22456135450685044,
            "13": -0.12714263950452556,
            "14": -0.205690153381071,
            "15": -0.13963319966676938,
            "16": 0.11942910462069309,
            "17": 0.010351557849410352,
            "18": -0.24101380084545512,
            "19": 0.03812096863604513,
            "20": -0.11369349127549448,
            "21": -0.025445090401392638,
            "22": 0.10665824182705466,
            "23": -0.2035042631620172,
            "24": 0.19959321583712927,
            "25": 0.20108208018206714,
            "26": -0.29202246444747965,
            "27": -0.08436781417024354,
            "28": 0.012743297455216084,
            "29": -0.17983102076406565,
            "30": 0.11858902339168009,
            "31": -0.32016863730340495,
            "32": 0.2541054036228216,
            "33": 0.33203116712354624,
            "34": -0.1156240135743068,
            "35": -0.23743097418185327,
            "36": 0.0163710731148003,
            "37": -0.07084994733173679,
            "38": -0.03140442367413975,
            "39": -0.25744202079681106,
            "40": 0.050159897566390506,
            "41": -0.13160774187930552,
            "42": -0.010116267575958822,
            "43": 0.08645220432087333,
            "44": -0.2904156206449691,
            "45": 0.12670586425312907,
            "46": -0.27162181213525344,
            "47": -0.04650697815285942,
            "48": 0.017487005606198973,
            "49": -0.2984844349413385,
            "50": -0.0442869682942471,
            "51": 0.0728940904909776,
            "52": -0.17862227960551072,
            "53": -0.0874960448631277,
            "54": -0.18594796511391665,
            "55": -0.2269116274410826,
            "56": -0.20057302532505672,
            "57": 0.04446070437145305,
            "58": -0.0667196084393416,
            "59": -0.10292286209202699,
            "60": -0.21492441098995652,
            "61": -0.10319711749087954,
            "62": 0.017939161025264272,
            "63": -0.031192589340737566,
            "64": -0.010642991941297478,
            "65": 0.030653182760515707,
            "66": -0.09642749193772211,
            "67": -0.2063381395998118,
            "68": -0.08804816576698163,
            "69": -0.0755388425344832,
            "70": 0.026051259371080056,
            "71": 0.001590544638848122,
            "72": -0.06435487440546614,
            "73": 0.17039764472063776,
            "74": 0.06263718064629782,
            "75": -0.01607904119041998,
            "76": 0.028046977546053103,
            "77": 0.046723290676066356,
            "78": 0.03672083100629632,
            "79": 0.1276393253887598,
            "80": -0.10787135894197902,
            "81": 0.036219018219554554,
            "82": 0.0909277996864299,
            "83": 0.10761795969950019,
            "84": -0.3476980323803299,
            "85": 0.286953938275304,
            "86": 0.10755271078152641,
            "87": -0.19686502536220798,
            "88": 0.0406990391301744,
            "89": 0.006118520771451786,
            "90": -0.22234516578236763,
            "91": 0.01437609166113898,
            "92": -0.12467104441255199,
            "93": 0.055650930576516495,
            "94": 0.013399501350132957,
            "95": -0.28330357808604656,
            "96": -0.04828370455153427,
            "97": -0.2659718520181493,
            "98": -0.24254863131675497,
            "99": -0.16004164614024002,
            "100": -0.15082088219485731,
            "101": -0.004836894727773258,
            "102": -0.10701175253606976,
            "103": -0.19576131494878085,
            "104": 0.192586742573932,
            "105": 0.036327590303446004,
            "106": -0.06514630694721384,
            "107": -0.17630201867051734,
            "108": -0.10795246821798651,
            "109": 0.005609094107534007,
            "110": -0.004700966137056971,
            "111": -0.04681171119622414,
            "112": 0.49803652830729855,
            "113": 0.07752044614881494,
            "114": 0.02174070536087875,
            "115": -0.016616337624116934,
            "116": -0.046848804407763754,
            "117": 0.22165972541743287,
            "118": 0.17147052071669328,
            "119": -0.0064967133252082886,
            "120": 0.0529952594120937,
            "121": 0.11097221868027807,
            "122": 0.21676743411507435,
            "123": -0.09793551518312074,
            "124": -0.1753598801195638,
            "125": 0.09493343689419843,
            "126": 0.12114146517339372,
            "127": -0.029311271108770708,
            "128": -0.17995087549199007,
            "129": 0.14243400405519882,
            "130": -0.14916779055781673,
            "131": 0.16521935733221066,
            "132": -0.029806788169821345,
            "133": 0.25743492940197127,
            "134": 0.17504898922075843,
            "135": -0.38993237175550527,
            "136": 0.01854426006116568,
            "137": -0.14867944009096082,
            "138": -0.2512893411502857,
            "139": 0.01926089909484294,
            "140": -0.23406407101469096,
            "141": 0.07063379158007232,
            "142": -0.005984679362226496,
            "143": -0.025821837343739787,
            "144": 0.0735477422239787,
            "145": -0.0683858345142995,
            "146": -0.04663774716962287,
            "147": -0.1888742084547939,
            "148": -0.15636809584239145,
            "149": -0.00854270611195531,
            "150": -0.09661304651663381,
            "151": -0.04728629902828001,
            "152": 0.1437728248187666,
            "153": 0.22845529314458066,
            "154": 0.0729662872994838,
            "155": 0.07817480067782377,
            "156": 0.00944869913970554,
            "157": 0.2397054382046635,
            "158": 0.13510559102789443,
            "159": -0.16361381578371195,
            "160": -0.40154634749885076,
            "161": 0.10490375681454683,
            "162": 0.007531812143162229,
            "163": -0.15055025573964947,
            "164": -0.03821047456231329,
            "165": 0.05074629883705532,
            "166": 0.008788347370984382,
            "167": -0.03266347113535511,
            "168": -0.4908664434735281,
            "169": 0.1144487422712175,
            "170": -0.153227244259329,
            "171": 0.24857695437948982,
            "172": 0.13996876861099822,
            "173": 0.340938812624514,
            "174": -0.009673504893920801,
            "175": -0.30025416864201976,
            "176": -0.3848197535129186,
            "177": -0.13336650195024688,
            "178": -0.2792666614511454,
            "179": 0.1669105154561649,
            "180": -0.04466084922278096,
            "181": 0.2637166627188594,
            "182": -0.0024360294619222267,
            "183": -0.02036286492210251,
            "184": -0.15132689113510117,
            "185": -0.2290432559289216,
            "186": -0.16690098221392813,
            "187": -0.2045650574714398,
            "188": 0.007242902422489307,
            "189": 0.0775915003857178,
            "190": -0.10315996988436714,
            "191": 0.09904864608010261,
            "192": -0.3165827680797009,
            "193": 0.020645339410507512,
            "194": -0.23040512473381064,
            "195": 0.17617704006584958,
            "196": 0.07386946816889046,
            "197": 0.26192256487547666,
            "198": -0.02186442510116917,
            "199": -0.1471894255400638
          }
        },
        {
          "sx": 5,
          "sy": 5,
          "depth": 8,
          "w": {
            "0": -0.0025470218603758747,
            "1": 0.1233308059613778,
            "2": -0.13915574935859598,
            "3": -0.23530017691454308,
            "4": -0.014276005594439596,
            "5": -0.03535844915333043,
            "6": 0.059684515839929154,
            "7": 0.07342964725985833,
            "8": -0.23731354704686355,
            "9": 0.14892594618628718,
            "10": 0.08640665278707464,
            "11": 0.0520809859014781,
            "12": 0.11452125980424091,
            "13": -0.09980196279127121,
            "14": 0.1252419581931899,
            "15": 0.0302559037347085,
            "16": -0.27149664065533147,
            "17": -0.01964465507209077,
            "18": 0.10167720296378727,
            "19": -0.123218462986254,
            "20": 0.021778924250648042,
            "21": 0.030644923589589635,
            "22": 0.08208615739849578,
            "23": -0.004047469832085336,
            "24": -0.11468059462147309,
            "25": -0.11259948168068835,
            "26": 0.13963794524396617,
            "27": -0.1588581731088272,
            "28": 0.15258413717639796,
            "29": -0.16480074409799397,
            "30": 0.03968285704229505,
            "31": -0.27682236359184,
            "32": -0.2619253743244708,
            "33": 0.24216204081829434,
            "34": 0.28861558483685157,
            "35": -0.18947617648396897,
            "36": 0.0010518884105652263,
            "37": -0.19237827606220023,
            "38": -0.02912442202975127,
            "39": -0.15800082652365388,
            "40": -0.11491065714110536,
            "41": -0.016474488779073787,
            "42": 0.18502351369342504,
            "43": 0.1407209131891984,
            "44": 0.05232404957109928,
            "45": -0.019590487303881535,
            "46": 0.046881805368509596,
            "47": -0.007022827698607021,
            "48": 0.26463635060970386,
            "49": 0.11024790416214789,
            "50": 0.08720037676315183,
            "51": 0.07266447023426527,
            "52": 0.08999998071535881,
            "53": -0.0243175113132334,
            "54": 0.07591245406061153,
            "55": 0.17722451670076714,
            "56": 0.031430014793487185,
            "57": 0.008376552227840485,
            "58": 0.2822820892884842,
            "59": -0.047503531868100635,
            "60": 0.16631693563297775,
            "61": -0.1074933177778167,
            "62": -0.016537188719134784,
            "63": 0.19079443595961065,
            "64": 0.05882210221936884,
            "65": 0.15394646920097424,
            "66": 0.13876191075239375,
            "67": -0.057346773569006415,
            "68": -0.015733725987041546,
            "69": -0.1936574168712787,
            "70": 0.060475347826287405,
            "71": 0.10932409152170809,
            "72": 0.045773770375538564,
            "73": -0.10854507571711439,
            "74": 0.18136127523892634,
            "75": -0.13766515137227558,
            "76": -0.01653323203609691,
            "77": -0.2768917223721336,
            "78": 0.18687591499914205,
            "79": 0.21900281306536284,
            "80": 0.08576938519737724,
            "81": -0.1744046903742482,
            "82": -0.058999429615509184,
            "83": -0.09053024823553965,
            "84": -0.185362812459013,
            "85": -0.13171220676368478,
            "86": -0.3465050285539876,
            "87": 0.07736715788580786,
            "88": 0.04180508781287071,
            "89": -0.19118694172769038,
            "90": -0.08860682524136555,
            "91": -0.03989334322236543,
            "92": 0.0268090401985041,
            "93": -0.039201869708096394,
            "94": -0.1962424313884186,
            "95": -0.06757914221741022,
            "96": 0.19577599316265673,
            "97": -0.06710215616112744,
            "98": 0.04351740005247895,
            "99": -0.06478492636661495,
            "100": -0.1713311257073242,
            "101": -0.27004094949512203,
            "102": -0.20942307169538724,
            "103": 0.08741896782105092,
            "104": 0.20285481153732363,
            "105": -0.19876259646152006,
            "106": -0.07541893556368852,
            "107": -0.06174926277371979,
            "108": -0.34340716978205066,
            "109": -0.20767496415256279,
            "110": -0.16508290867826847,
            "111": -0.13356158429235046,
            "112": 0.24458591561479975,
            "113": -0.4501265185658339,
            "114": -0.10667306577900974,
            "115": -0.19330455248917947,
            "116": -0.2159191064420952,
            "117": -0.10180902730000621,
            "118": -0.06582275567364367,
            "119": 0.044674564770048865,
            "120": -0.006750502173541582,
            "121": 0.04803804114210386,
            "122": -0.15160225346035747,
            "123": -0.22712194461176458,
            "124": -0.2093307820372343,
            "125": 0.08195214971467127,
            "126": -0.2468088115885167,
            "127": -0.08491361706481336,
            "128": 0.04016860735497239,
            "129": -0.12771628666027784,
            "130": -0.1420000414680236,
            "131": 0.10797228332031432,
            "132": -0.27522817271546857,
            "133": -0.07037159901484623,
            "134": -0.036709222410464995,
            "135": -0.07708078274598502,
            "136": 0.18016016192079234,
            "137": -0.018814429821378438,
            "138": -0.13871227514706463,
            "139": -0.03875928901904159,
            "140": -0.26384914740501014,
            "141": -0.06405028522836302,
            "142": -0.11800635274989033,
            "143": -0.12834485949119176,
            "144": -0.1179099210030824,
            "145": -0.13183100758900249,
            "146": -0.23919097436523756,
            "147": 0.015776669992461877,
            "148": -0.17520966000141142,
            "149": -0.21831483044873132,
            "150": 0.02076079420390665,
            "151": -0.21986733586443818,
            "152": -0.4010446217785511,
            "153": -0.09038934133999368,
            "154": -0.12692589102120835,
            "155": 0.11097551375255345,
            "156": -0.08035834537368294,
            "157": -0.3538548928428896,
            "158": -0.09914828228962601,
            "159": -0.1699647855841092,
            "160": 0.07661437856175685,
            "161": 0.025700417111337023,
            "162": -0.19956815914443043,
            "163": 0.13491641061487897,
            "164": -0.2217297363347776,
            "165": 0.13417024781188747,
            "166": -0.06872950329255938,
            "167": -0.04112161080480368,
            "168": 0.2529884860928789,
            "169": 0.02827924896675041,
            "170": -0.294235849075328,
            "171": -0.01563900249898509,
            "172": -0.02408636860820299,
            "173": -0.038095064992001416,
            "174": 0.017069290348959015,
            "175": -0.15362869227661485,
            "176": 0.042521850470408906,
            "177": 0.18507865429070608,
            "178": -0.12240430156953037,
            "179": -0.12679351887875756,
            "180": 0.10949869337450041,
            "181": -0.2706873497147013,
            "182": -0.19816116221061755,
            "183": -0.05316021457440811,
            "184": -0.1274062290756709,
            "185": 0.11904827954552316,
            "186": 0.05379340257681147,
            "187": 0.039624878800827004,
            "188": 0.22878598627151395,
            "189": -0.08481954258303623,
            "190": -0.027894262111255418,
            "191": 0.021931736650881627,
            "192": -0.17438284877129823,
            "193": 0.17842615010981727,
            "194": -0.05550777846205792,
            "195": 0.35473413453341607,
            "196": 0.073663409496038,
            "197": -0.06327393241362443,
            "198": 0.08599941780062821,
            "199": 0.09442037775263148
          }
        },
        {
          "sx": 5,
          "sy": 5,
          "depth": 8,
          "w": {
            "0": 0.10993278050130612,
            "1": -0.2905178512138153,
            "2": -0.0022387079194940017,
            "3": -0.36786320138019635,
            "4": 0.051724460910624576,
            "5": -0.032877015609794766,
            "6": -0.34543052349643544,
            "7": 0.15343268624013265,
            "8": -0.15062590578518137,
            "9": -0.19270198673416133,
            "10": 0.08694167641687271,
            "11": 0.07069291556143419,
            "12": -0.16299362725549574,
            "13": 0.01599523834356661,
            "14": -0.2607962588655609,
            "15": 0.05833792508143449,
            "16": -0.11705933333443776,
            "17": -0.12501321621396785,
            "18": -0.031554272868810164,
            "19": 0.12848114878821376,
            "20": -0.15028160308790717,
            "21": 0.268263037872915,
            "22": -0.1505419661482159,
            "23": -0.01371425645782419,
            "24": -0.20040758061355426,
            "25": -0.1425592770981714,
            "26": -0.1270169699809227,
            "27": -0.02193180038809432,
            "28": -0.20483317844539844,
            "29": 0.06726376485538604,
            "30": -0.07287893385321516,
            "31": -0.3146444532876393,
            "32": -0.21827281507675378,
            "33": 0.0732838101870303,
            "34": -0.20157759651722135,
            "35": -0.15417865845185205,
            "36": -0.19058817908588616,
            "37": -0.09081108553521902,
            "38": -0.0959470783126404,
            "39": -0.2392505785972324,
            "40": -0.16011504655964795,
            "41": -0.20775129343382298,
            "42": 0.10479295347104738,
            "43": -0.1795809734434722,
            "44": 0.09019571378219121,
            "45": -0.2674242986615948,
            "46": -0.32575497250968166,
            "47": 0.1314019605082443,
            "48": -0.2686290054105533,
            "49": -0.13391829482641998,
            "50": 0.1810093628894753,
            "51": -0.038406753360619106,
            "52": -0.22160856456211842,
            "53": -0.071440648648799,
            "54": -0.0870265719374872,
            "55": 0.002430566514725678,
            "56": -0.23333216513028782,
            "57": -0.16481190291704506,
            "58": -0.0241341653887653,
            "59": 0.1351587107707669,
            "60": -0.1503353835820233,
            "61": 0.02434002461349394,
            "62": -0.06540254590237177,
            "63": -0.11494603338933904,
            "64": -0.2486284629530193,
            "65": -0.020524289875473504,
            "66": -0.10443958123889745,
            "67": -0.0601248093657763,
            "68": -0.13596965718169654,
            "69": 0.0281299385490246,
            "70": 0.1408923911584675,
            "71": -0.2502821270342569,
            "72": -0.3793560322524184,
            "73": 0.2087845184665987,
            "74": -0.0469239187438906,
            "75": -0.1875071283303081,
            "76": 0.18354305785160865,
            "77": -0.1297524237585943,
            "78": 0.07189081084471552,
            "79": 0.0055345060887067015,
            "80": -0.066421012424171,
            "81": -0.06928575712890847,
            "82": 0.02898341332195152,
            "83": -0.25616436602214665,
            "84": 0.0008152489328525115,
            "85": -0.13520117665326842,
            "86": -0.0403579697808577,
            "87": 0.2291078630208971,
            "88": -0.18303655483443687,
            "89": -0.1140663429310666,
            "90": 0.20604226887254068,
            "91": 0.04396120084883657,
            "92": -0.22764316925383343,
            "93": -0.15210628207759447,
            "94": -0.21469882662472184,
            "95": -0.06976552792567385,
            "96": -0.1313247372962123,
            "97": 0.02413837542190256,
            "98": -0.11247836668159153,
            "99": 0.027844511350207404,
            "100": -0.192183918362,
            "101": 0.00665049680244937,
            "102": -0.2232266136177349,
            "103": -0.11172986020872236,
            "104": -0.4716520112409152,
            "105": 0.07614641979980126,
            "106": 0.05966565547751386,
            "107": -0.16506011094544848,
            "108": 0.07335269815605157,
            "109": -0.09575909759181235,
            "110": -0.1595520573613931,
            "111": -0.04594876521176002,
            "112": -0.42457185235885,
            "113": -0.09299330983408932,
            "114": 0.1636604648605865,
            "115": -0.03453734305474769,
            "116": 0.17425487285798666,
            "117": -0.06539309986232567,
            "118": 0.06528779443359727,
            "119": 0.20077947126457116,
            "120": -0.13558366845358646,
            "121": 0.05357592518644451,
            "122": 0.10333488419501756,
            "123": -0.1161220015033475,
            "124": 0.06571484110691483,
            "125": -0.08820501517098685,
            "126": -0.20268386119190976,
            "127": 0.18703743906525408,
            "128": -0.3140222210521548,
            "129": 0.02717932541637038,
            "130": 0.1423875906126886,
            "131": 0.10254154272444306,
            "132": -0.12422756182978031,
            "133": -0.05904220479214215,
            "134": -0.11961536254327829,
            "135": -0.0450223143037634,
            "136": -0.33353565117458095,
            "137": -0.05651468555931854,
            "138": -0.028051008562220522,
            "139": -0.0934292153756662,
            "140": -0.1716281258147774,
            "141": 0.01320360632623544,
            "142": 0.05275714888807605,
            "143": 0.1336839267657723,
            "144": -0.430366049658973,
            "145": -0.011372043039275876,
            "146": 0.027750376556462706,
            "147": 0.025534310872042894,
            "148": 0.19764598710739292,
            "149": 0.008043222264104147,
            "150": 0.07067738985598872,
            "151": 0.23298093595473787,
            "152": -0.45546155617816286,
            "153": -0.1085572391682791,
            "154": 0.1583943424779604,
            "155": 0.048130282814489674,
            "156": 0.2641674486071486,
            "157": 0.06881943971567796,
            "158": -0.13271797532983007,
            "159": 0.2559594931497393,
            "160": -0.32698890099621997,
            "161": 0.0605582449103573,
            "162": 0.29209303655020535,
            "163": -0.058063208570570034,
            "164": 0.11393710232031207,
            "165": -0.1635662104713663,
            "166": -0.14578567759758018,
            "167": 0.20671035278438643,
            "168": -0.13023954356277345,
            "169": 0.07343375019052582,
            "170": 0.14538244305212306,
            "171": 0.05903077893110431,
            "172": -0.10089675910174217,
            "173": 0.026311871218691146,
            "174": -0.10769134386629388,
            "175": -0.013290204114513588,
            "176": -0.36335472254223805,
            "177": 0.0014506373989489252,
            "178": 0.19214795613650365,
            "179": -0.04293001633055746,
            "180": -0.01318706698060841,
            "181": 0.0019007996108752246,
            "182": -0.09261743055315681,
            "183": 0.11156160697600166,
            "184": -0.44289976095666916,
            "185": -0.027908127053639348,
            "186": 0.032271469457432436,
            "187": -0.12838950201804863,
            "188": 0.16830667659853887,
            "189": -0.15275463985775634,
            "190": -0.21005734826602712,
            "191": 0.2989287149432084,
            "192": -0.4116640338825546,
            "193": -0.19708842909748567,
            "194": 0.0667141416477815,
            "195": 0.0601747157747773,
            "196": 0.08380582263107628,
            "197": 0.04492474211807872,
            "198": -0.38719947519742937,
            "199": 0.22591923073112602
          }
        },
        {
          "sx": 5,
          "sy": 5,
          "depth": 8,
          "w": {
            "0": -0.05085478527689399,
            "1": 0.02825011547899811,
            "2": -0.031761255312160425,
            "3": 0.16296983961526415,
            "4": 0.3396232707471817,
            "5": -0.1522525160344547,
            "6": 0.21609249113218937,
            "7": 0.0038728288344410107,
            "8": 0.031087156506972517,
            "9": -0.14270165455951211,
            "10": 0.154547995050408,
            "11": -0.05639350410469015,
            "12": 0.07415218335288974,
            "13": -0.04745605219330122,
            "14": -0.12067699019953688,
            "15": -0.2457719266687004,
            "16": -0.034020228945425,
            "17": -0.04907154802748888,
            "18": -0.151413046431243,
            "19": -0.13797471000543185,
            "20": 0.06213479056385413,
            "21": -0.2792669199423954,
            "22": -0.006722675766155641,
            "23": -0.009604954821290864,
            "24": 0.10432812343866123,
            "25": 0.04497106260954094,
            "26": 0.01625884916524753,
            "27": -0.14316729364628566,
            "28": 0.017851706620849055,
            "29": -0.04531655119627698,
            "30": 0.02618549673733822,
            "31": -0.052695454848205925,
            "32": -0.1162936308205457,
            "33": 0.042194419089747,
            "34": -0.05958436820406673,
            "35": -0.21836943391478653,
            "36": -0.1596405801031246,
            "37": 0.11250861589810537,
            "38": 0.01835415120298469,
            "39": -0.21698770857312014,
            "40": 0.22818640261922973,
            "41": 0.08743410049584309,
            "42": 0.12614076308126282,
            "43": 0.024215266607704823,
            "44": 0.1039739905901583,
            "45": -0.13244444902214572,
            "46": -0.020668828776324633,
            "47": -0.030307276576682946,
            "48": 0.16196432160186686,
            "49": 0.23242944108102054,
            "50": 0.26090291891506634,
            "51": 0.029355199389635607,
            "52": 0.01253778945160039,
            "53": 0.04077524056608397,
            "54": 0.06096185327149952,
            "55": 0.05251693957132548,
            "56": 0.23485473922704703,
            "57": 0.25913638307216225,
            "58": 0.09672851115101457,
            "59": -0.02453116713443716,
            "60": 0.14509877702368204,
            "61": -0.04396948550447281,
            "62": 0.0921857394133846,
            "63": 0.03255645577513474,
            "64": 0.14033583747987038,
            "65": 0.003601881004691185,
            "66": 0.050183662528217585,
            "67": 0.024869232890681294,
            "68": -0.001902213629023877,
            "69": -0.09667846271195371,
            "70": 0.20042503600141623,
            "71": 0.021192739464542962,
            "72": -0.1492315499306907,
            "73": -0.137356605586551,
            "74": 0.04338742727832762,
            "75": -0.01214254326962696,
            "76": 0.10809187958857146,
            "77": -0.11408271145251626,
            "78": 0.009189372947626924,
            "79": 0.020476059346461854,
            "80": 0.06913536355074083,
            "81": -0.09427186767223623,
            "82": 0.29918785308282314,
            "83": -0.12905199363286426,
            "84": -0.09734905286068124,
            "85": -0.08035146061367877,
            "86": -0.07493573331859948,
            "87": 0.12370135409578448,
            "88": 0.04105000430376347,
            "89": 0.23057133711233002,
            "90": 0.2899850112208988,
            "91": 0.006797571364263549,
            "92": -0.014755137936540078,
            "93": -0.013971608523801325,
            "94": 0.09430070153706609,
            "95": 0.05696638984884947,
            "96": 0.2453637973675289,
            "97": 0.08987366914056676,
            "98": 0.3188440689340847,
            "99": 0.016515345574589453,
            "100": -0.042772960763973,
            "101": 0.10768059448434184,
            "102": 0.10224440710274714,
            "103": 0.09318497870618968,
            "104": -0.3246797532128153,
            "105": -0.04453907036375351,
            "106": 0.23789279200740507,
            "107": 0.1769200614782469,
            "108": 0.00512150661796611,
            "109": 0.01873386306250481,
            "110": 0.04021120067297192,
            "111": 0.05106687040501417,
            "112": -0.19540818146368563,
            "113": -0.1284708656573282,
            "114": 0.005348009237336961,
            "115": 0.17292008422445668,
            "116": -0.20982061651328673,
            "117": -0.17669525796450428,
            "118": 0.021837445962626944,
            "119": 0.11704763804336792,
            "120": 0.19223743245191996,
            "121": -0.19423149778757648,
            "122": 0.038624501992414254,
            "123": 0.0074122949824505565,
            "124": -0.2570651583979031,
            "125": 0.10327307390987377,
            "126": -0.07940659802398682,
            "127": -0.19825530755839624,
            "128": 0.29293790192630004,
            "129": 0.025878575604365208,
            "130": -0.1388114065879079,
            "131": -0.23354140573683396,
            "132": -0.21301358478402746,
            "133": -0.07780263141571335,
            "134": 0.07356450130532556,
            "135": -0.16797664160366066,
            "136": 0.17430979556742504,
            "137": 0.010171083703652922,
            "138": -0.054829205647505555,
            "139": -0.09512790165436467,
            "140": -0.16725735288382904,
            "141": -0.036071239030302356,
            "142": 0.1991775786215847,
            "143": -0.05040239778854841,
            "144": -0.12708147653503415,
            "145": -0.0803072202152678,
            "146": -0.1986857744150723,
            "147": -0.10194988386621354,
            "148": -0.2551098258879301,
            "149": -0.14672086365841788,
            "150": 0.05909057815683193,
            "151": -0.18932965590631515,
            "152": -0.26893911328925535,
            "153": -0.20193177806575416,
            "154": -0.36494996051347245,
            "155": 0.04474341919418818,
            "156": -0.10032953795730305,
            "157": -0.1105978251611565,
            "158": -0.18024654621409505,
            "159": -0.37147591741162966,
            "160": 0.2590302350786336,
            "161": -0.01950888455663964,
            "162": 0.04020276083261346,
            "163": 0.02597921988910218,
            "164": -0.15861658674107498,
            "165": 0.19315749528509668,
            "166": 0.0006054697681572767,
            "167": -0.20770064458274756,
            "168": 0.18527891804727095,
            "169": -0.04109357945988243,
            "170": -0.07116164173542124,
            "171": 0.10055378535471952,
            "172": -0.012426792046950698,
            "173": -0.12094974038895634,
            "174": 0.07634901050832298,
            "175": -0.09526688782461656,
            "176": -0.03524003377140684,
            "177": -0.03528522612895092,
            "178": -0.20197265798247047,
            "179": 0.0792654929205959,
            "180": 0.12909326604153565,
            "181": -0.20667107446673164,
            "182": 0.14359525631877992,
            "183": -0.13019680079245582,
            "184": -0.20774684967041288,
            "185": 0.15079191435062203,
            "186": -0.2118963317391494,
            "187": 0.12481999890692147,
            "188": 0.07493787528917396,
            "189": -0.171393077542229,
            "190": 0.0917994027010948,
            "191": -0.1923235605450059,
            "192": -0.22918651624532474,
            "193": -0.005861807630510254,
            "194": -0.11854295412969718,
            "195": 0.05388572267527232,
            "196": -0.05175208520370631,
            "197": -0.009953296944523142,
            "198": 0.0637344755375723,
            "199": -0.2217479168684661
          }
        },
        {
          "sx": 5,
          "sy": 5,
          "depth": 8,
          "w": {
            "0": -0.3918260143373452,
            "1": -0.11615005261014566,
            "2": -0.24488201483223468,
            "3": 0.2505795206597233,
            "4": 0.18579124351347864,
            "5": -0.00406407194507197,
            "6": -0.16560822066278408,
            "7": -0.06279438847850043,
            "8": -0.3099050584161819,
            "9": -0.05912883248077731,
            "10": -0.22914928645505014,
            "11": -0.03215074956574352,
            "12": 0.07390452036029257,
            "13": -0.1326365989958956,
            "14": -0.29124249123552926,
            "15": -0.16102667839129556,
            "16": -0.02573985909498552,
            "17": -0.11459667436476706,
            "18": -0.22313482534392728,
            "19": -0.11168958461526324,
            "20": 0.20733461326165598,
            "21": -0.08441014347777302,
            "22": -0.25072458243831824,
            "23": -0.05246131358905452,
            "24": -0.001524036531215499,
            "25": -0.16317516404049162,
            "26": -0.16169527589715632,
            "27": -0.01716772378964942,
            "28": 0.20463760817445997,
            "29": 0.06989537647871942,
            "30": -0.11582769658696,
            "31": 0.13984931080721102,
            "32": 0.009323642185463468,
            "33": -0.4007088576709821,
            "34": 0.10578753064150986,
            "35": -0.1581651230060648,
            "36": 0.027254278081446353,
            "37": -0.177432853436229,
            "38": -0.14829481785147203,
            "39": 0.12192792422109444,
            "40": -0.35409941450181354,
            "41": -0.2235923261519159,
            "42": -0.27018743060976624,
            "43": 0.14424799351465192,
            "44": 0.26356670816423927,
            "45": -0.1934512267381031,
            "46": -0.18585628936430573,
            "47": -0.14253835161232517,
            "48": -0.26077780118550553,
            "49": -0.04253285410719288,
            "50": -0.1824396561335006,
            "51": -0.03992183272286997,
            "52": -0.09683186518959466,
            "53": -0.27012705163047135,
            "54": -0.08837169984383021,
            "55": -0.2734976105455046,
            "56": -0.11263526989380783,
            "57": 0.10167630109365967,
            "58": -0.24352458967083282,
            "59": -0.1060833604138189,
            "60": 0.0664566616866536,
            "61": 0.028821447922465007,
            "62": -0.12491686608332013,
            "63": -0.039858166075255635,
            "64": -0.05790269742187635,
            "65": -0.0323565906308511,
            "66": -0.16005999911431962,
            "67": -0.03917499267353381,
            "68": 0.06396770139745787,
            "69": 0.10972020320533567,
            "70": -0.17789514336757947,
            "71": -0.0580591729764517,
            "72": -0.06594683152900814,
            "73": -0.23183605628406986,
            "74": -0.09160892668788867,
            "75": -0.13072874266743442,
            "76": 0.024967497152050867,
            "77": 0.11202130875444852,
            "78": -0.3097204252215265,
            "79": 0.16879833080711462,
            "80": -0.1395061087591937,
            "81": 0.20667144334724905,
            "82": -0.031267081340310046,
            "83": -0.0033280478731015496,
            "84": 0.15878584233861603,
            "85": -0.06684350671518066,
            "86": 0.15652799452160052,
            "87": -0.18494516931605343,
            "88": -0.11676781247601056,
            "89": 0.14258438423851325,
            "90": 0.04556035049029633,
            "91": -0.01639908193554163,
            "92": 0.19884207923636896,
            "93": -0.1524112322276809,
            "94": 0.09850305120606873,
            "95": -0.14847118494031666,
            "96": -0.054657658196347644,
            "97": 0.2632123576911143,
            "98": 0.11342638310797269,
            "99": -0.06156144487817544,
            "100": 0.017446309056492876,
            "101": -0.08342500538765926,
            "102": 0.14233768964594534,
            "103": -0.17546000191798178,
            "104": -0.10946647916703371,
            "105": 0.05875273429204367,
            "106": -0.1127567780795969,
            "107": -0.2427308213493038,
            "108": -0.2794048157194781,
            "109": 0.029215660025195395,
            "110": -0.1059345582511424,
            "111": -0.17780549488124736,
            "112": 0.03358716335895669,
            "113": -0.015310816740162736,
            "114": -0.215764375798879,
            "115": -0.2240243144436239,
            "116": -0.18051385016388002,
            "117": 0.12664918575731676,
            "118": -0.25237999650976534,
            "119": 0.1836735536835312,
            "120": -0.07534715584813823,
            "121": 0.1681384967037461,
            "122": 0.4318245764978211,
            "123": 0.050836745823743874,
            "124": -0.18399414257323093,
            "125": 0.1114779751201081,
            "126": 0.17816451514197618,
            "127": 0.051949704421712685,
            "128": 0.08828819098016749,
            "129": 0.13011794590935913,
            "130": 0.2630772673026533,
            "131": 0.0011662110831818506,
            "132": -0.08440853976073474,
            "133": 0.11198669775379437,
            "134": 0.1802778220437409,
            "135": 0.04588527051267025,
            "136": -0.00394690149595451,
            "137": 0.0729035713749187,
            "138": 0.2415213672764562,
            "139": 0.07502951026720855,
            "140": 0.10993418662548829,
            "141": 0.05554852521086787,
            "142": -0.029428117146260833,
            "143": -0.08478443518722154,
            "144": -0.03312051459721618,
            "145": 0.1699282063120182,
            "146": 0.10477696680119326,
            "147": -0.05391648735209968,
            "148": 0.06430945896309481,
            "149": 0.00768793045264959,
            "150": -0.08884353677035255,
            "151": -0.03030500462627391,
            "152": 0.09505036610186617,
            "153": 0.3353085934936736,
            "154": 0.0028208647615241738,
            "155": -0.21270919871128746,
            "156": 0.025447999262651615,
            "157": 0.1288007886534991,
            "158": 0.000021488106496024356,
            "159": -0.13183800934930906,
            "160": 0.36022792477283433,
            "161": 0.02881577986629832,
            "162": 0.030161059949989966,
            "163": 0.12474215248746577,
            "164": -0.2024970880821628,
            "165": -0.26909697188010967,
            "166": 0.09181601026515847,
            "167": -0.01601579433004289,
            "168": 0.08245219400777291,
            "169": -0.22126639265278397,
            "170": 0.16084285915900481,
            "171": -0.1529804574576125,
            "172": -0.25213385993085696,
            "173": -0.15764183060338777,
            "174": 0.16540796222748724,
            "175": -0.045399639382832084,
            "176": -0.13585738137949457,
            "177": -0.23178489199649524,
            "178": 0.13426271429688114,
            "179": 0.06135819324518112,
            "180": -0.1844404371263812,
            "181": 0.008334550733784538,
            "182": 0.1195893319186934,
            "183": 0.04625685486194575,
            "184": -0.261518442121602,
            "185": -0.10028203338286046,
            "186": 0.2379037714908266,
            "187": -0.0715372377143651,
            "188": -0.10487870408525858,
            "189": 0.0016967351760949904,
            "190": 0.049975984324944635,
            "191": 0.05872411334328024,
            "192": -0.31308867825575165,
            "193": 0.19930366041886374,
            "194": 0.14238005751979513,
            "195": -0.13522728929312047,
            "196": -0.12697751828147477,
            "197": -0.08042460712419083,
            "198": -0.0941339055173743,
            "199": 0.041997681039875806
          }
        },
        {
          "sx": 5,
          "sy": 5,
          "depth": 8,
          "w": {
            "0": -0.2575831593824213,
            "1": -0.3677608185129095,
            "2": 0.19618697296554102,
            "3": 0.08551242926043325,
            "4": 0.058246323422494785,
            "5": 0.18524913808694773,
            "6": -0.04420478109904067,
            "7": 0.25533174988823865,
            "8": -0.1251959747269668,
            "9": -0.04313315642021438,
            "10": 0.16065207005900933,
            "11": -0.10920859226424498,
            "12": -0.3896591616499723,
            "13": 0.30527149794118774,
            "14": 0.051518685048382584,
            "15": 0.01468424903036456,
            "16": -0.012927737514006322,
            "17": 0.07285921439327443,
            "18": -0.11468846956788231,
            "19": -0.05926463796747845,
            "20": -0.3356136033474713,
            "21": 0.2704872520770391,
            "22": 0.02707221921806842,
            "23": -0.09499974612414677,
            "24": 0.13129051138742873,
            "25": -0.12841678908957385,
            "26": -0.09277747229384813,
            "27": -0.11899912820696056,
            "28": -0.11475032526677185,
            "29": 0.12076246595322493,
            "30": -0.19866053627232785,
            "31": -0.17367063117984682,
            "32": 0.02881538991511609,
            "33": -0.07240208123677039,
            "34": -0.09946792538261366,
            "35": -0.10983035699725677,
            "36": -0.11629893241211127,
            "37": 0.19367479045509428,
            "38": -0.14347878970027655,
            "39": 0.036715068301858,
            "40": -0.3378179559449966,
            "41": -0.325939744037383,
            "42": -0.09594635061255291,
            "43": -0.009086953576562312,
            "44": 0.10523218859738884,
            "45": 0.07757936982774467,
            "46": -0.291288499124355,
            "47": -0.023956444237610636,
            "48": -0.22584510069701222,
            "49": -0.17799769447628755,
            "50": 0.07792700476210629,
            "51": 0.09365486296734044,
            "52": -0.1999470260530729,
            "53": 0.1128003138986316,
            "54": -0.20876390743557283,
            "55": -0.045770411871212356,
            "56": -0.1432239736524199,
            "57": -0.008743464395639214,
            "58": 0.06563633107522782,
            "59": -0.13337169340024194,
            "60": -0.04172665700878563,
            "61": 0.42532162277818975,
            "62": -0.014590968850074142,
            "63": -0.06209128841484492,
            "64": -0.001524958264733932,
            "65": 0.1512861489145085,
            "66": -0.20455452316163436,
            "67": 0.13988047471099357,
            "68": -0.029353872001193916,
            "69": 0.13984647673976575,
            "70": 0.13648203471599132,
            "71": -0.3031190491275322,
            "72": 0.06548897130228687,
            "73": -0.11416667952027557,
            "74": -0.13257298412762844,
            "75": -0.03656014631332271,
            "76": 0.08762753270550425,
            "77": 0.17541379973624174,
            "78": 0.03418457244335868,
            "79": -0.0454602032201388,
            "80": -0.44908865045301655,
            "81": -0.17723379117191593,
            "82": 0.21876830558302152,
            "83": 0.1818913098712493,
            "84": -0.026618507979482377,
            "85": -0.14456224343137794,
            "86": 0.039954183276855806,
            "87": 0.07430495035547735,
            "88": -0.30183652431430175,
            "89": 0.02557972491338518,
            "90": 0.057149317926918596,
            "91": 0.2175280925307309,
            "92": -0.032207563482059366,
            "93": -0.030982441671749957,
            "94": -0.15423067509663535,
            "95": 0.1406387063330993,
            "96": -0.3663673552294704,
            "97": -0.033176472044244204,
            "98": 0.07619603503554129,
            "99": -0.03443871867353153,
            "100": 0.029211286048451364,
            "101": 0.06569365557152651,
            "102": 0.04716999613457783,
            "103": 0.08506703767091393,
            "104": -0.30732838881879776,
            "105": -0.08799652985792349,
            "106": -0.10691079777608727,
            "107": 0.22359700815467867,
            "108": 0.03449204797466987,
            "109": 0.34969697144082224,
            "110": 0.16069808511782632,
            "111": -0.25065519036320194,
            "112": -0.41876846460402256,
            "113": -0.06488815737405981,
            "114": -0.14396988616209125,
            "115": -0.2451475706457576,
            "116": 0.01072031444979128,
            "117": 0.2733282018886143,
            "118": 0.08910127771163642,
            "119": 0.1621494281303642,
            "120": -0.19893069003323077,
            "121": -0.23577365723446633,
            "122": 0.17191816888290895,
            "123": -0.1308852231428275,
            "124": -0.18483614214118113,
            "125": -0.3848853606503926,
            "126": -0.07440403635168238,
            "127": 0.05210428905571178,
            "128": -0.08159703875813773,
            "129": -0.01887242834902069,
            "130": 0.06136725761023032,
            "131": -0.06368519532019756,
            "132": -0.0773322486688286,
            "133": -0.21491195384448397,
            "134": -0.06680729171620896,
            "135": 0.0439219117460217,
            "136": -0.1981840142327398,
            "137": 0.04880008182341575,
            "138": 0.02184652941233718,
            "139": 0.07638463459556472,
            "140": 0.10844868284786528,
            "141": 0.03241278519795184,
            "142": -0.09349748024112152,
            "143": 0.1532318689695277,
            "144": -0.24585007634491018,
            "145": -0.16806400509541825,
            "146": -0.15733265089864643,
            "147": -0.1800281950875254,
            "148": -0.06075428959577595,
            "149": 0.06999888622488605,
            "150": -0.04567898887127021,
            "151": -0.22169908515217987,
            "152": -0.2373833650471985,
            "153": -0.05235783320072509,
            "154": 0.030477750491168205,
            "155": -0.28185038944312,
            "156": 0.08841587525080252,
            "157": 0.04487822789928767,
            "158": -0.0029906191763552103,
            "159": -0.08028033082972591,
            "160": -0.05512095003622236,
            "161": -0.14312972708411487,
            "162": -0.03033471235747936,
            "163": -0.22328579480264887,
            "164": 0.018965864598716235,
            "165": -0.27444538806449215,
            "166": -0.19702418580679446,
            "167": 0.08321780861893809,
            "168": -0.18929451018189963,
            "169": -0.11162002824327093,
            "170": -0.008860907545524238,
            "171": -0.056489666806093124,
            "172": 0.13539314860675009,
            "173": -0.2963093061050202,
            "174": -0.22730510450845495,
            "175": 0.17859839717499898,
            "176": -0.20474438638140918,
            "177": 0.04548780703640004,
            "178": 0.09852386838350988,
            "179": -0.08090249824123533,
            "180": -0.03407657166190211,
            "181": -0.009639810143678956,
            "182": -0.1628453474657245,
            "183": 0.0879658505120749,
            "184": -0.10882282812732647,
            "185": 0.1289887715119905,
            "186": 0.0017541060716287833,
            "187": -0.14693381868894748,
            "188": -0.017418643871058133,
            "189": 0.02150304120598424,
            "190": -0.007580140556784467,
            "191": -0.003959169928379058,
            "192": -0.07516962378570728,
            "193": 0.09037596555946487,
            "194": 0.03896810101165144,
            "195": -0.09656569530172189,
            "196": 0.1052532530515362,
            "197": -0.2826831480949647,
            "198": -0.054685517313390296,
            "199": 0.029375873624079524
          }
        },
        {
          "sx": 5,
          "sy": 5,
          "depth": 8,
          "w": {
            "0": -0.11990258020934622,
            "1": 0.11561416704200635,
            "2": -0.020050282683109065,
            "3": -0.18757642787384218,
            "4": 0.030344796542874142,
            "5": -0.003392748257556488,
            "6": 0.20048689432886943,
            "7": -0.2834471560041455,
            "8": 0.15359331912486857,
            "9": 0.16251260533870668,
            "10": -0.000532170597368463,
            "11": -0.03781974298281827,
            "12": 0.16431837603414323,
            "13": -0.21923601663846531,
            "14": 0.10518034476196252,
            "15": -0.16742433276621968,
            "16": 0.2578121534517089,
            "17": 0.3204766526890689,
            "18": -0.08657364749286156,
            "19": -0.054971188911298895,
            "20": -0.024243901763596767,
            "21": -0.06809115336820579,
            "22": 0.207715357036441,
            "23": -0.15273296628491084,
            "24": 0.27735493103128855,
            "25": 0.2352813038279377,
            "26": -0.05642330615241769,
            "27": -0.2052521870830296,
            "28": -0.11927146242215987,
            "29": -0.0619364153537878,
            "30": 0.06787983386089301,
            "31": -0.18416231326952012,
            "32": 0.15450680785074755,
            "33": -0.07814178234042325,
            "34": -0.16178074044331409,
            "35": -0.2686866906046938,
            "36": -0.06667793705826212,
            "37": -0.05332204123412846,
            "38": 0.21199131243364844,
            "39": -0.17723943791120583,
            "40": 0.11998822155507921,
            "41": 0.1904465858255428,
            "42": 0.02233309755925751,
            "43": 0.023221261651252705,
            "44": -0.00850509994622546,
            "45": 0.22237881065059129,
            "46": 0.3363310232895497,
            "47": -0.18129347997010065,
            "48": 0.12675988552836262,
            "49": 0.06829017122645457,
            "50": 0.028659085278739695,
            "51": -0.2117795773608449,
            "52": -0.07882335745071817,
            "53": 0.2241974537597535,
            "54": 0.32998697805002497,
            "55": -0.07181667916333076,
            "56": 0.15212748236678356,
            "57": 0.13924881767830105,
            "58": -0.020313680178995912,
            "59": -0.23656834252065972,
            "60": -0.2336479122703423,
            "61": 0.32577832451896793,
            "62": 0.21740131981518915,
            "63": -0.007380215911346705,
            "64": 0.07225908496848892,
            "65": 0.2105478636242067,
            "66": 0.04975609177001243,
            "67": -0.27073118204289837,
            "68": -0.13476602549615188,
            "69": 0.11829790768704691,
            "70": 0.11264582697981762,
            "71": -0.12482519287274961,
            "72": -0.070082337876256,
            "73": 0.35280197884850456,
            "74": 0.017633722097710133,
            "75": -0.33934346572631396,
            "76": -0.08623656554168903,
            "77": 0.13401812084766768,
            "78": 0.016632809194899435,
            "79": -0.2793831593787172,
            "80": -0.09135605470077228,
            "81": 0.013735433689636194,
            "82": -0.15012013317596998,
            "83": 0.17524100449259677,
            "84": -0.1037686432755904,
            "85": -0.017802126035621105,
            "86": 0.2433491116027964,
            "87": -0.13253118428826546,
            "88": -0.35900321507575494,
            "89": -0.06352633962792346,
            "90": 0.1145237483248361,
            "91": -0.08140390101727339,
            "92": 0.01616093061890437,
            "93": 0.382831819398141,
            "94": 0.16666506353150762,
            "95": 0.014938315511967929,
            "96": -0.15040974724561365,
            "97": 0.10149516460610816,
            "98": -0.04346484094880194,
            "99": -0.004057145189603822,
            "100": -0.003138633197283251,
            "101": 0.38294325747940106,
            "102": 0.17844406315619482,
            "103": 0.0032939375781519623,
            "104": -0.38477563417966587,
            "105": 0.17776788597712687,
            "106": 0.1698752117028704,
            "107": -0.07062308090074941,
            "108": 0.15270924152430596,
            "109": 0.264435197354588,
            "110": 0.03245764155554452,
            "111": 0.08040910317281076,
            "112": -0.1704819078325773,
            "113": 0.11107013457795736,
            "114": 0.1793082387417198,
            "115": -0.04067508654041632,
            "116": 0.0369753825123773,
            "117": 0.022895000045998155,
            "118": 0.09410347099859463,
            "119": 0.0884565153417295,
            "120": -0.47592732896726536,
            "121": -0.30760513302617876,
            "122": 0.02065912673946432,
            "123": 0.01688239879292712,
            "124": 0.06820308385061108,
            "125": -0.13424945869133625,
            "126": 0.017712787749880294,
            "127": -0.27066900015596546,
            "128": -0.6481045079664239,
            "129": -0.28789570065572984,
            "130": -0.0325510282819327,
            "131": 0.17743630752867315,
            "132": 0.23923102170027524,
            "133": 0.02783368069265372,
            "134": 0.0723886517640754,
            "135": -0.021590737242823396,
            "136": -0.4404446716091451,
            "137": -0.10869864578746968,
            "138": 0.08242601673888206,
            "139": 0.13416594106932142,
            "140": -0.06652964956157904,
            "141": 0.21125081353199807,
            "142": -0.007424446650883387,
            "143": 0.07638983239794203,
            "144": -0.11422640004078968,
            "145": -0.16573231664803664,
            "146": -0.0903372474168493,
            "147": -0.08565556362322146,
            "148": -0.14755924320921726,
            "149": 0.20409973549272448,
            "150": -0.13324599736134907,
            "151": -0.016123164696420698,
            "152": 0.051601362118304774,
            "153": -0.26964489168054284,
            "154": -0.06907780183318533,
            "155": -0.10284865681281002,
            "156": -0.41269472624027653,
            "157": 0.13200970096448367,
            "158": -0.08434106793274726,
            "159": 0.06470765911781404,
            "160": -0.27744770420386267,
            "161": -0.03208890625884692,
            "162": -0.008729719550247336,
            "163": 0.22768668913841944,
            "164": 0.2090672049165001,
            "165": -0.2015581278531312,
            "166": 0.19821865774027342,
            "167": -0.08661727910560353,
            "168": -0.2740374071334254,
            "169": -0.16375425177542322,
            "170": 0.0695580418026037,
            "171": 0.20345069818470124,
            "172": 0.4267548795957944,
            "173": -0.2242517604068691,
            "174": -0.006980552699026737,
            "175": 0.055359759552077205,
            "176": -0.3983631934890651,
            "177": -0.3583687802844442,
            "178": -0.0277563852588361,
            "179": 0.19719943497491832,
            "180": 0.11960953845861214,
            "181": -0.23900249204800586,
            "182": -0.37346732325200055,
            "183": -0.0033409957081935193,
            "184": -0.2189713415596808,
            "185": -0.24511793261714485,
            "186": -0.19703949175995544,
            "187": 0.20878017473704263,
            "188": -0.14280099757069803,
            "189": 0.11036744248319036,
            "190": -0.23889576354237507,
            "191": -0.1251836220100774,
            "192": -0.13602029075942337,
            "193": -0.20162714858146236,
            "194": -0.21044062622646792,
            "195": -0.04586482373402736,
            "196": -0.1743807618268489,
            "197": 0.04607492392241702,
            "198": -0.21557448462781392,
            "199": 0.024972635988831364
          }
        },
        {
          "sx": 5,
          "sy": 5,
          "depth": 8,
          "w": {
            "0": 0.06671756571154057,
            "1": -0.09359239111720165,
            "2": -0.10201466238516549,
            "3": -0.1396862093356867,
            "4": -0.15471811874821964,
            "5": -0.1764143442122002,
            "6": -0.3704083429711539,
            "7": 0.052885287046804536,
            "8": 0.15660943493687507,
            "9": -0.2704132162757163,
            "10": -0.008476366941130412,
            "11": -0.1518753291918906,
            "12": -0.28120585709753515,
            "13": -0.02213567592151075,
            "14": -0.26603469033725896,
            "15": -0.09418948512672808,
            "16": 0.16630166803014,
            "17": -0.16507140328953918,
            "18": -0.08263105761416019,
            "19": -0.00010881433570219127,
            "20": -0.2210497044875633,
            "21": -0.07873304394395057,
            "22": -0.19626614545416562,
            "23": 0.04798388012461924,
            "24": -0.06244641835781421,
            "25": 0.01297235234502268,
            "26": -0.10996205035056884,
            "27": 0.019963200878948983,
            "28": 0.007441589712801403,
            "29": -0.18840108113486467,
            "30": -0.07423959097579269,
            "31": 0.0022225587593945792,
            "32": -0.27815357845439037,
            "33": 0.07115001491708511,
            "34": 0.03777628729614055,
            "35": 0.025624926243669865,
            "36": 0.28344081436594826,
            "37": -0.35493796048217263,
            "38": 0.17783721166907612,
            "39": 0.1264682519314885,
            "40": 0.42200070951043517,
            "41": 0.15905745173696517,
            "42": -0.3528960584035492,
            "43": -0.36643830820366274,
            "44": -0.008400468260159737,
            "45": 0.05104692694962727,
            "46": 0.04573938255515746,
            "47": -0.24320416139261916,
            "48": 0.09698069556958712,
            "49": -0.07009025900067613,
            "50": -0.36068267566845763,
            "51": -0.3311391852386094,
            "52": 0.06559372329582311,
            "53": 0.3372780080416962,
            "54": -0.23760814123785334,
            "55": -0.15983167093717787,
            "56": -0.02577761654677934,
            "57": -0.4664198114188834,
            "58": 0.0859925360784504,
            "59": -0.35340012854891156,
            "60": -0.08477779199935322,
            "61": 0.22562900148319176,
            "62": -0.49821861276569906,
            "63": 0.035783789512488035,
            "64": 0.10828372609369202,
            "65": -0.31112464501353587,
            "66": 0.22385226533573965,
            "67": -0.12231252778894239,
            "68": -0.09212766425634926,
            "69": -0.18730081410709787,
            "70": -0.08854149212124365,
            "71": 0.16775721163951435,
            "72": 0.18184544358711155,
            "73": -0.21957486056584277,
            "74": -0.13412043219349296,
            "75": 0.2522224958015487,
            "76": -0.22499895233032308,
            "77": -0.4524794263816087,
            "78": -0.032208002177912726,
            "79": 0.12662722186123201,
            "80": -0.03708987989178114,
            "81": 0.3200515886811101,
            "82": -0.05133034228840507,
            "83": -0.1786897255627575,
            "84": 0.019835109672155366,
            "85": -0.15978841113110953,
            "86": 0.17540283042585014,
            "87": -0.3383013262051549,
            "88": 0.09968789743403439,
            "89": 0.35834837265665037,
            "90": 0.04299229177586116,
            "91": -0.2696216648960159,
            "92": 0.04554995622156864,
            "93": 0.14798706981528065,
            "94": 0.28669472674278995,
            "95": -0.4452316977748863,
            "96": 0.4107117423260391,
            "97": 0.22838130103659218,
            "98": -0.3215330099498702,
            "99": -0.22370543667959486,
            "100": 0.10570028724906082,
            "101": 0.16765611260917254,
            "102": 0.16807054694421458,
            "103": -0.039328735123127366,
            "104": 0.5874524927176533,
            "105": 0.032460112211888416,
            "106": -0.14959945259695823,
            "107": -0.22682211463825322,
            "108": -0.055663528114433286,
            "109": 0.0013105439119323388,
            "110": -0.0044366259861926246,
            "111": 0.056728964059782214,
            "112": 0.1442205833631316,
            "113": -0.36284726746937834,
            "114": -0.12410623961592644,
            "115": -0.2014034465249715,
            "116": -0.4321435001847809,
            "117": -0.45960695666947593,
            "118": -0.34627449020974677,
            "119": -0.1768322583314975,
            "120": 0.1810980779739511,
            "121": 0.06560313779676691,
            "122": -0.0096095717261588,
            "123": -0.11685864143786308,
            "124": 0.05554457717017383,
            "125": -0.11148845125991876,
            "126": 0.14335436137240282,
            "127": -0.08786551619053673,
            "128": -0.1085207484284408,
            "129": 0.18250255220401967,
            "130": 0.06012376420555297,
            "131": -0.16594708106319772,
            "132": -0.06369556822286929,
            "133": 0.15041652341804285,
            "134": 0.14197450163477685,
            "135": -0.10237395624677147,
            "136": 0.02038881989249446,
            "137": 0.1809967922165373,
            "138": 0.1263317730333899,
            "139": -0.07114504574941619,
            "140": -0.015029885986764064,
            "141": 0.20221909496489177,
            "142": 0.22124581099309928,
            "143": -0.105630843965676,
            "144": 0.1297912715203413,
            "145": 0.09880642126151433,
            "146": -0.023174335323885447,
            "147": -0.06533028641403459,
            "148": 0.020696439479337615,
            "149": -0.0713224324574397,
            "150": 0.2592449190678538,
            "151": -0.17279246082834518,
            "152": -0.008702847355874645,
            "153": 0.11071882524369131,
            "154": 0.030192745928857248,
            "155": -0.20385396339880604,
            "156": 0.08656440183990707,
            "157": -0.32878294653192985,
            "158": 0.06542535347068958,
            "159": -0.2625666491636429,
            "160": -0.01698613187506674,
            "161": 0.1854447360307317,
            "162": 0.12899784957984245,
            "163": -0.17623207950756273,
            "164": 0.17248951144750307,
            "165": 0.17084762325856853,
            "166": 0.10204445452943406,
            "167": -0.15342984942627297,
            "168": -0.3235770258442706,
            "169": -0.11813376227351244,
            "170": 0.0667615536007952,
            "171": -0.33975129224638334,
            "172": -0.08710833836692745,
            "173": 0.14224301561146585,
            "174": -0.06367565884596135,
            "175": 0.04586110090713431,
            "176": -0.17006513707258167,
            "177": 0.058703774022242555,
            "178": 0.12152627646120345,
            "179": -0.21164322124646598,
            "180": 0.05499403975512316,
            "181": 0.2040779206125713,
            "182": -0.06896299526226789,
            "183": 0.20941474934111798,
            "184": 0.12021963320110096,
            "185": 0.18975789965172885,
            "186": 0.09914381674541663,
            "187": -0.05265274703714985,
            "188": 0.07304474707909425,
            "189": 0.170968434589237,
            "190": -0.04273224961505884,
            "191": 0.06674067785668081,
            "192": 0.023430396362255995,
            "193": 0.02228773846301379,
            "194": 0.06036170964048382,
            "195": -0.09833223166761573,
            "196": -0.10874805468566812,
            "197": -0.14926311725802333,
            "198": 0.0102815002277776,
            "199": -0.09606361697738647
          }
        },
        {
          "sx": 5,
          "sy": 5,
          "depth": 8,
          "w": {
            "0": 0.2113562449074492,
            "1": -0.11985076478536603,
            "2": 0.2963867318786933,
            "3": 0.19259110513655256,
            "4": 0.1511896304803075,
            "5": -0.3195729600558791,
            "6": 0.17803153018202997,
            "7": 0.10014498416269633,
            "8": 0.09488939094341359,
            "9": 0.05614613272408717,
            "10": 0.22928304763572346,
            "11": 0.04257484041765827,
            "12": -0.08953683629683792,
            "13": 0.0054634281921728785,
            "14": 0.11391241805439503,
            "15": 0.03846809982230401,
            "16": -0.01713974114820396,
            "17": -0.17007422848925624,
            "18": -0.12625351573814772,
            "19": -0.2824387986649148,
            "20": -0.018032543371893073,
            "21": -0.13731170766482226,
            "22": 0.13022494332976048,
            "23": 0.057835556127884394,
            "24": -0.14697669570577504,
            "25": -0.13726495455510193,
            "26": 0.08221880745415121,
            "27": 0.06512743069152505,
            "28": -0.07383080107907615,
            "29": 0.1567292331447899,
            "30": -0.09248040318136051,
            "31": -0.017876511421079624,
            "32": -0.13771561359700282,
            "33": 0.00023030727118012123,
            "34": 0.12060042580659991,
            "35": 0.18369648833101285,
            "36": -0.3131344058254264,
            "37": 0.2914059819834219,
            "38": -0.07485187338840166,
            "39": -0.09355870284396854,
            "40": 0.22161036365825637,
            "41": -0.1915881487554132,
            "42": 0.03458195788800636,
            "43": 0.014296992520720819,
            "44": -0.15253246088385006,
            "45": -0.22927658429173706,
            "46": -0.2484979880341689,
            "47": 0.006055992887105601,
            "48": 0.12707036917087589,
            "49": -0.09638755861965172,
            "50": -0.1885867657044701,
            "51": -0.2322464273712455,
            "52": -0.2149139230379635,
            "53": 0.018755155440444107,
            "54": -0.24770895780703087,
            "55": -0.12402155293430145,
            "56": -0.12064279957522651,
            "57": -0.3203398559716288,
            "58": 0.14598078930845912,
            "59": -0.21362106754267962,
            "60": -0.07052538881719908,
            "61": -0.2275698218098891,
            "62": -0.09822103044881059,
            "63": 0.20356077985771276,
            "64": 0.03874824597150624,
            "65": -0.1388634776102004,
            "66": 0.10784624154329517,
            "67": 0.08095533318874802,
            "68": -0.2499781399065368,
            "69": 0.23165321767550295,
            "70": -0.06299662935647632,
            "71": 0.08017373549775135,
            "72": 0.015313198344970616,
            "73": 0.022413085058802282,
            "74": -0.1282576793560872,
            "75": 0.1495292041195186,
            "76": -0.028796054865199233,
            "77": 0.2823999423427756,
            "78": 0.06651029600539543,
            "79": -0.11327954323894558,
            "80": 0.10915432915125468,
            "81": 0.030551027890651124,
            "82": -0.42680803474012813,
            "83": 0.07685501296893861,
            "84": 0.012814268706281964,
            "85": 0.05457941510005972,
            "86": 0.030673494740258538,
            "87": -0.2792328787694819,
            "88": -0.004010806292489786,
            "89": -0.18974290357863066,
            "90": -0.5010394064944578,
            "91": -0.2691816645490016,
            "92": -0.24524537092977747,
            "93": -0.13375241989931738,
            "94": -0.2512589420722861,
            "95": -0.0630819828980512,
            "96": -0.0307002292871485,
            "97": -0.17589234625646202,
            "98": -0.058882724246225544,
            "99": -0.19568293315129515,
            "100": 0.044627954077029526,
            "101": 0.02683494919272196,
            "102": -0.21716213325304437,
            "103": 0.15703369590654093,
            "104": -0.27680958434357383,
            "105": -0.15413471709032459,
            "106": 0.0880288965052439,
            "107": -0.0628447018567028,
            "108": -0.14234658421300467,
            "109": 0.2912091789581703,
            "110": -0.2680048422329675,
            "111": 0.0976777051496238,
            "112": -0.19729669823534288,
            "113": 0.2603497165395314,
            "114": 0.2828463811625165,
            "115": -0.05737892549526711,
            "116": -0.09897813489150432,
            "117": 0.3897032478257662,
            "118": -0.016617515058518172,
            "119": 0.04594692819285707,
            "120": -0.07772862876770334,
            "121": 0.18519558198017452,
            "122": -0.3803225872437118,
            "123": 0.0037748309369355264,
            "124": -0.06726336548962752,
            "125": 0.2596273944216403,
            "126": 0.12262773391689134,
            "127": -0.3280824222159956,
            "128": 0.0482884073713827,
            "129": -0.17052739444192347,
            "130": -0.30587352208239654,
            "131": -0.08723568895007554,
            "132": -0.1833162660531073,
            "133": -0.03617831485834978,
            "134": -0.23594102444850065,
            "135": -0.23056709211908902,
            "136": 0.0614153185616909,
            "137": -0.23809002651913486,
            "138": -0.24831161775420818,
            "139": -0.21827095727633894,
            "140": -0.10527786893857116,
            "141": 0.16472440971137037,
            "142": -0.15507243370318935,
            "143": -0.08070971382627465,
            "144": -0.0337439681138995,
            "145": 0.01660217722023177,
            "146": 0.03171167682182619,
            "147": -0.11559247613229184,
            "148": -0.15276057370002835,
            "149": 0.29948874056322977,
            "150": -0.07922652427481301,
            "151": 0.08404496348698591,
            "152": -0.22412778722280224,
            "153": -0.13252134697236845,
            "154": 0.1626948933727391,
            "155": -0.07510014737117973,
            "156": 0.005675115267795988,
            "157": 0.28305215660007793,
            "158": -0.0069907911018111685,
            "159": 0.2492404479890859,
            "160": -0.2430223330229606,
            "161": 0.01949465661122407,
            "162": -0.13632811629524594,
            "163": 0.032884960232570044,
            "164": -0.01800272322074537,
            "165": 0.38648433225021017,
            "166": 0.022550691325880192,
            "167": -0.0871852775512991,
            "168": -0.01191301344592121,
            "169": 0.03532761181637559,
            "170": -0.22507196346071714,
            "171": 0.03411309896863601,
            "172": 0.026471314774599502,
            "173": -0.03250582160574825,
            "174": 0.06387200533829067,
            "175": -0.2891374871129156,
            "176": 0.03662436895433575,
            "177": 0.1788609048094989,
            "178": -0.13426218027908654,
            "179": -0.3629380539729074,
            "180": -0.09157640096663537,
            "181": -0.2593174786261392,
            "182": 0.11877183480717819,
            "183": -0.026041049827280578,
            "184": -0.08781926873191039,
            "185": 0.1624793092990091,
            "186": 0.015360822025918788,
            "187": -0.05229237105398633,
            "188": 0.04999128212879631,
            "189": -0.1597961428569177,
            "190": 0.04486685547126098,
            "191": -0.04873464627128327,
            "192": -0.3298213853398781,
            "193": -0.016985838164022892,
            "194": 0.029638266612249584,
            "195": -0.2476066798505022,
            "196": 0.14393901747583274,
            "197": -0.0027983228030543685,
            "198": 0.058100340899709974,
            "199": 0.2271514170360462
          }
        },
        {
          "sx": 5,
          "sy": 5,
          "depth": 8,
          "w": {
            "0": -0.15660832814976536,
            "1": 0.10034031633537449,
            "2": 0.08129700157272436,
            "3": -0.30808403766359027,
            "4": -0.10306385377539312,
            "5": -0.09421797672011024,
            "6": 0.04689870342393508,
            "7": -0.0582533240927692,
            "8": -0.003595452480068695,
            "9": 0.1979523276606436,
            "10": 0.23481590043585096,
            "11": -0.2970942868491459,
            "12": 0.017366687992381724,
            "13": -0.09096081358457687,
            "14": 0.22170866314287482,
            "15": 0.01487400633375836,
            "16": 0.005091718182283697,
            "17": 0.2211212434362091,
            "18": 0.10366205368043784,
            "19": -0.06351705216165889,
            "20": 0.03591739877267125,
            "21": 0.07018884694117922,
            "22": 0.21937138213627294,
            "23": 0.08271576805146387,
            "24": 0.14330044900154057,
