{
  "layers": [
    { "out_depth": 1, "out_sx": 24, "out_sy": 24, "layer_type": "input" },
    {
      "sx": 5,
      "sy": 5,
      "stride": 1,
      "in_depth": 1,
      "out_depth": 8,
      "out_sx": 24,
      "out_sy": 24,
      "layer_type": "conv",
      "l1_decay_mul": 0,
      "l2_decay_mul": 1,
      "pad": 2,
      "filters": [
        {
          "sx": 5,
          "sy": 5,
          "depth": 1,
          "w": {
            "0": 0.029779865896232795,
            "1": -0.2560485477527149,
            "2": -0.033516193044179694,
            "3": -0.33870434397605126,
            "4": 0.005941736612056691,
            "5": 0.05254102762296147,
            "6": 0.5381923396938758,
            "7": 0.4203300995963525,
            "8": 0.38225661808436734,
            "9": 0.2517301864068523,
            "10": 0.3614052705782349,
            "11": 0.40736387738705215,
            "12": 0.36871180365243494,
            "13": 0.7672263390840205,
            "14": 0.29935282073961683,
            "15": -0.13175522735583903,
            "16": 0.08804940697752991,
            "17": -0.3279247580959074,
            "18": -0.6264899523309749,
            "19": -0.4706173881496229,
            "20": 0.02426402505777412,
            "21": -0.5526198303238926,
            "22": -0.7244261710358266,
            "23": -0.41934285161690965,
            "24": -0.2723618221708168
          }
        },
        {
          "sx": 5,
          "sy": 5,
          "depth": 1,
          "w": {
            "0": 0.4216817698689987,
            "1": -0.5109124481806262,
            "2": -0.37569522729553245,
            "3": -0.29992683396378716,
            "4": -0.3505988654577013,
            "5": 0.029775055873477414,
            "6": -0.21475724634891957,
            "7": 0.0797760236864932,
            "8": 0.06430673026026873,
            "9": 0.15798166345977385,
            "10": -0.10257194070322218,
            "11": 0.12048173300742579,
            "12": 0.4595657637546592,
            "13": -0.18453861759231782,
            "14": -0.05370893755576679,
            "15": 0.3135528301870528,
            "16": -0.21893935033458178,
            "17": 0.3522267112449741,
            "18": -0.5301418571886863,
            "19": -0.7546650172650737,
            "20": 0.060942934522249144,
            "21": 0.1270819873852218,
            "22": 0.4047156726575452,
            "23": 0.10485718090942206,
            "24": 0.1021607231885009
          }
        },
        {
          "sx": 5,
          "sy": 5,
          "depth": 1,
          "w": {
            "0": 0.10195196352484681,
            "1": 0.31502818482598316,
            "2": -0.047436275750854094,
            "3": -0.08549386831370895,
            "4": -0.49255888044462787,
            "5": 0.4565775821190669,
            "6": -0.13561917498967366,
            "7": 0.2313807377758398,
            "8": -0.4882594627684153,
            "9": -0.3259805724488696,
            "10": 0.3782213961592856,
            "11": 0.014967788002538864,
            "12": 0.10755282946923093,
            "13": -0.4351561118851778,
            "14": -0.4720653082207591,
            "15": 0.3848060094241913,
            "16": 0.2854292457177483,
            "17": -0.4647555264133308,
            "18": -0.42952445729416255,
            "19": -0.26067209850329826,
            "20": 0.3196586536212867,
            "21": -0.09589615659460933,
            "22": -0.34513127601191285,
            "23": -0.09065759152268403,
            "24": -0.32081461168068554
          }
        },
        {
          "sx": 5,
          "sy": 5,
          "depth": 1,
          "w": {
            "0": 0.11927222270180615,
            "1": -0.022095941237797227,
            "2": -0.1735956215710371,
            "3": -0.09579391883562648,
            "4": 0.49946177484465526,
            "5": -0.20121141235583376,
            "6": -0.8283713657799053,
            "7": 0.0392972708260214,
            "8": 0.2582308745857658,
            "9": 0.10331919666921768,
            "10": -0.7621725258900051,
            "11": -0.25633760414609885,
            "12": -0.035268890432113294,
            "13": 0.3490534623382278,
            "14": 0.22980501141965315,
            "15": -0.6811819952808761,
            "16": 0.045615763501211014,
            "17": 0.3814941524695257,
            "18": 0.23444673863473486,
            "19": 0.08676202133698636,
            "20": -0.13838942178128572,
            "21": -0.290438086737278,
            "22": 0.1036691566039588,
            "23": 0.15991858334858078,
            "24": -0.06328042715348317
          }
        },
        {
          "sx": 5,
          "sy": 5,
          "depth": 1,
          "w": {
            "0": -0.013195070044143532,
            "1": -0.5219378266988053,
            "2": 0.27444534385470454,
            "3": 0.14172276742849427,
            "4": -0.556734199184996,
            "5": 0.30317983731289283,
            "6": 0.006045007220048245,
            "7": 0.0034126154050751357,
            "8": 0.30158452469144204,
            "9": -0.3982765340181533,
            "10": 0.03842697840978536,
            "11": 0.31680927559649025,
            "12": 0.3518612695959327,
            "13": 0.28356712987962074,
            "14": 0.15149069927118078,
            "15": 0.07735062168251351,
            "16": -0.01463187994375928,
            "17": 0.014710049875264725,
            "18": 0.7223641618250595,
            "19": 0.3116387524964441,
            "20": -0.3619776217707969,
            "21": -0.0698080109815711,
            "22": -0.1325901436929358,
            "23": 0.033734551023080595,
            "24": 0.12646186577610163
          }
        },
        {
          "sx": 5,
          "sy": 5,
          "depth": 1,
          "w": {
            "0": -0.5717307494383574,
            "1": -0.5882384844478474,
            "2": -0.32133262935715873,
            "3": -0.6507202844101679,
            "4": -0.34743148457828416,
            "5": -0.26043930981772934,
            "6": -0.1083865742865115,
            "7": -0.4144880031240722,
            "8": 0.061685853496307494,
            "9": -0.26241465934212543,
            "10": -0.1950985513371037,
            "11": -0.0005333451710476562,
            "12": -0.04865778473461045,
            "13": -0.20380865093356312,
            "14": 0.31702673085655086,
            "15": 0.04068967877573141,
            "16": 0.0019108698617455668,
            "17": 0.18102299390225457,
            "18": 0.6318212824339056,
            "19": 0.43554663970759605,
            "20": 0.506807358173198,
            "21": -0.14646123798462635,
            "22": 0.5605325271664707,
            "23": 0.21637931079215003,
            "24": 0.11461099944804796
          }
        },
        {
          "sx": 5,
          "sy": 5,
          "depth": 1,
          "w": {
            "0": 0.44664982652131135,
            "1": 0.1395350640269303,
            "2": -0.0895832687739708,
            "3": -0.5114402421892639,
            "4": -0.6347683139268531,
            "5": 0.33736650580652794,
            "6": 0.43335716217754705,
            "7": -0.29775851413344534,
            "8": -0.279872438332615,
            "9": -0.7010285762137509,
            "10": -0.179650242493438,
            "11": -0.08793399267366298,
            "12": -0.21087524579149888,
            "13": 0.11508229219843057,
            "14": -0.15030587110136562,
            "15": -0.5428724727743093,
            "16": -0.5560819752254199,
            "17": 0.19521921647634177,
            "18": 0.17943158739342435,
            "19": 0.29453158041629285,
            "20": -0.22750624224514773,
            "21": 0.1157004061184707,
            "22": 0.17930035288983323,
            "23": 0.30456866248022735,
            "24": -0.1339034058901308
          }
        },
        {
          "sx": 5,
          "sy": 5,
          "depth": 1,
          "w": {
            "0": 0.04234497641373406,
            "1": 0.04499285654135874,
            "2": -0.04355500227136584,
            "3": 0.5146914778647222,
            "4": -0.3263365678572486,
            "5": 0.38961741350679574,
            "6": -0.6658412723236333,
            "7": 0.0261506292927018,
            "8": 0.29051001611968336,
            "9": 0.4154434726014793,
            "10": 0.010891322972257663,
            "11": -0.029525134394222694,
            "12": 0.2505381450456749,
            "13": 0.09721485174221621,
            "14": 0.7014409894519164,
            "15": -0.4801086596245848,
            "16": -0.504934185433278,
            "17": -0.43009079826476704,
            "18": 0.03649142922372519,
            "19": -0.13260330728709538,
            "20": -0.09971480990605018,
            "21": -0.383504000517248,
            "22": -0.7866794260144548,
            "23": -0.8935981334745926,
            "24": -1.0075021059236389
          }
        }
      ],
      "biases": {
        "sx": 1,
        "sy": 1,
        "depth": 8,
        "w": {
          "0": -0.01735719529195812,
          "1": -0.05455315137863433,
          "2": 0.03232302507181163,
          "3": -0.10271258866419787,
          "4": -0.2755013113909946,
          "5": -0.00819318482036575,
          "6": -0.0038856866744845517,
          "7": 0.2353159689242582
        }
      }
    },
    { "out_depth": 8, "out_sx": 24, "out_sy": 24, "layer_type": "relu" },
    {
      "sx": 2,
      "sy": 2,
      "stride": 2,
      "in_depth": 8,
      "out_depth": 8,
      "out_sx": 12,
      "out_sy": 12,
      "layer_type": "pool",
      "pad": 0
    },
    {
      "sx": 5,
      "sy": 5,
      "stride": 1,
      "in_depth": 8,
      "out_depth": 16,
      "out_sx": 12,
      "out_sy": 12,
      "layer_type": "conv",
      "l1_decay_mul": 0,
      "l2_decay_mul": 1,
      "pad": 2,
      "filters": [
        {
          "sx": 5,
          "sy": 5,
          "depth": 8,
          "w": {
            "0": -0.006076908232791584,
            "1": -0.17999370038049994,
            "2": 0.021096272583450495,
            "3": -0.01681033677277426,
            "4": -0.00919014580764142,
            "5": 0.0309242676780082,
            "6": -0.020617843278606388,
            "7": 0.06589479012195892,
            "8": 0.009351570941526275,
            "9": 0.031025078004712905,
            "10": -0.12252458784679153,
            "11": -0.02531873000908255,
            "12": -0.013413131488069765,
            "13": 0.007205736714926935,
            "14": -0.04219636416014786,
            "15": 0.05049477744758043,
            "16": -0.07188044655627451,
            "17": 0.03067912569430144,
            "18": 0.01133446408988232,
            "19": -0.1227398434084343,
            "20": -0.05351616131142282,
            "21": 0.06214612498000095,
            "22": 0.02184758783111495,
            "23": -0.04062295464462255,
            "24": -0.026543985176034932,
            "25": -0.04885312524629509,
            "26": -0.10754500641843392,
            "27": 0.03896148792691184,
            "28": -0.061248275479781275,
            "29": -0.1123029331928612,
            "30": 0.02291706976923884,
            "31": -0.17023250316780564,
            "32": 0.09433484565561095,
            "33": 0.027916692004963037,
            "34": 0.0029481433170179074,
            "35": -0.009204060590043936,
            "36": -0.01147706661435637,
            "37": 0.006322471228274704,
            "38": -0.00948977627121953,
            "39": 0.03428471172666619,
            "40": -0.047650111576457946,
            "41": -0.07644138310457135,
            "42": -0.07330883171535876,
            "43": -0.046405284703087586,
            "44": -0.06675059485669776,
            "45": -0.030408451914219075,
            "46": -0.08597001726671745,
            "47": 0.004330087980762007,
            "48": -0.008281606449783875,
            "49": 0.00142912474161196,
            "50": 0.029784062377831357,
            "51": 0.021558062162197918,
            "52": -0.008784846109796749,
            "53": -0.011491584582141511,
            "54": 0.0012309144024397125,
            "55": -0.09903680300246884,
            "56": -0.004523885500387593,
            "57": 0.058925877324677335,
            "58": -0.0987163799075727,
            "59": -0.09207774592341979,
            "60": -0.07943709219616944,
            "61": -0.03587386095180894,
            "62": 0.03586265995091056,
            "63": -0.04128984511781364,
            "64": -0.051151537112303844,
            "65": -0.0032280016936194317,
            "66": 0.06146111728727797,
            "67": -0.13998248255471066,
            "68": -0.06582904733737639,
            "69": -0.004675448056321967,
            "70": -0.07975991662471643,
            "71": -0.11439654777509976,
            "72": -0.06908034779778376,
            "73": 0.018344222714486255,
            "74": -0.08540961566156793,
            "75": -0.00444023040370682,
            "76": -0.11846426161288608,
            "77": -0.009462185939563661,
            "78": -0.04870695070636591,
            "79": -0.08620980473147409,
            "80": -0.05442048577208902,
            "81": -0.01629456503484204,
            "82": 0.057473191587750966,
            "83": 0.07311111683900935,
            "84": -0.007713641532065634,
            "85": -0.05804037598644272,
            "86": 0.0948781692296739,
            "87": -0.03455179791563986,
            "88": -0.024692441051943,
            "89": -0.004620182049628738,
            "90": -0.13049632041892967,
            "91": -0.10660682979635967,
            "92": 0.09034797664378735,
            "93": -0.0437072863689142,
            "94": 0.013162806163428969,
            "95": 0.09512062587358588,
            "96": -0.08132173929992216,
            "97": -0.05715610752861411,
            "98": -0.08801461959564907,
            "99": -0.03373263124813081,
            "100": 0.03962890177678624,
            "101": 0.052743093083315006,
            "102": 0.03964195409439136,
            "103": 0.03675781065116087,
            "104": -0.02020076187771953,
            "105": 0.03501132013169176,
            "106": -0.04874617436419532,
            "107": -0.012822238902921718,
            "108": 0.0005220359659813337,
            "109": -0.03288723804864286,
            "110": -0.007437141233315581,
            "111": -0.04262654940089494,
            "112": 0.04474881131113264,
            "113": -0.13027099675042664,
            "114": -0.0060243139569955235,
            "115": 0.008836346999714266,
            "116": -0.012819635415219934,
            "117": -0.11208131214663453,
            "118": 0.009197745171408688,
            "119": -0.05775720962836188,
            "120": -0.008981453331143738,
            "121": -0.021898662951427065,
            "122": -0.0991363693116755,
            "123": -0.049591395040292766,
            "124": -0.03727310471551705,
            "125": 0.0569357422768553,
            "126": 0.0224636800252772,
            "127": 0.07046259309993348,
            "128": -0.10507528092777363,
            "129": -0.16656899895190996,
            "130": -0.0660476926122034,
            "131": 0.051183455483235246,
            "132": 0.005148742733880675,
            "133": -0.059825413830441314,
            "134": -0.0493703665057057,
            "135": -0.07972283208519326,
            "136": 0.033894034970865586,
            "137": 0.014117848435306881,
            "138": 0.0011245866631871488,
            "139": 0.035524954977915656,
            "140": -0.0402969718411679,
            "141": -0.00876677156047029,
            "142": -0.11748896281208146,
            "143": -0.025022299852961994,
            "144": 0.0020869843755447837,
            "145": 0.07442824053043687,
            "146": -0.041136926428780037,
            "147": -0.05012246806048545,
            "148": -0.029808519786612638,
            "149": -0.06515532587999488,
            "150": -0.026536396176487113,
            "151": -0.05101033564054359,
            "152": 0.015053837777922697,
            "153": 0.015397113253651966,
            "154": -0.04520429561193926,
            "155": 0.030301143816905806,
            "156": -0.033001840391206544,
            "157": 0.00874471732452365,
            "158": -0.018857591321071194,
            "159": -0.05476798837525522,
            "160": 0.08775520470215115,
            "161": -0.08224957609306113,
            "162": 0.03227988406150902,
            "163": -0.012964436609672914,
            "164": -0.0885898709913552,
            "165": -0.0769733927586425,
            "166": -0.04885316362675914,
            "167": -0.032794688415813004,
            "168": -0.13453176269305162,
            "169": -0.057621791597536505,
            "170": -0.07573246212292357,
            "171": -0.05235254542311867,
            "172": -0.0002778632469803185,
            "173": 0.03862411368032763,
            "174": -0.0701286572494359,
            "175": -0.014345313884419198,
            "176": 0.0033798694088955634,
            "177": -0.010765506815459024,
            "178": 0.029011139068927196,
            "179": -0.10583711402081279,
            "180": -0.07927846183660704,
            "181": -0.024100818751936863,
            "182": -0.08345769941530333,
            "183": -0.030738036848923497,
            "184": 0.006723326836417156,
            "185": 0.006972905634084919,
            "186": 0.06737124568819913,
            "187": -0.03232949372182595,
            "188": 0.06725950053540461,
            "189": -0.1236420624185306,
            "190": -0.039300562165148455,
            "191": -0.11251398578796439,
            "192": -0.03274441530810777,
            "193": -0.06198547359646966,
            "194": -0.03637970829654455,
            "195": 0.028326369158571958,
            "196": -0.05977515717335516,
            "197": -0.19791793375319142,
            "198": -0.07670740749675199,
            "199": 0.01938295057630327
          }
        },
        {
          "sx": 5,
          "sy": 5,
          "depth": 8,
          "w": {
            "0": 0.08806508182902606,
            "1": 0.02459597926426926,
            "2": -0.18473171035358696,
            "3": -0.002734590705847758,
            "4": 0.06701052087359989,
            "5": 0.09885264751132454,
            "6": -0.05720950729413571,
            "7": 0.2520492507759417,
            "8": 0.15474814191744807,
            "9": -0.11288328373544111,
            "10": -0.15323712164117262,
            "11": 0.1224682640991131,
            "12": 0.13032276804898332,
            "13": -0.15888505037538808,
            "14": -0.06535389987641779,
            "15": 0.02557096557831788,
            "16": 0.00207602782483263,
            "17": -0.04611114899769468,
            "18": 0.07784304739383806,
            "19": 0.2975993141849297,
            "20": 0.22307837711436218,
            "21": -0.21112591067698236,
            "22": -0.25549625554393474,
            "23": -0.13557767311044766,
            "24": 0.045883775012545765,
            "25": 0.01679114837972051,
            "26": 0.19989087115705187,
            "27": 0.038039987960196954,
            "28": 0.03638116143073152,
            "29": -0.05404953655671569,
            "30": -0.28357900601594455,
            "31": 0.02287417904075826,
            "32": 0.03907834867197126,
            "33": -0.2081396187784834,
            "34": 0.11241282855593164,
            "35": -0.37142075943581065,
            "36": -0.04755656236299507,
            "37": -0.15996594985279516,
            "38": -0.5647655947438615,
            "39": 0.09996305956838669,
            "40": -0.0955307731589483,
            "41": -0.12443858826500376,
            "42": -0.13964230270576017,
            "43": 0.013967424799626791,
            "44": -0.06196385039423726,
            "45": -0.26508720312714273,
            "46": -0.16785151594819947,
            "47": 0.040753286651245224,
            "48": -0.2087640321559765,
            "49": -0.2963548724797531,
            "50": -0.03737196759733755,
            "51": 0.010407026756011685,
            "52": 0.03867090948018461,
            "53": -0.0943322364824479,
            "54": -0.14516551038458425,
            "55": -0.0356620962777227,
            "56": -0.2367483296337459,
            "57": -0.10928643479938265,
            "58": 0.009204109847072078,
            "59": 0.21082672164145352,
            "60": 0.12401612911056484,
            "61": -0.07640141042560614,
            "62": -0.13514229118680338,
            "63": 0.02763711060402895,
            "64": -0.14793500512532662,
            "65": -0.07266181608429952,
            "66": 0.15564216120397031,
            "67": -0.08726295691565801,
            "68": 0.055695838725228514,
            "69": -0.27318199110982666,
            "70": -0.2113419553143754,
            "71": 0.014144581410977162,
            "72": -0.02203718962850792,
            "73": -0.22801424092373973,
            "74": 0.16663121932262845,
            "75": -0.3011457593204051,
            "76": -0.22636822100288956,
            "77": -0.4924373692069369,
            "78": -0.10266202785644855,
            "79": -0.08573109974447639,
            "80": -0.0764893429066547,
            "81": -0.2368866776037339,
            "82": -0.1001702623844368,
            "83": -0.16250394234206528,
            "84": -0.1766756106854216,
            "85": 0.029109183058993984,
            "86": -0.10793867060329723,
            "87": -0.0850926798398576,
            "88": -0.3108225600494862,
            "89": -0.01310069239161967,
            "90": -0.11936879109474768,
            "91": 0.10546517911077992,
            "92": -0.07264586538855339,
            "93": 0.016058017951459818,
            "94": 0.019946899450211004,
            "95": -0.19820702074143345,
            "96": -0.06301076914874777,
            "97": 0.20230239241599646,
            "98": -0.050798281625173296,
            "99": 0.16396481388469555,
            "100": 0.15021972609151776,
            "101": -0.1427504211559216,
            "102": -0.16802813463765598,
            "103": 0.12874172567346182,
            "104": 0.04650471578182734,
            "105": 0.07347204049046918,
            "106": 0.15952155470150153,
            "107": 0.011766202629036498,
            "108": 0.13560967565682386,
            "109": -0.15285565633550924,
            "110": -0.14318016244944026,
            "111": 0.04242132113241813,
            "112": -0.0926821992555478,
            "113": 0.06477861925885238,
            "114": 0.17124401681510176,
            "115": -0.33983492966736323,
            "116": -0.19649956109954878,
            "117": -0.2676810915278437,
            "118": -0.13465326087056662,
            "119": -0.08847045138336357,
            "120": -0.2427894031970801,
            "121": -0.22307712135601923,
            "122": 0.037484019318250475,
            "123": -0.15932388953344873,
            "124": -0.07891917642255589,
            "125": 0.034119794280970894,
            "126": -0.11081170566399857,
            "127": -0.07142924294509143,
            "128": -0.2292792197319078,
            "129": -0.06462431415499728,
            "130": -0.0749194265724786,
            "131": 0.19695564599494145,
            "132": 0.07152467055515503,
            "133": 0.05390526189321926,
            "134": -0.11634783494006061,
            "135": -0.134282918324436,
            "136": -0.1418199142422232,
            "137": 0.22350547848168895,
            "138": -0.030049947063662735,
            "139": 0.15759487497205302,
            "140": 0.06360060472422402,
            "141": 0.01600758982692659,
            "142": -0.04399924709535203,
            "143": -0.02292290555733255,
            "144": 0.002767484599558683,
            "145": -0.10348027260798717,
            "146": 0.31268453026163284,
            "147": -0.005584975239852449,
            "148": 0.03658010069530209,
            "149": -0.13798963596699176,
            "150": -0.17825632575612824,
            "151": 0.10646970110721272,
            "152": -0.19143301104131388,
            "153": 0.13969717948056928,
            "154": 0.21631483790432904,
            "155": -0.1925973582003766,
            "156": -0.04663125672310987,
            "157": -0.17951763422750774,
            "158": -0.05389274639310125,
            "159": -0.03596627754889624,
            "160": -0.23848293135666138,
            "161": -0.13430967595954568,
            "162": 0.06774421135607335,
            "163": -0.1328659917395319,
            "164": -0.07540094131218657,
            "165": 0.06933274991622197,
            "166": -0.32615315644982673,
            "167": -0.0264449297304084,
            "168": -0.10601537756356129,
            "169": -0.08823090257896242,
            "170": -0.0036642834514550226,
            "171": 0.03898108727783521,
            "172": 0.0035214698608434145,
            "173": -0.06474392950548039,
            "174": -0.09211066374595867,
            "175": -0.2573653637907739,
            "176": -0.09075085860920959,
            "177": -0.04515404705568397,
            "178": 0.3312618843947418,
            "179": 0.18635936896456387,
            "180": 0.13046590067993294,
            "181": -0.007305345365133585,
            "182": -0.29457436417202704,
            "183": -0.09681527429721568,
            "184": 0.2348065467073042,
            "185": -0.11487897711755711,
            "186": 0.4264567113037727,
            "187": -0.020809852218501432,
            "188": -0.11566724597405265,
            "189": -0.23501934538155492,
            "190": -0.0011212671072717733,
            "191": 0.16355622610966256,
            "192": -0.01791760881798991,
            "193": -0.11335111241146804,
            "194": -0.09782206319450813,
            "195": -0.07657805469486031,
            "196": -0.02398009807526772,
            "197": 0.060666180389678456,
            "198": -0.03555451565034775,
            "199": -0.2123214382135301
          }
        },
        {
          "sx": 5,
          "sy": 5,
          "depth": 8,
          "w": {
            "0": 0.06833078933664725,
            "1": -0.16098832125858809,
            "2": -0.03224789665107674,
            "3": -0.125304036364498,
            "4": -0.03397485547931889,
            "5": -0.10206998015886144,
            "6": 0.05362150331710953,
            "7": -0.10715376870751268,
            "8": -0.06229462291401939,
            "9": -0.26428387639991247,
            "10": 0.1146771003965792,
            "11": -0.11265885354538471,
            "12": -0.1539435164370598,
            "13": -0.07364597791808958,
            "14": -0.03976893917249871,
            "15": -0.055839463667273874,
            "16": -0.08551719605724586,
            "17": -0.057850901818361354,
            "18": 0.08925199779923582,
            "19": 0.2787799793078955,
            "20": 0.05080447256413356,
            "21": 0.1257926359271545,
            "22": -0.049342629042180834,
            "23": -0.5777836315434135,
            "24": 0.009697828504671937,
            "25": -0.12418890929998556,
            "26": 0.3050770989286923,
            "27": 0.1487693558763991,
            "28": -0.12924211696477092,
            "29": -0.03894147822129917,
            "30": 0.210269140567182,
            "31": -0.6410830158492532,
            "32": 0.08538040968871212,
            "33": 0.01147020662321429,
            "34": -0.09133850242075106,
            "35": -0.022984557269122463,
            "36": 0.017530055366685365,
            "37": -0.1132869458233917,
            "38": 0.27142945146670633,
            "39": -0.3435679658177236,
            "40": -0.18318931284422998,
            "41": -0.0383956786763864,
            "42": -0.10781492399568975,
            "43": -0.07855545124912161,
            "44": -0.08911458904195206,
            "45": -0.17305296625155103,
            "46": -0.11356577299214521,
            "47": -0.1152775795469618,
            "48": -0.10634934172303094,
            "49": -0.12675393644001637,
            "50": 0.08118334515785479,
            "51": 0.08277857823927137,
            "52": -0.12629057822239143,
            "53": -0.07293877871972823,
            "54": -0.062306960789306136,
            "55": -0.051734584591473315,
            "56": -0.10641632866969084,
            "57": 0.005544579380966021,
            "58": 0.28658838214650295,
            "59": 0.23432777067435334,
            "60": 0.12944213577247438,
            "61": -0.08801054778161152,
            "62": 0.03618963477531077,
            "63": -0.11608912257075467,
            "64": 0.056733507959157305,
            "65": 0.19756047788688544,
            "66": -0.010963397037395043,
            "67": 0.05449549295936974,
            "68": 0.014426373706570517,
            "69": -0.13515401650968872,
            "70": 0.06566680665667962,
            "71": -0.12760310773466502,
            "72": 0.05226654259045206,
            "73": 0.18849844581510733,
            "74": -0.234631708232956,
            "75": -0.09111571145802383,
            "76": 0.0848814281934574,
            "77": -0.2365405374909469,
            "78": 0.07681246234502544,
            "79": -0.1297595723713886,
            "80": -0.20129017191617135,
            "81": -0.3241596558142172,
            "82": -0.1551574452723826,
            "83": -0.059978051217402545,
            "84": -0.08963924701829037,
            "85": -0.11602319926599372,
            "86": -0.2558315779902018,
            "87": 0.23708191385144306,
            "88": -0.2530516175736819,
            "89": -0.09681612465140972,
            "90": -0.08231641205386049,
            "91": 0.11450894710686627,
            "92": -0.07278075018030239,
            "93": -0.10700102716915902,
            "94": -0.11998521076222968,
            "95": -0.03788804664079314,
            "96": -0.14043409279585492,
            "97": 0.09928299038080046,
            "98": -0.18380658334312325,
            "99": 0.16145718525502928,
            "100": 0.17454938806024997,
            "101": -0.245072742585222,
            "102": -0.03312039058074149,
            "103": 0.02336677686277716,
            "104": 0.0980747888738377,
            "105": 0.04841763234789113,
            "106": -0.2867123711752663,
            "107": -0.06765078304575232,
            "108": 0.0777796032522394,
            "109": -0.1117569142681262,
            "110": -0.027294988011517855,
            "111": 0.24415445436744523,
            "112": 0.22380332860160004,
            "113": 0.4105007938910207,
            "114": -0.42956641747135077,
            "115": 0.11688746369611544,
            "116": 0.2303948067446505,
            "117": 0.24796359661440234,
            "118": 0.06827438809409508,
            "119": 0.2981481676522878,
            "120": -0.13680010975846493,
            "121": -0.19517268206097682,
            "122": -0.17802225453505663,
            "123": -0.18442900675697593,
            "124": -0.3106384616858472,
            "125": -0.25416964796632163,
            "126": -0.21162086716709957,
            "127": 0.23483114464330868,
            "128": 0.0749903747737442,
            "129": -0.04487241185285726,
            "130": -0.25800846611820494,
            "131": -0.07486108920556815,
            "132": -0.06103816165651118,
            "133": -0.330466125982347,
            "134": -0.13402027985386297,
            "135": 0.29399909248816775,
            "136": 0.20905228172308962,
            "137": -0.4311009540921478,
            "138": -0.292893469388158,
            "139": 0.05996664235185352,
            "140": 0.2821357572695222,
            "141": -0.3904150733857101,
            "142": -0.0322190112981074,
            "143": 0.5621258319099719,
            "144": 0.3134262393288362,
            "145": -0.32448160461038633,
            "146": -0.37739924563103966,
            "147": -0.0726515220474675,
            "148": 0.17919180748310062,
            "149": -0.23417903061124298,
            "150": 0.061357644533045264,
            "151": 0.24270380454685256,
            "152": 0.44878369586573974,
            "153": -0.12690183631006877,
            "154": -0.4165952114383008,
            "155": -0.03625245902119074,
            "156": 0.17968438241907142,
            "157": -0.22996974115267893,
            "158": -0.28895311656222333,
            "159": 0.0396358873992897,
            "160": -0.2244866852882032,
            "161": 0.12026320822622077,
            "162": -0.3021206622149662,
            "163": -0.1026372383541892,
            "164": -0.2519332924864554,
            "165": 0.22879063589465568,
            "166": 0.005263318679238605,
            "167": -0.039895637854070014,
            "168": -0.22861361602926034,
            "169": 0.3079731455124163,
            "170": -0.10052559130178779,
            "171": -0.205496098413127,
            "172": -0.3987934480097971,
            "173": 0.21868481757602937,
            "174": 0.08574787203975504,
            "175": 0.031247524755012523,
            "176": -0.1041057375488241,
            "177": 0.031025036953748468,
            "178": -0.20598401077542203,
            "179": 0.007795660865347601,
            "180": -0.386667299615423,
            "181": 0.25502825107058297,
            "182": 0.13491099447820465,
            "183": -0.07596797785598583,
            "184": 0.05174733384301371,
            "185": -0.11440386020188761,
            "186": -0.34352721580051143,
            "187": 0.11558910853548406,
            "188": -0.34211497278116765,
            "189": 0.21587290356642339,
            "190": -0.12455640311422406,
            "191": -0.24392425400812096,
            "192": -0.07343385351171812,
            "193": -0.02989804057424453,
            "194": -0.22083099218710428,
            "195": -0.017316110184072833,
            "196": -0.44826062760292723,
            "197": 0.16826719541541998,
            "198": -0.1135869318901911,
            "199": -0.4795491346914172
          }
        },
        {
          "sx": 5,
          "sy": 5,
          "depth": 8,
          "w": {
            "0": -0.32562615605141176,
            "1": -0.10385756038112563,
            "2": -0.1413997866847734,
            "3": 0.16614451581601605,
            "4": -0.4650181180508553,
            "5": 0.273430383172934,
            "6": -0.05719060366176228,
            "7": 0.1518919229939816,
            "8": -0.05665315602061129,
            "9": -0.10197677118886528,
            "10": -0.026444638100638893,
            "11": 0.09473367551374208,
            "12": -0.19764827493046536,
            "13": -0.1932629099074268,
            "14": -0.0225988676032378,
            "15": -0.049286033302300955,
            "16": -0.08681382398118874,
            "17": -0.1481642830772217,
            "18": 0.07879528208252233,
            "19": -0.10046015336657177,
            "20": -0.3299868782001849,
            "21": -0.3476413818441576,
            "22": 0.05959484660071079,
            "23": 0.013312045105376643,
            "24": 0.0535288667939236,
            "25": -0.03459881368177556,
            "26": 0.06883463145581817,
            "27": 0.20935145163954608,
            "28": -0.18808422785829182,
            "29": 0.004276176726807553,
            "30": 0.10387117359379837,
            "31": 0.17737630688108655,
            "32": 0.05470212805887769,
            "33": -0.19713385671720868,
            "34": 0.09780720231553497,
            "35": 0.3671539396101349,
            "36": 0.029739101855439893,
            "37": 0.03824770538877613,
            "38": 0.06769685128933502,
            "39": 0.26194993140332495,
            "40": -0.0981356667317879,
            "41": 0.10072811497719492,
            "42": 0.10883713622937513,
            "43": -0.042192369466948244,
            "44": -0.031002255074382475,
            "45": 0.3195517213491889,
            "46": 0.32593157032305026,
            "47": -0.012426655117023237,
            "48": -0.091908369472229,
            "49": -0.018432674880547374,
            "50": -0.040283382383921096,
            "51": -0.15695564810928986,
            "52": -0.05964468317501065,
            "53": 0.2859770772179518,
            "54": 0.034158551705757774,
            "55": -0.1208924480939536,
            "56": -0.12352072564637523,
            "57": 0.030852877109673597,
            "58": -0.054001658069717816,
            "59": -0.13443657583182608,
            "60": -0.28841528317707915,
            "61": 0.08039524259489429,
            "62": 0.13357614992930453,
            "63": -0.034242641304775535,
            "64": -0.12516320745333628,
            "65": -0.04744006497441425,
            "66": -0.10376273841561941,
            "67": 0.235244239788252,
            "68": -0.2534620227090542,
            "69": -0.07571482428408112,
            "70": -0.17644097882810167,
            "71": 0.17606979240508286,
            "72": -0.10069295237655003,
            "73": -0.17493956927906051,
            "74": -0.11674322295730105,
            "75": -0.02051872425270856,
            "76": -0.37997509725429635,
            "77": -0.456090525567566,
            "78": -0.2025906562211642,
            "79": 0.18045204067131268,
            "80": 0.06637694952952997,
            "81": 0.1744904707135572,
            "82": 0.05940595870029334,
            "83": -0.12257584442677152,
            "84": -0.0035073335111493707,
            "85": 0.07474418749362947,
            "86": 0.37923805067783783,
            "87": -0.2963776468805423,
            "88": -0.1876904195278906,
            "89": 0.08191745670262354,
            "90": -0.015959379752665523,
            "91": -0.004272547967281727,
            "92": 0.0485062678492439,
            "93": 0.027805470829217683,
            "94": -0.07737772216726753,
            "95": -0.07709704747366589,
            "96": -0.31569742374583365,
            "97": -0.029841588954657036,
            "98": 0.011697682458888236,
            "99": -0.03425187907318885,
            "100": 0.10062146798937197,
            "101": 0.08633053885424988,
            "102": -0.1351304234512041,
            "103": -0.10228565566070205,
            "104": -0.27861702350687617,
            "105": -0.10873488621969662,
            "106": -0.15476869440102947,
            "107": -0.06251775382811721,
            "108": -0.057727632817749445,
            "109": -0.06208252347004595,
            "110": 0.049005583802327286,
            "111": -0.1840055506092,
            "112": -0.331596421553862,
            "113": -0.016191808642083458,
            "114": -0.1582205459150274,
            "115": -0.26601336920013297,
            "116": -0.06677235703300165,
            "117": 0.13006185722904906,
            "118": -0.12203945972008391,
            "119": -0.22286962171604574,
            "120": 0.03956143311998282,
            "121": 0.22736266953313777,
            "122": 0.1594376222370013,
            "123": -0.11142714772831487,
            "124": 0.18651312360889635,
            "125": -0.22395990991955259,
            "126": 0.1142157459743417,
            "127": -0.22143865244167846,
            "128": -0.12163818875971888,
            "129": 0.15534558932100373,
            "130": 0.053753229171021044,
            "131": -0.017784696037080265,
            "132": 0.08762565232346896,
            "133": -0.16334395356767129,
            "134": 0.03584548412902504,
            "135": -0.10183608253898499,
            "136": -0.08591698375432895,
            "137": 0.08576626039300768,
            "138": 0.12157016082006918,
            "139": 0.12776657007067102,
            "140": 0.11007657617613678,
            "141": 0.18915817446435274,
            "142": -0.012256288091388613,
            "143": -0.1699733732477347,
            "144": 0.127778907579175,
            "145": 0.07218258576747355,
            "146": 0.08244775099849934,
            "147": 0.1368058030786561,
            "148": 0.04499652391899397,
            "149": 0.04990019837840065,
            "150": 0.24374979621554205,
            "151": 0.10296988059070122,
            "152": 0.21928056368517065,
            "153": -0.025836974617177644,
            "154": -0.18271337051130088,
            "155": -0.10078672258910608,
            "156": 0.19571148280637932,
            "157": 0.15256076353419204,
            "158": 0.13660056532536402,
            "159": 0.17102670401438763,
            "160": 0.041654955703548,
            "161": 0.061254297738696915,
            "162": 0.09943500716792077,
            "163": 0.0010265320705386055,
            "164": 0.07468592979934582,
            "165": -0.10850572278991187,
            "166": 0.005948476148242373,
            "167": -0.18110056012661274,
            "168": -0.014153857348018939,
            "169": 0.1546891232638487,
            "170": 0.03815991174269045,
            "171": 0.23558119333051122,
            "172": 0.21280127982877525,
            "173": -0.05031687750936199,
            "174": 0.287951505380399,
            "175": -0.06037425888661055,
            "176": 0.02912269379770602,
            "177": 0.18735066489234808,
            "178": 0.25295177801232077,
            "179": 0.21728516463959174,
            "180": 0.03737251850742353,
            "181": 0.004254582633396323,
            "182": 0.13602769432166859,
            "183": -0.08234427423119794,
            "184": -0.03937409710728031,
            "185": 0.13569993235950545,
            "186": -0.04327272135154137,
            "187": 0.0507142249752485,
            "188": -0.03495830278486333,
            "189": -0.027972854973560748,
            "190": 0.13647398632144359,
            "191": -0.1256435314860679,
            "192": -0.07944987841542736,
            "193": -0.05721945590994476,
            "194": -0.3347753163725694,
            "195": -0.03567990078507447,
            "196": 0.08688273214604983,
            "197": -0.004436986111582863,
            "198": -0.06765372488398598,
            "199": -0.1565986748756064
          }
        },
        {
          "sx": 5,
          "sy": 5,
          "depth": 8,
          "w": {
            "0": -0.01826956325620973,
            "1": 0.15940065361498904,
            "2": 0.4053073827496843,
            "3": -0.3619731444968102,
            "4": -0.015978138257036468,
            "5": -0.3823824801955561,
            "6": 0.1263540221016895,
            "7": -0.06522773008090409,
            "8": -0.41683315170234186,
            "9": 0.02718473256712733,
            "10": 0.07355281730901017,
            "11": 0.0014583912958386388,
            "12": -0.25001483814702846,
            "13": -0.10636469933677549,
            "14": -0.0827718776449025,
            "15": -0.1355301892359212,
            "16": -0.37125523725735426,
            "17": -0.22201763829871496,
            "18": -0.10599221316153008,
            "19": 0.03757245440641435,
            "20": -0.053621032287750184,
            "21": -0.00005996483376967777,
            "22": -0.14893051647694933,
            "23": -0.03184351598187047,
            "24": -0.15879759345757138,
            "25": 0.09037003086460747,
            "26": -0.016684647650686946,
            "27": -0.15633845907090357,
            "28": -0.06737717051567121,
            "29": 0.06874490164693652,
            "30": 0.037973485037583826,
            "31": 0.1457289110254171,
            "32": -0.30735619072079506,
            "33": 0.041049865664537395,
            "34": 0.052332569759980796,
            "35": -0.19761711749504693,
            "36": -0.19888007483639308,
            "37": 0.14480795712258251,
            "38": 0.3014776643953076,
            "39": 0.1791604425771736,
            "40": -0.024765862856689434,
            "41": 0.14352265634798111,
            "42": 0.5086851361369584,
            "43": -0.05709659077580694,
            "44": -0.07968938000075254,
            "45": -0.2881651771855249,
            "46": 0.13957700081367852,
            "47": -0.164436770189777,
            "48": -0.05567381996636744,
            "49": -0.0362132189830979,
            "50": 0.2082279879130259,
            "51": 0.11549272920115009,
            "52": -0.2648508213761803,
            "53": -0.20134346193201796,
            "54": -0.041033864399460634,
            "55": -0.04718120066697281,
            "56": -0.32277884830209896,
            "57": -0.15216951145858784,
            "58": 0.037153226591901886,
            "59": 0.14302280007767473,
            "60": -0.07097030379062505,
            "61": 0.0026473918185016625,
            "62": -0.057886323274437046,
            "63": -0.1318776667867994,
            "64": -0.16769373826064882,
            "65": 0.09245798341325506,
            "66": 0.07982039751598692,
            "67": -0.09125359822825961,
            "68": -0.07940254696733474,
            "69": 0.16188353316598034,
            "70": -0.08651207375456575,
            "71": -0.03469839441443291,
            "72": -0.09516932828745692,
            "73": 0.015519046577896704,
            "74": -0.08111285969426589,
            "75": -0.09495022355926187,
            "76": -0.05515676722530288,
            "77": 0.33923966286049684,
            "78": 0.23558126712985925,
            "79": -0.12745171070993874,
            "80": 0.08702782223830327,
            "81": 0.17205658218504852,
            "82": 0.35682085398037333,
            "83": 0.10545506932837846,
            "84": -0.058421144717608176,
            "85": -0.11642696240073892,
            "86": 0.22641400036853118,
            "87": 0.169131047217375,
            "88": -0.25945565755951466,
            "89": 0.08711534011709694,
            "90": 0.2485223852534993,
            "91": -0.06987748038499828,
            "92": -0.21359778714527172,
            "93": -0.12509601871531162,
            "94": -0.005134782150976349,
            "95": -0.1323057512675032,
            "96": -0.28039588098153323,
            "97": -0.10091466490216823,
            "98": 0.10315729634213729,
            "99": 0.2486065130052349,
            "100": 0.14394107365097358,
            "101": -0.045410783242018186,
            "102": 0.03225869063307705,
            "103": -0.2180495133174849,
            "104": -0.17507819812958347,
            "105": -0.007946958439468554,
            "106": 0.13166693977817012,
            "107": 0.08672294270982714,
            "108": -0.05737434629732271,
            "109": 0.2599988045618938,
            "110": -0.057275694869337285,
            "111": -0.3014578115987165,
            "112": -0.0016748453520635163,
            "113": 0.14447345885542298,
            "114": -0.03765902524733584,
            "115": 0.08681070079791223,
            "116": -0.09040831327755089,
            "117": -0.03658037611194473,
            "118": -0.12106565620450577,
            "119": -0.3002534537064446,
            "120": -0.2513983997567867,
            "121": 0.10344727863806824,
            "122": 0.2253866710747081,
            "123": 0.08440232454344161,
            "124": -0.12228869704304378,
            "125": -0.2158348800709567,
            "126": 0.08217054209676623,
            "127": -0.07319337265572476,
            "128": -0.12053084662302431,
            "129": -0.09143143460449545,
            "130": 0.16848589155052082,
            "131": -0.15977780302325936,
            "132": -0.03294343162770246,
            "133": -0.062123139223134186,
            "134": -0.10399384713177613,
            "135": -0.3259071721989158,
            "136": -0.4208515283114325,
            "137": 0.052546857576529576,
            "138": 0.025733444588130743,
            "139": 0.2460005351873205,
            "140": 0.06363412115972565,
            "141": 0.033844784790015216,
            "142": -0.1929399997515747,
            "143": -0.1417117799854327,
            "144": -0.208441137658745,
            "145": 0.20720022657654869,
            "146": 0.03747775523104286,
            "147": 0.05099142955659378,
            "148": 0.10839586933680795,
            "149": -0.10907965045174402,
            "150": -0.16852926074658703,
            "151": -0.22103381830256658,
            "152": -0.19672635149230297,
            "153": 0.024478592709816612,
            "154": -0.018425103194345645,
            "155": 0.13167144371329106,
            "156": 0.16822742410949346,
            "157": -0.1929528542994168,
            "158": -0.1519987756323958,
            "159": 0.02007921855097608,
            "160": -0.20165473478378948,
            "161": -0.013020792954474465,
            "162": 0.0259458745467411,
            "163": 0.05366183949631503,
            "164": -0.003138550963377316,
            "165": -0.1266441789868877,
            "166": 0.0002541046739721862,
            "167": -0.27356063183830515,
            "168": -0.21327189206772143,
            "169": 0.13513249929099447,
            "170": -0.21633967325211925,
            "171": -0.07380788184103071,
            "172": -0.0828407490544952,
            "173": -0.03089035999191899,
            "174": 0.03181114926108637,
            "175": -0.29940129119252534,
            "176": -0.15893196548554836,
            "177": 0.24654080388963218,
            "178": -0.01898259691307954,
            "179": 0.16403339621366342,
            "180": 0.19933835355742038,
            "181": 0.039156814489688906,
            "182": -0.083446315891583,
            "183": -0.14052240767716148,
            "184": 0.0036520117025532124,
            "185": 0.14271533501709502,
            "186": 0.03956250325601466,
            "187": 0.08664184187981618,
            "188": 0.22656552837898283,
            "189": -0.08712608693443831,
            "190": -0.010678492672279832,
            "191": 0.04756718481092484,
            "192": 0.05338220110280156,
            "193": 0.1610285769148531,
            "194": 0.052926515964022855,
            "195": -0.08217811458627564,
            "196": 0.31377508333260584,
            "197": -0.27545967496317214,
            "198": -0.08090167867835485,
            "199": 0.22204158824648465
          }
        },
        {
          "sx": 5,
          "sy": 5,
          "depth": 8,
          "w": {
            "0": -0.22304059067678364,
            "1": -0.1902803981029111,
            "2": -0.1611436134125918,
            "3": 0.26480360871042136,
            "4": -0.2568653212154235,
            "5": 0.30024250118633744,
            "6": -0.08713263920190292,
            "7": -0.11497777136431081,
            "8": 0.02343310832619799,
            "9": -0.0849689268739083,
            "10": 0.0660353605292926,
            "11": 0.2745195608522332,
            "12": 0.06947126822139975,
            "13": 0.2183904234842821,
            "14": -0.05597900626841108,
            "15": 0.03457241619330547,
            "16": 0.1398248079201957,
            "17": -0.12547334206024366,
            "18": 0.21710630969256545,
            "19": 0.0010073546165901548,
            "20": 0.05187740713967396,
            "21": 0.15118907199033643,
            "22": 0.2497064439519954,
            "23": -0.08033905977605327,
            "24": 0.22686766090299937,
            "25": 0.1968173016408232,
            "26": 0.12639787251599713,
            "27": 0.14652688871569725,
            "28": -0.06388749509242027,
            "29": 0.17393588088222822,
            "30": 0.31654668404558023,
            "31": 0.10671860868059875,
            "32": -0.06992822305355716,
            "33": 0.013905461026437986,
            "34": -0.25895715510721495,
            "35": -0.12982473031457706,
            "36": 0.13740211211242287,
            "37": -0.04958629448841685,
            "38": -0.14014033207571544,
            "39": 0.027900455616125683,
            "40": 0.02027471843073004,
            "41": -0.17338465690434307,
            "42": -0.12288315115338855,
            "43": 0.07991227373873244,
            "44": -0.17835504538117836,
            "45": 0.210843997492566,
            "46": -0.027124390742757878,
            "47": 0.04695046376022768,
            "48": 0.024659518494428417,
            "49": -0.14240620946536012,
            "50": 0.2472649755554405,
            "51": 0.10524430133644826,
            "52": -0.11350508787767775,
            "53": -0.21745419705683375,
            "54": -0.06447349449469734,
            "55": 0.10343723853844503,
            "56": 0.18280975104200528,
            "57": -0.17140139263695361,
            "58": 0.11479485373837772,
            "59": -0.003116357604149112,
            "60": -0.09812156571740777,
            "61": 0.08241027385995511,
            "62": 0.19707867339054289,
            "63": 0.11953142609657175,
            "64": -0.058498647959087956,
            "65": -0.1327510468139066,
            "66": -0.15395400271135012,
            "67": -0.04916793522808843,
            "68": -0.10324228094743879,
            "69": -0.2712963892664709,
            "70": 0.14574448369115828,
            "71": -0.16042549474952514,
            "72": -0.18769772884385985,
            "73": -0.06992457671317959,
            "74": -0.5835418986715997,
            "75": 0.23276659131939353,
            "76": -0.026044611312874194,
            "77": -0.039686811774653406,
            "78": -0.3583675630263764,
            "79": -0.2927049565762823,
            "80": 0.12394655550961003,
            "81": -0.11323798849586417,
            "82": -0.16214710034492208,
            "83": -0.03677151695837619,
            "84": -0.3308776932419618,
            "85": -0.23124457808725624,
            "86": -0.11722112503444466,
            "87": 0.09362364845240888,
            "88": 0.18404170535021458,
            "89": -0.28172374588455945,
            "90": -0.08745382587344054,
            "91": -0.2355384629049141,
            "92": -0.23952892704120318,
            "93": 0.010349016695113622,
            "94": 0.2025531073245752,
            "95": -0.180449770116895,
            "96": -0.15098475293157967,
            "97": -0.2639284417615052,
            "98": 0.03251379134522673,
            "99": -0.053518059802142984,
            "100": -0.3849723234697767,
            "101": 0.036447167577018456,
            "102": 0.01165680518298394,
            "103": -0.1473226032712245,
            "104": -0.3138349720993237,
            "105": -0.18530250544980262,
            "106": -0.24834960726542316,
            "107": 0.030178433289461192,
            "108": -0.26228259932923537,
            "109": 0.19806221903674195,
            "110": -0.14191824793380367,
            "111": -0.4197235162998132,
            "112": 0.05503362120978743,
            "113": -0.09308181358668371,
            "114": -0.08328489783512047,
            "115": 0.24065876412253331,
            "116": 0.022181018086028834,
            "117": 0.23659119306852608,
            "118": -0.05646089466727777,
            "119": -0.6174689831199046,
            "120": -0.327733910727396,
            "121": -0.3358589109923359,
            "122": -0.2409273502069364,
            "123": -0.17225467559469648,
            "124": -0.5626457591566167,
            "125": 0.027397055712739014,
            "126": 0.06572431534725114,
            "127": 0.03246490873689429,
            "128": -0.22702397903439786,
            "129": -0.25226739975251167,
            "130": -0.02365354673940888,
            "131": -0.09694713854324048,
            "132": -0.3056136555114724,
            "133": 0.12958518051837026,
            "134": 0.2302268243466393,
            "135": 0.10382604431182736,
            "136": -0.056829579585924515,
            "137": -0.2506236166906139,
            "138": -0.2118152750630416,
            "139": 0.11211887520142516,
            "140": -0.14386145613557627,
            "141": 0.23022107528500127,
            "142": 0.15580337556852786,
            "143": 0.24702908347849523,
            "144": -0.030337937299176464,
            "145": -0.2464623004019129,
            "146": -0.13212711315096567,
            "147": 0.12404943056227023,
            "148": 0.04466216826719193,
            "149": 0.08240605648423663,
            "150": -0.11961386445095445,
            "151": -0.2247343387467175,
            "152": 0.03935443605329629,
            "153": -0.032473308869847645,
            "154": -0.08797360655780603,
            "155": 0.18830768281057678,
            "156": -0.0903177261557265,
            "157": 0.10059678220758114,
            "158": -0.09587552828340312,
            "159": -0.2936612076555245,
            "160": -0.34307828473336854,
            "161": -0.29412061851582805,
            "162": -0.2528002027364249,
            "163": -0.0905828486842601,
            "164": -0.31578967102081223,
            "165": 0.05484789333084505,
            "166": -0.07394756618555066,
            "167": 0.03547250835089613,
            "168": -0.22859627578818223,
            "169": -0.29506547084016865,
            "170": -0.1807013240764452,
            "171": -0.0447832121988752,
            "172": -0.05146230397253423,
            "173": 0.012248100985966317,
            "174": 0.06486546267460037,
            "175": 0.22842904484747864,
            "176": 0.00009890359539211453,
            "177": -0.26524094258972486,
            "178": -0.009900676516242608,
            "179": 0.14980208048683166,
            "180": -0.14569234454393665,
            "181": 0.030067060656272654,
            "182": -0.008671708362718274,
            "183": 0.10744643865733998,
            "184": -0.2006595651191825,
            "185": -0.14247118807521278,
            "186": -0.0026618385711277273,
            "187": -0.004542396749692802,
            "188": 0.039883085364636556,
            "189": 0.14105321665707235,
            "190": 0.03862518759327711,
            "191": -0.23557213674095356,
            "192": -0.1747478833274037,
            "193": 0.05162665392244991,
            "194": -0.1699416751458003,
            "195": 0.10252304690145804,
            "196": 0.06957576991149604,
            "197": -0.08459474076486803,
            "198": -0.020274796387580757,
            "199": -0.19310365725459244
          }
        },
        {
          "sx": 5,
          "sy": 5,
          "depth": 8,
          "w": {
            "0": -0.29838711760389625,
            "1": 0.0071293605038770325,
            "2": 0.09139776475794278,
            "3": -0.1201881142490311,
            "4": -0.10377750103933388,
            "5": -0.04332127877010173,
            "6": -0.06709944863300077,
            "7": -0.2274559936418987,
            "8": -0.14320927020838012,
            "9": -0.017837728535446358,
            "10": 0.008002291466796917,
            "11": -0.15239691580239317,
            "12": -0.2658408241059745,
            "13": 0.06035474929346738,
            "14": 0.183386531009182,
            "15": -0.003579814979917118,
            "16": -0.3213095619808626,
            "17": -0.03942974718075487,
            "18": -0.18603828798885524,
            "19": 0.21032528862108496,
            "20": -0.15335124211522155,
            "21": -0.06635300797443411,
            "22": -0.17528745581517088,
            "23": -0.14634980211214646,
            "24": -0.10222023413147796,
            "25": -0.10469230320028543,
            "26": -0.21910197011476626,
            "27": 0.08661512858917943,
            "28": 0.07485823723375883,
            "29": -0.19929865793273904,
            "30": -0.4861545162687632,
            "31": 0.11228904061366214,
            "32": -0.1492610541046679,
            "33": 0.009358879032190213,
            "34": 0.020523004864268737,
            "35": -0.07152182726880066,
            "36": 0.2087741737811046,
            "37": -0.25864625979281286,
            "38": 0.18333128523824235,
            "39": 0.03955292012551323,
            "40": 0.01748689238053606,
            "41": 0.10725761312137434,
            "42": 0.0577264860491114,
            "43": -0.5289343503382036,
            "44": 0.03232408830872227,
            "45": 0.0899266588172607,
            "46": -0.11607495689872144,
            "47": -0.03707668274086144,
            "48": -0.009721409273591174,
            "49": 0.07028581117901858,
            "50": 0.029220846720091516,
            "51": -0.36608884959744725,
            "52": -0.018815511283581884,
            "53": -0.1260654842344489,
            "54": -0.21716476704404325,
            "55": 0.15824467473901765,
            "56": -0.08804987095601659,
            "57": -0.12064834264725269,
            "58": -0.18786982346477454,
            "59": -0.2008140849899381,
            "60": -0.012120062366045514,
            "61": 0.06410880673881891,
            "62": -0.18514197313079298,
            "63": -0.09701108857838037,
            "64": -0.1376964007439222,
            "65": -0.07202238252482525,
            "66": -0.03986720431577035,
            "67": 0.1228625847480176,
            "68": -0.20624638750763113,
            "69": -0.04173747874015185,
            "70": -0.06878608604185224,
            "71": -0.037901877771268154,
            "72": 0.033016078822300524,
            "73": -0.032615088366564335,
            "74": 0.13394973674927788,
            "75": -0.002896848156230987,
            "76": 0.07178604708547259,
            "77": 0.056685725315376335,
            "78": 0.07926177073811315,
            "79": 0.06533781825788022,
            "80": 0.31649856942504356,
            "81": 0.19440612749634673,
            "82": -0.11283067110752316,
            "83": -0.31195883328867746,
            "84": 0.3350168963113032,
            "85": -0.020017396417509603,
            "86": 0.11996446762196526,
            "87": 0.10406845593690008,
            "88": 0.007250635151742281,
            "89": 0.03245226284527484,
            "90": -0.12783255613145728,
            "91": -0.2967362065381974,
            "92": 0.14809769860505897,
            "93": 0.17348857532124745,
            "94": -0.08221162754464426,
            "95": 0.14003755992788752,
            "96": -0.02094684383200434,
            "97": 0.11854676873143412,
            "98": 0.04243977394895337,
            "99": 0.0692276207287959,
            "100": 0.03915302096546564,
            "101": 0.3385114834585205,
            "102": 0.06326304156735994,
            "103": -0.059650979708583234,
            "104": -0.00800436046711317,
            "105": -0.1396813673565958,
            "106": 0.11771983588178747,
            "107": 0.2033754124722834,
            "108": -0.041880340836840994,
            "109": 0.10396031063936721,
            "110": 0.22515829991116093,
            "111": 0.011150668368964682,
            "112": 0.11870189225013227,
            "113": -0.18177400473344774,
            "114": 0.1636989952242129,
            "115": -0.014170484770576003,
            "116": -0.07701647161328037,
            "117": 0.1066828424940832,
            "118": 0.006496938225225931,
            "119": -0.16633465337789763,
            "120": 0.4504745759709527,
            "121": 0.020149595116409152,
            "122": 0.006812454991789839,
            "123": -0.14091602654159968,
            "124": 0.13948720784481802,
            "125": 0.07142652081876291,
            "126": 0.09849441507364833,
            "127": 0.2563231763860874,
            "128": 0.23025468766865456,
            "129": 0.05124765044966491,
            "130": -0.04228145992174654,
            "131": -0.053553118703507235,
            "132": 0.15064914930410356,
            "133": 0.23687758105672624,
            "134": 0.3911951270646396,
            "135": 0.1489483903957641,
            "136": 0.16785830503907007,
            "137": -0.0915638443987977,
            "138": -0.042929931903864536,
            "139": -0.20877042739826154,
            "140": 0.014899562352125643,
            "141": 0.14538942197694843,
            "142": 0.18050714565893655,
            "143": -0.14844764730379684,
            "144": 0.008955137637490512,
            "145": -0.015744280305921496,
            "146": 0.07671226350321361,
            "147": -0.08361242319204701,
            "148": -0.11723592979663623,
            "149": 0.02102765818019021,
            "150": 0.11427702498030796,
            "151": -0.19042475060907368,
            "152": -0.2843482936927277,
            "153": -0.08971980704896532,
            "154": 0.04794172315292163,
            "155": 0.004011916860950949,
            "156": 0.041317338601018605,
            "157": -0.09953423466325982,
            "158": -0.0019186066474032766,
            "159": -0.12638398378869747,
            "160": -0.1372983483131693,
            "161": -0.13595448501576582,
            "162": -0.04025981978612298,
            "163": -0.10709733850505715,
            "164": -0.326317094482962,
            "165": -0.022436341814150385,
            "166": -0.039447051423592186,
            "167": -0.1059466709090374,
            "168": -0.04923477249348439,
            "169": -0.17188059974208522,
            "170": -0.1490496132024247,
            "171": 0.14131805411252804,
            "172": -0.07410060590218431,
            "173": 0.07410220446076049,
            "174": -0.14688571848271845,
            "175": 0.008787404299299247,
            "176": 0.08286954501397939,
            "177": -0.2492466403527095,
            "178": -0.03813259731751469,
            "179": 0.029722883685252496,
            "180": -0.06688099068930703,
            "181": -0.057214760560898005,
            "182": 0.14955048481786642,
            "183": -0.22514203952049444,
            "184": -0.1618933756634194,
            "185": -0.14214519363971936,
            "186": -0.04215915729118528,
            "187": 0.06538768243131868,
            "188": -0.0408284142172223,
            "189": -0.06546192059996706,
            "190": 0.07620405555290108,
            "191": -0.12195943916654699,
            "192": -0.19529883845642637,
            "193": 0.028433737002680686,
            "194": -0.15008751805984658,
            "195": 0.23385612848396026,
            "196": -0.11679469501623496,
            "197": 0.06361553426690941,
            "198": -0.26765495811098616,
            "199": -0.3145503080943247
          }
        },
        {
          "sx": 5,
          "sy": 5,
          "depth": 8,
          "w": {
            "0": -0.16869097686036616,
            "1": -0.09784256480868139,
            "2": 0.11096675765230754,
            "3": 0.15566945695265078,
            "4": -0.3258750566578862,
            "5": -0.17095072328939198,
            "6": -0.022544672076218724,
            "7": 0.05893561369996341,
            "8": -0.13514233749543705,
            "9": -0.2763779687230991,
            "10": 0.1565680350079497,
            "11": -0.27609688575347857,
            "12": -0.4249939508541172,
            "13": -0.15797449931252946,
            "14": -0.0465580508876213,
            "15": 0.014096064387551718,
            "16": -0.36395650726756473,
            "17": -0.17380245149280749,
            "18": -0.10965263728596136,
            "19": -0.02491850036370325,
            "20": -0.21136012099047563,
            "21": 0.11707581207743005,
            "22": -0.04899548578325339,
            "23": 0.028094823532206565,
            "24": 0.04400366462823685,
            "25": -0.01854746272683988,
            "26": 0.06025004395490432,
            "27": 0.1631705164472432,
            "28": -0.2906919597350386,
            "29": 0.12337398761409415,
            "30": -0.056489270815843796,
            "31": -0.03719212597020489,
            "32": 0.1252069771501543,
            "33": -0.19422123403422992,
            "34": 0.13258738846747842,
            "35": 0.17362384924921104,
            "36": -0.32051435174724,
            "37": 0.15904339678707002,
            "38": 0.08171918890836571,
            "39": -0.21076035683226374,
            "40": -0.011453246980004436,
            "41": -0.31754262434251257,
            "42": 0.18643125172207103,
            "43": -0.45668975367672715,
            "44": -0.3872870580101895,
            "45": -0.3102830202571135,
            "46": -0.12214405386256401,
            "47": 0.04972741342773379,
            "48": -0.3581052774632114,
            "49": -0.27347848962986065,
            "50": 0.15882160216587657,
            "51": -0.20342814284533023,
            "52": -0.24146332804619836,
            "53": -0.0561254862778032,
            "54": 0.10615190293728523,
            "55": 0.08129662497304874,
            "56": -0.13518414013537813,
            "57": 0.15197627430125588,
            "58": -0.1478496294572346,
            "59": 0.1708914220120977,
            "60": -0.04193815918372776,
            "61": 0.16540464659059512,
            "62": 0.10354195675861838,
            "63": 0.1590157581437562,
            "64": -0.02021551918974424,
            "65": 0.28274411994625936,
            "66": 0.045359517761577664,
            "67": 0.14170470506709873,
            "68": 0.0050705843337122474,
            "69": 0.2615650029098689,
            "70": 0.2384035623208144,
            "71": -0.07813767741035102,
            "72": -0.1171526863610545,
            "73": -0.08410798633721657,
            "74": 0.22765257494275365,
            "75": 0.08689528224771147,
            "76": -0.27962310257909856,
            "77": 0.09223377807797047,
            "78": 0.2748753996929455,
            "79": -0.24578223683871295,
            "80": -0.2674929254294034,
            "81": -0.3966214520349053,
            "82": 0.23012236128388996,
            "83": -0.2055735845807019,
            "84": -0.26958067302526567,
            "85": -0.17150730058261823,
            "86": 0.017721556631983437,
            "87": -0.2293169893021579,
            "88": -0.19524020516154747,
            "89": -0.2441114869886939,
            "90": -0.14210250442818553,
            "91": 0.0665462132815338,
            "92": -0.11890977141679858,
            "93": 0.05254802451175419,
            "94": 0.14827357748493736,
            "95": -0.06803876163300857,
            "96": -0.02087316265370246,
            "97": 0.13260132863678675,
            "98": -0.1020773720872161,
            "99": 0.11980829981261891,
            "100": -0.19887207555916153,
            "101": 0.14329437319581304,
            "102": 0.09669906539104026,
            "103": -0.09081932544244632,
            "104": 0.2362158714414729,
            "105": -0.005997395442554869,
            "106": 0.31506480586448543,
            "107": 0.04587470213910644,
            "108": 0.011310309348090554,
            "109": 0.05715647503087375,
            "110": 0.21463114125893637,
            "111": 0.10903581779892231,
            "112": -0.0013055381857185818,
            "113": -0.04660537063727403,
            "114": 0.3792166789282795,
            "115": -0.13051188155897972,
            "116": -0.21115462888547165,
            "117": 0.05630480342191704,
            "118": 0.24369354700374768,
            "119": 0.024751483820902153,
            "120": -0.3530714576767707,
            "121": -0.23369040799080149,
            "122": 0.10528608835873628,
            "123": 0.036167635224415254,
            "124": -0.09938730837584679,
            "125": -0.05752985806988018,
            "126": 0.03065466363796137,
            "127": -0.1956498533050136,
            "128": -0.0788779588589295,
            "129": 0.10927023780664272,
            "130": 0.03638374030815191,
            "131": 0.3177839818221627,
            "132": -0.06239656907681196,
            "133": 0.2723743172259839,
            "134": 0.13223233413423865,
            "135": -0.4226790344326548,
            "136": 0.13322731138502397,
            "137": 0.056204497736253585,
            "138": 0.16325782518915502,
            "139": 0.0722940788527735,
            "140": -0.119443513736593,
            "141": 0.045437065189847685,
            "142": 0.1606805758896984,
            "143": -0.2308429625713439,
            "144": 0.040746998917094206,
            "145": -0.11056409928187562,
            "146": 0.24153347184745888,
            "147": -0.009256536668113147,
            "148": -0.34511248920197835,
            "149": -0.1935986709223995,
            "150": -0.06222315094970077,
            "151": 0.036114816672607124,
            "152": -0.054574650717877524,
            "153": -0.3660473811575226,
            "154": -0.12935390224070098,
            "155": -0.031911416883664924,
            "156": -0.17610292498920124,
            "157": 0.3334031640254512,
            "158": 0.3019804120503888,
            "159": 0.10724896056384563,
            "160": -0.21986191118623474,
            "161": 0.007614905734838239,
            "162": 0.012213109579002611,
            "163": 0.19968655770999627,
            "164": -0.21348530860468679,
            "165": 0.19406479227019477,
            "166": -0.02490176478769468,
            "167": -0.4880095603730935,
            "168": -0.046605785155785354,
            "169": -0.007927467649022676,
            "170": 0.17131991084991804,
            "171": 0.25827051383852173,
            "172": 0.04288975729802888,
            "173": 0.04176314975056677,
            "174": 0.02612680528195281,
            "175": -0.3778039640995808,
            "176": -0.025231598573117114,
            "177": -0.09123305939917102,
            "178": 0.07268191047270502,
            "179": -0.020905854643961625,
            "180": -0.1212095620468585,
            "181": -0.23897365586301927,
            "182": 0.18289468559541727,
            "183": 0.004587599207888859,
            "184": -0.15520137060672662,
            "185": -0.13816509106334932,
            "186": -0.03684742562649141,
            "187": -0.4130699803108667,
            "188": -0.25642608207997414,
            "189": -0.07656599880373982,
            "190": 0.16124883299456014,
            "191": 0.07785017146047926,
            "192": -0.22731568732679114,
            "193": 0.003923761484558752,
            "194": -0.37195182552364137,
            "195": -0.015529320240583754,
            "196": -0.2187148372574502,
            "197": 0.19427869027287165,
            "198": -0.11424563430198129,
            "199": -0.09657020285217525
          }
        },
        {
          "sx": 5,
          "sy": 5,
          "depth": 8,
          "w": {
            "0": 0.14046015310820764,
            "1": 0.08863021137548774,
            "2": -0.18777934468214347,
            "3": 0.0772090791170168,
            "4": 0.11473699703670173,
            "5": 0.1937322498240722,
            "6": 0.2623105920349676,
            "7": 0.10199453211978153,
            "8": 0.08532734324271457,
            "9": 0.2027117970128051,
            "10": -0.003035329769483167,
            "11": 0.10774448392951304,
            "12": 0.15611696723204535,
            "13": 0.15105949421857717,
            "14": 0.07772610281140711,
            "15": -0.20583203919840526,
            "16": -0.07664620277166824,
            "17": 0.11357122637681666,
            "18": 0.012218696924818384,
            "19": 0.01619181140257569,
            "20": 0.20632668575947635,
            "21": 0.10184562497114187,
            "22": -0.07746062855331669,
            "23": -0.02191494289704706,
            "24": -0.2630077729056696,
            "25": -0.07663000328476557,
            "26": 0.008665447431497433,
            "27": -0.357448473126754,
            "28": 0.09883925870641587,
            "29": 0.033039606865962204,
            "30": -0.14892294356929875,
            "31": -0.2517177871933645,
            "32": -0.08628725831934604,
            "33": -0.038408734898544135,
            "34": -0.11687408114467429,
            "35": -0.1058137068883353,
            "36": -0.1271582634543422,
            "37": 0.09900202561076049,
            "38": -0.12108139705658344,
            "39": -0.1954646934945559,
            "40": 0.1369188075921981,
            "41": 0.0033583997164798813,
            "42": -0.01604795438390985,
            "43": 0.21856815200967328,
            "44": 0.052826883353778956,
            "45": -0.05873978289157653,
            "46": -0.09062035841741373,
            "47": 0.3105582469847227,
            "48": 0.07601146995271268,
            "49": 0.0062399980419162076,
            "50": -0.018229057923804498,
            "51": 0.0728803467166025,
            "52": 0.08545824080185657,
            "53": 0.038342816185540196,
            "54": 0.0810631291330185,
            "55": 0.12968470824259268,
            "56": 0.02828994547079633,
            "57": 0.011043842363939087,
            "58": -0.08968066651815601,
            "59": 0.047310429014321205,
            "60": 0.2555364752003547,
            "61": -0.05333185667508154,
            "62": -0.0813654270669108,
            "63": -0.19898016544970354,
            "64": -0.1250859614435019,
            "65": -0.2233607573434975,
            "66": 0.16314161382323505,
            "67": -0.1903809665999788,
            "68": 0.1376752218871542,
            "69": 0.0451769080726394,
            "70": -0.11970748839797518,
            "71": -0.12099455619012174,
            "72": -0.0006955119489551916,
            "73": -0.09658376940771271,
            "74": -0.12062531472485644,
            "75": -0.14866163128070006,
            "76": -0.09698914716949478,
            "77": 0.1661392580641057,
            "78": -0.32597475969618056,
            "79": -0.16655137713056475,
            "80": -0.15110225129114402,
            "81": -0.28442734509221634,
            "82": -0.06112566984102546,
            "83": 0.10937206625004194,
            "84": -0.3526977873485123,
            "85": -0.22141120209948914,
            "86": -0.20998965793141844,
            "87": 0.11482559584861712,
            "88": -0.06658602572407131,
            "89": -0.04729864542464757,
            "90": -0.0051612978546392695,
            "91": 0.182818883853884,
            "92": -0.06418256789313419,
            "93": -0.0885271562141294,
            "94": -0.02118057657062771,
            "95": -0.030348791002223336,
            "96": -0.2663988406896067,
            "97": -0.04895843394355603,
            "98": 0.0872132354430863,
            "99": 0.07009562768453788,
            "100": 0.02678956739384246,
            "101": -0.017631943001465793,
            "102": 0.07361258180817525,
            "103": -0.2184205395119383,
            "104": -0.15339915495690246,
            "105": -0.008566314723145741,
            "106": 0.2073048465183886,
            "107": 0.03905434173424054,
            "108": 0.07338885475408503,
            "109": -0.05247452284238898,
            "110": -0.20514579304418284,
            "111": -0.2273267638729371,
            "112": 0.1502381563640596,
            "113": -0.14357642040965132,
            "114": -0.08216082787126572,
            "115": -0.014067883914016316,
            "116": -0.11367812970410399,
            "117": 0.18619636516791271,
            "118": -0.18759882039026832,
            "119": -0.16962767079040528,
            "120": -0.14902376104295842,
            "121": -0.1517365317553196,
            "122": -0.057420244212211195,
            "123": -0.0916422291919666,
            "124": -0.2446270936550439,
            "125": -0.051984085150648465,
            "126": -0.2163383124071526,
            "127": -0.09121665417038463,
            "128": -0.1537115835761273,
            "129": -0.3045091862910729,
            "130": -0.20467883457135516,
            "131": 0.08063722693692314,
            "132": -0.1158375380246754,
            "133": -0.3211993461943562,
            "134": -0.05732410018510292,
            "135": 0.045141418358608514,
            "136": -0.3040501465131515,
            "137": 0.05127642775599495,
            "138": 0.09730201320261152,
            "139": 0.18344474884031378,
            "140": 0.15020076338881985,
            "141": -0.2190026397586686,
            "142": 0.022420437116224053,
            "143": 0.07110682192732479,
            "144": -0.25863052278268756,
            "145": 0.14048806765033972,
            "146": 0.20922135057406477,
            "147": 0.08473834138050934,
            "148": 0.003597518806783586,
            "149": -0.17085212567434283,
            "150": 0.05364280914774872,
            "151": -0.19658508052313167,
            "152": 0.17829632345848984,
            "153": 0.13639325226781573,
            "154": 0.10247123636398463,
            "155": -0.12740913923942088,
            "156": -0.2043230509610136,
            "157": -0.048897938332445746,
            "158": -0.06266686927206969,
            "159": 0.03164812859662261,
            "160": -0.3083258631889334,
            "161": -0.10789156049569426,
            "162": 0.10511659465051068,
            "163": -0.058021641695857454,
            "164": -0.17742338242487066,
            "165": 0.16342003001502114,
            "166": 0.25729443962710896,
            "167": -0.3157959077808943,
            "168": -0.29007336165824915,
            "169": -0.26134378204331654,
            "170": 0.03956185398034504,
            "171": 0.10406874020400625,
            "172": -0.38200791653118477,
            "173": 0.10127875624172598,
            "174": -0.1325111615703545,
            "175": 0.08995051767528406,
            "176": -0.06182729515562998,
            "177": -0.23544338913068952,
            "178": 0.12683567914324062,
            "179": 0.06969901154894205,
            "180": 0.07430618576437205,
            "181": -0.08248892619227897,
            "182": -0.25831322196044537,
            "183": 0.058091929292559775,
            "184": -0.1610943121680268,
            "185": -0.005901938449878442,
            "186": -0.1232425305485677,
            "187": 0.14620376146782715,
            "188": 0.30650142825334387,
            "189": -0.07260601914727402,
            "190": 0.3100821665966908,
            "191": -0.303231290836993,
            "192": 0.005607377294648182,
            "193": 0.49282786430529457,
            "194": 0.12539363567546621,
            "195": -0.13905244225750554,
            "196": 0.1021043442244326,
            "197": -0.2691172391255602,
            "198": 0.016581611388820975,
            "199": -0.347473591003872
          }
        },
        {
          "sx": 5,
          "sy": 5,
          "depth": 8,
          "w": {
            "0": 0.1301449204164173,
            "1": -0.13321999117338978,
            "2": -0.23416692420263943,
            "3": -0.1249735230192766,
            "4": 0.045080329057330046,
            "5": 0.25969459369633185,
            "6": 0.00828527254771927,
            "7": -0.1269501700390922,
            "8": -0.056185797888372,
            "9": -0.1067972755399508,
            "10": -0.1875603666633754,
            "11": -0.00011097208408756046,
            "12": 0.21182764095074752,
            "13": 0.2614875040068894,
            "14": -0.18372253901541463,
            "15": -0.08696472839822385,
            "16": 0.018163401496973958,
            "17": -0.15455332226186336,
            "18": -0.12826914053483107,
            "19": -0.0061371509123331605,
            "20": 0.23297561312353082,
            "21": -0.10887376326628609,
            "22": -0.34094148101604044,
            "23": -0.28711797796345756,
            "24": -0.07481900645608286,
            "25": -0.06678956968178502,
            "26": -0.17375189820943432,
            "27": -0.017694393868657825,
            "28": -0.025847592892682413,
            "29": -0.12304309516402723,
            "30": -0.3751126498726641,
            "31": -0.03430808095384681,
            "32": 0.08249871666732563,
            "33": -0.23007340568771922,
            "34": -0.035272657565920074,
            "35": 0.07514193026659521,
            "36": 0.17102445515215622,
            "37": 0.057437187654921444,
            "38": -0.22874932311946666,
            "39": -0.19700288545870154,
            "40": 0.03288174115895219,
            "41": -0.32619941003124553,
            "42": -0.31023150335206834,
            "43": -0.06314818843336906,
            "44": -0.11925428028385941,
            "45": -0.012674792121845425,
            "46": 0.036153478082497255,
            "47": -0.09542756542585087,
            "48": -0.060098486554370306,
            "49": -0.21917200438015513,
            "50": 0.13093539306660631,
            "51": 0.14029491575763992,
            "52": 0.101713036467193,
            "53": 0.06181571475012347,
            "54": -0.16125258080931987,
            "55": -0.27317811834696504,
            "56": 0.14573329781275113,
            "57": -0.12368691421229631,
            "58": 0.12323472869290035,
            "59": 0.0016386049052752247,
            "60": 0.09672410061824517,
            "61": -0.01054382499537342,
            "62": -0.03722442962346814,
            "63": -0.1395531457486229,
            "64": 0.01856771624989442,
            "65": -0.3034193633353129,
            "66": 0.02432559019449526,
            "67": -0.10855123626402649,
            "68": 0.03129663153315784,
            "69": -0.18546896332233484,
            "70": -0.32159464199202753,
            "71": -0.14349232021631872,
            "72": 0.06595282247652837,
            "73": -0.22809749827130954,
            "74": 0.04252272251890787,
            "75": 0.27899677058040023,
            "76": 0.04281738705460519,
            "77": -0.1986656636450438,
            "78": -0.2074095427123958,
            "79": -0.04388394323462991,
            "80": -0.37707766153496325,
            "81": -0.11101871708869364,
            "82": -0.1948765697656425,
            "83": 0.146680363431032,
            "84": 0.014463215199676851,
            "85": 0.038559512435953035,
            "86": 0.15238304896887198,
            "87": -0.31880159538490255,
            "88": 0.11538879333112134,
            "89": -0.028877403291835777,
            "90": 0.04927496594555341,
            "91": 0.15397428585415102,
            "92": 0.11260432670985346,
            "93": -0.03221299024516528,
            "94": -0.13967871196641524,
            "95": -0.18113398411157838,
            "96": 0.16641271155747905,
            "97": -0.019719334692031295,
            "98": 0.29895224802502235,
            "99": -0.073758367334886,
            "100": -0.023125809552751835,
            "101": -0.0777465886182658,
            "102": -0.19604185742938335,
            "103": -0.0981206991071468,
            "104": -0.008006208210108268,
            "105": -0.20988229105540826,
            "106": 0.2055278150676987,
            "107": -0.007814095029202044,
            "108": -0.10671220551812766,
            "109": -0.21225046785729976,
            "110": -0.018661419467927494,
            "111": -0.04962000208441365,
            "112": -0.04989079283264044,
            "113": -0.1524264600498858,
            "114": 0.12188552081425874,
            "115": 0.31767430157903775,
            "116": -0.01587447418015683,
            "117": -0.2872663968422982,
            "118": -0.050844877009880184,
            "119": 0.2968295573991398,
            "120": -0.02872716738272414,
            "121": 0.12619710813421783,
            "122": 0.13083509635359375,
            "123": 0.19278868375901845,
            "124": -0.18845435394752968,
            "125": 0.10640056790018183,
            "126": -0.3556748206497411,
            "127": -0.28268709622270416,
            "128": 0.06162089710620178,
            "129": -0.178725617643076,
            "130": -0.001174367271902708,
            "131": 0.10414543156384548,
            "132": -0.050876530526405166,
            "133": -0.060702285145417804,
            "134": -0.12515242773278185,
            "135": 0.054655049159508876,
            "136": 0.163785123891037,
            "137": -0.07631538712237242,
            "138": 0.1949805530677223,
            "139": -0.3307009902060234,
            "140": 0.051749881951780895,
            "141": -0.3697794897235501,
            "142": 0.08725859202470235,
            "143": -0.10412868806643587,
            "144": -0.06261826648041258,
            "145": -0.05165616277703164,
            "146": 0.18097691862707116,
            "147": -0.188205589643035,
            "148": -0.3063763333025123,
            "149": -0.45583484195485974,
            "150": 0.031091398819825623,
            "151": 0.08972739638730737,
            "152": -0.17436211653814865,
            "153": 0.040888559405648534,
            "154": 0.12362591170757037,
            "155": 0.14019137819695332,
            "156": -0.22773449141057855,
            "157": -0.29321310013866875,
            "158": -0.18706689364067994,
            "159": 0.2250802395904043,
            "160": 0.22462557849052814,
            "161": -0.17062740638559654,
            "162": 0.35022526738979914,
            "163": -0.28384781940046544,
            "164": -0.0983285692387963,
            "165": -0.35748079141941497,
            "166": 0.1368429342331621,
            "167": 0.08977411910658116,
            "168": 0.07357346307881152,
            "169": -0.1867651525771194,
            "170": 0.05859922682242062,
            "171": -0.12417224850088357,
            "172": -0.0177453600354589,
            "173": -0.4299364806266845,
            "174": 0.11825116628346634,
            "175": 0.2762226688100405,
            "176": 0.11879607019258254,
            "177": -0.23261685120405398,
            "178": 0.14973169933859623,
            "179": -0.30948899679611735,
            "180": -0.06597907626052757,
            "181": -0.2599810751755036,
            "182": 0.003998013958062763,
            "183": 0.05781776585599105,
            "184": -0.23794845831180697,
            "185": -0.06566122827502617,
            "186": 0.0708533218549185,
            "187": -0.09284230910353862,
            "188": -0.2311213029875003,
            "189": -0.14188571384306423,
            "190": 0.033608066397236624,
            "191": -0.039760161027972994,
            "192": -0.34387236716723557,
            "193": 0.08211830531330438,
            "194": 0.10391744022308938,
            "195": -0.12200924573555766,
            "196": -0.43770433542099446,
            "197": -0.22044935170507676,
            "198": -0.05044119711906618,
            "199": -0.027963283599736204
          }
        },
        {
          "sx": 5,
          "sy": 5,
          "depth": 8,
          "w": {
            "0": -0.2520499549828366,
            "1": -0.051750781534925606,
            "2": 0.010678283235639015,
            "3": -0.08087318259943216,
            "4": -0.18919774276902962,
            "5": -0.1893784065684041,
            "6": 0.15473303055965607,
            "7": 0.1507983212642197,
            "8": 0.007075903798062918,
            "9": -0.10356212096189898,
            "10": -0.020324766188302035,
            "11": 0.06744692325512598,
            "12": -0.28040690512696914,
            "13": -0.25827678705723345,
            "14": -0.04104187114090471,
            "15": 0.12534652652110045,
            "16": -0.04852504348937328,
            "17": -0.37611686915365705,
            "18": -0.2536634806806053,
            "19": -0.05498985759544175,
            "20": -0.1889716357045881,
            "21": -0.4248513979838381,
            "22": -0.18287835409845585,
            "23": 0.1796338274880611,
            "24": -0.02864470000701245,
            "25": -0.16776132867286553,
            "26": -0.386626081878213,
            "27": -0.20497576594735736,
            "28": -0.08498715630670425,
            "29": -0.39489155827210176,
            "30": 0.15913010960230148,
            "31": 0.15986667146586048,
            "32": -0.30848501919803445,
            "33": -0.06438911821425194,
            "34": -0.1323600020407788,
            "35": -0.18829960680938163,
            "36": 0.14623399799296768,
            "37": 0.151565253672105,
            "38": 0.3625147302682518,
            "39": -0.23499379409600313,
            "40": -0.12086098738529609,
            "41": -0.0968077421091552,
            "42": -0.09804845445422755,
            "43": -0.12952224358062184,
            "44": -0.08649180999633636,
            "45": 0.03710084021983145,
            "46": -0.013133256625267892,
            "47": 0.1153634445457689,
            "48": -0.13587952899027506,
            "49": -0.17532431544955882,
            "50": -0.18885047886032202,
            "51": -0.31081670123755406,
            "52": -0.06590520730612859,
            "53": -0.011341034769520562,
            "54": -0.1100848941417591,
            "55": -0.02319855878186944,
            "56": -0.4781744976156403,
            "57": -0.22178895311264757,
            "58": -0.4268890826974939,
            "59": -0.15724253113164863,
            "60": -0.05262413526489206,
            "61": 0.10393886116098172,
            "62": 0.05967430524773023,
            "63": -0.2408187654942182,
            "64": -0.18221645984665788,
            "65": 0.0018754762351331808,
            "66": -0.45944579221997567,
            "67": 0.04501122768112467,
            "68": 0.16141664516342127,
            "69": 0.2513400433964605,
            "70": 0.14690742840656087,
            "71": -0.38505363351915073,
            "72": 0.07164610793703159,
            "73": 0.1311527785945001,
            "74": -0.2618383143336342,
            "75": 0.14797167521318721,
            "76": 0.0799164025443682,
            "77": 0.1557014638266483,
            "78": -0.08766010291443431,
            "79": -0.1331617705033725,
            "80": -0.09620096606823918,
            "81": -0.10465256754302485,
            "82": -0.23412024174423074,
            "83": -0.10583075099607567,
            "84": -0.277342241576803,
            "85": 0.09800395567847288,
            "86": -0.23792280264356697,
            "87": -0.15224487532124004,
            "88": -0.231666937462011,
            "89": -0.017658878352380412,
            "90": -0.08141554847746915,
            "91": -0.004993345765964707,
            "92": -0.048495636383410326,
            "93": 0.12129621271616432,
            "94": 0.15933651569771531,
            "95": -0.17369754934869677,
            "96": 0.28718833523473064,
            "97": 0.12814103175850478,
            "98": -0.07990459525182707,
            "99": 0.22841192087714804,
            "100": 0.04983122073280146,
            "101": 0.194876987114205,
            "102": 0.24932717109339075,
            "103": -0.07692287932221216,
            "104": 0.2988940233688929,
            "105": 0.13832793274450922,
            "106": -0.13112256979663792,
            "107": 0.14131196742039678,
            "108": -0.014624412869934437,
            "109": -0.006208966235894635,
            "110": -0.010039959941596448,
            "111": -0.11993386076647988,
            "112": 0.32146237139261485,
            "113": -0.14656308918275415,
            "114": -0.1130335391087341,
            "115": -0.11117137976630546,
            "116": 0.21558725072475785,
            "117": -0.21920965728110253,
            "118": -0.1401747904128331,
            "119": 0.0653996324271883,
            "120": 0.008693530621461876,
            "121": 0.0015645185139326195,
            "122": 0.02470818302252145,
            "123": 0.2565394581141499,
            "124": -0.13294679174243884,
            "125": 0.13012049673577636,
            "126": -0.11531534608076105,
            "127": -0.11860167161144883,
            "128": 0.2506466446994308,
            "129": 0.038839749876469265,
            "130": -0.1214114525096033,
            "131": 0.26830204570049104,
            "132": -0.12720199414746444,
            "133": 0.07231866925727108,
            "134": -0.15155076690416053,
            "135": -0.06391140360806112,
            "136": 0.08935741014807023,
            "137": 0.03162245855177133,
            "138": -0.08766842052199152,
            "139": 0.1400555912195943,
            "140": -0.14548202094685453,
            "141": -0.22242139988555798,
            "142": -0.07898416727251295,
            "143": -0.035053008564416684,
            "144": 0.1011081018000702,
            "145": -0.2974339742666515,
            "146": -0.1833327120306585,
            "147": -0.06079616883692648,
            "148": -0.03314788376005037,
            "149": -0.20863607064833778,
            "150": 0.22583639913441142,
            "151": 0.015699281601490145,
            "152": 0.0593197816961729,
            "153": -0.16276976947308877,
            "154": -0.29146136549740426,
            "155": 0.03136977233424002,
            "156": -0.103041892998899,
            "157": -0.12666745252013684,
            "158": 0.032401494043127935,
            "159": -0.0643344816635325,
            "160": 0.11229037137193947,
            "161": 0.15929878755332919,
            "162": -0.1646846419137343,
            "163": -0.0421084294726019,
            "164": 0.05432818130921215,
            "165": -0.1012982802443874,
            "166": -0.26833529397526557,
            "167": 0.10481624813982353,
            "168": -0.05509856855125844,
            "169": -0.14899782701138822,
            "170": 0.06850664119556342,
            "171": -0.011230441037766799,
            "172": 0.021792715820007837,
            "173": -0.4195481120431058,
            "174": -0.03244916536268282,
            "175": 0.10893804702660605,
            "176": 0.036451633119066205,
            "177": -0.12198548587326394,
            "178": 0.052167379355198204,
            "179": -0.02762228521081873,
            "180": 0.023477160375740314,
            "181": -0.11571493734272048,
            "182": 0.2592311047129842,
            "183": 0.29011491714221394,
            "184": -0.011845302218386545,
            "185": 0.12216623637049077,
            "186": -0.333754907622043,
            "187": -0.18129141940469615,
            "188": -0.12849266878649784,
            "189": 0.1499540244358196,
            "190": -0.06696228012972695,
            "191": 0.1731666895174566,
            "192": 0.14910378169246133,
            "193": 0.15795729240962522,
            "194": -0.29507894491931297,
            "195": -0.11969979165744711,
            "196": -0.1498858579463671,
            "197": 0.2099749145609935,
            "198": 0.1421729492196646,
            "199": -0.08631192211684678
          }
        },
        {
          "sx": 5,
          "sy": 5,
          "depth": 8,
          "w": {
            "0": 0.034974054602306605,
            "1": 0.026488559757797403,
            "2": 0.158231254722605,
            "3": -0.1486485622209692,
            "4": -0.04205688268666101,
            "5": -0.12535889240787287,
            "6": -0.12363934934890397,
            "7": 0.010309315451866842,
            "8": -0.23502148688682775,
            "9": 0.02338841008316087,
            "10": 0.32746042670104947,
            "11": 0.1701252369676997,
            "12": 0.026834711011136506,
            "13": -0.030013736115872908,
            "14": -0.09954430377607683,
            "15": -0.03881011188556739,
            "16": -0.12563901410120382,
            "17": 0.1283960046655167,
            "18": 0.15806262718953826,
            "19": 0.3656731142546464,
            "20": 0.06759987615759315,
