{
  "layers": [
    { "out_depth": 1, "out_sx": 24, "out_sy": 24, "layer_type": "input" },
    {
      "sx": 5,
      "sy": 5,
      "stride": 1,
      "in_depth": 1,
      "out_depth": 8,
      "out_sx": 24,
      "out_sy": 24,
      "layer_type": "conv",
      "l1_decay_mul": 0,
      "l2_decay_mul": 1,
      "pad": 2,
      "filters": [
        {
          "sx": 5,
          "sy": 5,
          "depth": 1,
          "w": {
            "0": 0.030540588677961313,
            "1": -0.25154557682304735,
            "2": -0.020900059124652322,
            "3": -0.32317280598206855,
            "4": 0.049800422101276116,
            "5": 0.05089735938192312,
            "6": 0.5098654195243937,
            "7": 0.3944583048835569,
            "8": 0.353759250894921,
            "9": 0.2560486867605322,
            "10": 0.39114793565902656,
            "11": 0.3834884396199699,
            "12": 0.34340986354873837,
            "13": 0.7377154482673542,
            "14": 0.2988111696457707,
            "15": -0.13618799509992277,
            "16": 0.052687067388981164,
            "17": -0.33782815702766406,
            "18": -0.6127577438736409,
            "19": -0.46947218729427276,
            "20": 0.03315907071919662,
            "21": -0.5809538259140038,
            "22": -0.6988614834965556,
            "23": -0.377422444827711,
            "24": -0.27625727178252535
          }
        },
        {
          "sx": 5,
          "sy": 5,
          "depth": 1,
          "w": {
            "0": 0.4242489588635843,
            "1": -0.5040784355627435,
            "2": -0.3905373280829492,
            "3": -0.2981953568397545,
            "4": -0.29888325472770494,
            "5": 0.045209805609906235,
            "6": -0.17096361366589935,
            "7": 0.118326670845099,
            "8": 0.07880988473046427,
            "9": 0.18933008389365336,
            "10": -0.05266690882301544,
            "11": 0.16653250979677028,
            "12": 0.48055526015458105,
            "13": -0.20235871563924251,
            "14": -0.05132500103121823,
            "15": 0.34974530793717734,
            "16": -0.19343998833071438,
            "17": 0.38784947734335307,
            "18": -0.5043558864322044,
            "19": -0.7391114885123271,
            "20": 0.053497389435245464,
            "21": 0.10838169741125069,
            "22": 0.41846072745929147,
            "23": 0.18122739481578345,
            "24": 0.14991964245970835
          }
        },
        {
          "sx": 5,
          "sy": 5,
          "depth": 1,
          "w": {
            "0": 0.15195842331436174,
            "1": 0.32216711318576224,
            "2": -0.06828909908549848,
            "3": -0.08886550248050618,
            "4": -0.4658616439206471,
            "5": 0.4790220842227958,
            "6": -0.14149628440687811,
            "7": 0.21235907869871928,
            "8": -0.4967926069329288,
            "9": -0.30417559538476957,
            "10": 0.37239034728292436,
            "11": -0.010831243813146558,
            "12": 0.06824836736208661,
            "13": -0.48629539212031675,
            "14": -0.4766756565203298,
            "15": 0.40229854444613106,
            "16": 0.28543672293524475,
            "17": -0.5058989215161142,
            "18": -0.4696821946339856,
            "19": -0.23373611078316903,
            "20": 0.31932177657579364,
            "21": -0.09711427480739716,
            "22": -0.3496453577140652,
            "23": -0.07951155342081505,
            "24": -0.2894092037659538
          }
        },
        {
          "sx": 5,
          "sy": 5,
          "depth": 1,
          "w": {
            "0": 0.13976954281185905,
            "1": -0.03485455869664831,
            "2": -0.1708079081882919,
            "3": -0.09492251512770525,
            "4": 0.4691798307397626,
            "5": -0.13525483239548183,
            "6": -0.8544540305355184,
            "7": 0.045798561996211996,
            "8": 0.26798285115391907,
            "9": 0.10547492556745502,
            "10": -0.7841255504395076,
            "11": -0.2883530904437164,
            "12": -0.026682127433331277,
            "13": 0.3766814858861868,
            "14": 0.23218600459978536,
            "15": -0.6935424893830211,
            "16": 0.007151152795234984,
            "17": 0.37150252954485946,
            "18": 0.2415443957191212,
            "19": 0.0809807745022661,
            "20": -0.13228836276206557,
            "21": -0.31265381277639925,
            "22": 0.11061540073613282,
            "23": 0.1601321089142237,
            "24": -0.0742915548432052
          }
        },
        {
          "sx": 5,
          "sy": 5,
          "depth": 1,
          "w": {
            "0": -0.010888641266274741,
            "1": -0.5385234151250046,
            "2": 0.2252067178504049,
            "3": 0.06342206787123732,
            "4": -0.6120793896959309,
            "5": 0.3150375812702982,
            "6": -0.011599165939725218,
            "7": -0.04116864253330187,
            "8": 0.2601182588335879,
            "9": -0.4513882207951353,
            "10": 0.018474573571288712,
            "11": 0.26943676275149087,
            "12": 0.3201257282994581,
            "13": 0.26811181435064324,
            "14": 0.1084458717518344,
            "15": 0.026023565524930098,
            "16": -0.07704050474542748,
            "17": -0.004489519244398256,
            "18": 0.7148800884036136,
            "19": 0.3305157427880426,
            "20": -0.3744997171768813,
            "21": -0.09383761516422401,
            "22": -0.15098986445911888,
            "23": 0.039097753760996896,
            "24": 0.16344440155744427
          }
        },
        {
          "sx": 5,
          "sy": 5,
          "depth": 1,
          "w": {
            "0": -0.588449227093763,
            "1": -0.6288854847770887,
            "2": -0.36311904287975855,
            "3": -0.6620443615485253,
            "4": -0.40090469691452996,
            "5": -0.23607642585292649,
            "6": -0.06908776807204427,
            "7": -0.38660908371560726,
            "8": 0.053603800422503185,
            "9": -0.27945930000153496,
            "10": -0.19765278234626552,
            "11": -0.01359793667595551,
            "12": -0.058040841029856585,
            "13": -0.21779801494156675,
            "14": 0.2962380681106578,
            "15": 0.02124533960773837,
            "16": 0.004660271579053885,
            "17": 0.1473239981903894,
            "18": 0.6098612919392922,
            "19": 0.4215742455490407,
            "20": 0.48343325446687424,
            "21": -0.140156263455883,
            "22": 0.54926319125404,
            "23": 0.19075804573663854,
            "24": 0.10181967375811213
          }
        },
        {
          "sx": 5,
          "sy": 5,
          "depth": 1,
          "w": {
            "0": 0.4696218456239984,
            "1": 0.13205287195143506,
            "2": -0.10792707604305142,
            "3": -0.510345175897024,
            "4": -0.657519035520531,
            "5": 0.35808681837092005,
            "6": 0.43466727661843735,
            "7": -0.24877637407700157,
            "8": -0.22784139962609154,
            "9": -0.7025216650365594,
            "10": -0.16090979992623589,
            "11": -0.09298990475830793,
            "12": -0.16252666795352885,
            "13": 0.1801846679246871,
            "14": -0.10083229484850642,
            "15": -0.5672177988468189,
            "16": -0.5879142566796378,
            "17": 0.22383272743096647,
            "18": 0.23053428012542343,
            "19": 0.3310578615578157,
            "20": -0.2558214461276282,
            "21": 0.10682436180705034,
            "22": 0.1804154026635418,
            "23": 0.32884521890976304,
            "24": -0.0785478964844958
          }
        },
        {
          "sx": 5,
          "sy": 5,
          "depth": 1,
          "w": {
            "0": 0.0942575682823102,
            "1": 0.057522769827659234,
            "2": -0.0376446099785224,
            "3": 0.5309335151650082,
            "4": -0.2784950403462567,
            "5": 0.4248910325114077,
            "6": -0.6598553788656214,
            "7": 0.005503530808199934,
            "8": 0.28716112247004966,
            "9": 0.4582575316817312,
            "10": 0.020868639117298648,
            "11": -0.015502262020546788,
            "12": 0.29054493305440154,
            "13": 0.1292500363515595,
            "14": 0.7517199192308461,
            "15": -0.5060906078453561,
            "16": -0.4941937055164315,
            "17": -0.34989205154002156,
            "18": 0.06246298630234198,
            "19": -0.09020716586387384,
            "20": -0.14697771496597492,
            "21": -0.3958602525488904,
            "22": -0.7957902707877034,
            "23": -0.9214642481601213,
            "24": -1.0488385406689116
          }
        }
      ],
      "biases": {
        "sx": 1,
        "sy": 1,
        "depth": 8,
        "w": {
          "0": -0.013336822423799265,
          "1": -0.05186980785683748,
          "2": 0.035903596174284784,
          "3": -0.1015756734811477,
          "4": -0.2992694060602292,
          "5": -0.006482235948701164,
          "6": 0.04556249716607019,
          "7": 0.2065816766230311
        }
      }
    },
    { "out_depth": 8, "out_sx": 24, "out_sy": 24, "layer_type": "relu" },
    {
      "sx": 2,
      "sy": 2,
      "stride": 2,
      "in_depth": 8,
      "out_depth": 8,
      "out_sx": 12,
      "out_sy": 12,
      "layer_type": "pool",
      "pad": 0
    },
    {
      "sx": 5,
      "sy": 5,
      "stride": 1,
      "in_depth": 8,
      "out_depth": 16,
      "out_sx": 12,
      "out_sy": 12,
      "layer_type": "conv",
      "l1_decay_mul": 0,
      "l2_decay_mul": 1,
      "pad": 2,
      "filters": [
        {
          "sx": 5,
          "sy": 5,
          "depth": 8,
          "w": {
            "0": -0.00603074846022658,
            "1": -0.1710011994663667,
            "2": 0.020022486588586498,
            "3": -0.01627829014068486,
            "4": -0.008731005326104255,
            "5": 0.029370249043168133,
            "6": -0.01961067273604062,
            "7": 0.061706484485748794,
            "8": 0.008666546720252657,
            "9": 0.029475062416884086,
            "10": -0.1166276512844311,
            "11": -0.02435819149400766,
            "12": -0.01274354672667589,
            "13": 0.0068450112225088445,
            "14": -0.04017387218961254,
            "15": 0.04721662006891576,
            "16": -0.06839703205191856,
            "17": 0.029126204555973766,
            "18": 0.009659538148342047,
            "19": -0.11660792221712685,
            "20": -0.050844395066737935,
            "21": 0.059040732918964514,
            "22": 0.019341915630306863,
            "23": -0.04080552571820501,
            "24": -0.025677019693421864,
            "25": -0.04641241887169961,
            "26": -0.10257046749456401,
            "27": 0.0338256119202039,
            "28": -0.05818830632393919,
            "29": -0.10669485449095407,
            "30": 0.021301859639917257,
            "31": -0.16345772051120294,
            "32": 0.08408372092959797,
            "33": 0.026521971651292477,
            "34": 0.0028008538212322275,
            "35": -0.014496429070974795,
            "36": -0.010938174270107737,
            "37": 0.006035824211857419,
            "38": -0.009015666225737125,
            "39": 0.025692476091000362,
            "40": -0.04527031906575954,
            "41": -0.07262236924946538,
            "42": -0.06970273048730896,
            "43": -0.04408973224494303,
            "44": -0.06341572934722345,
            "45": -0.028906356152166173,
            "46": -0.08175201534289565,
            "47": 0.003800120746392648,
            "48": -0.007868880600517436,
            "49": 0.0013577255455852124,
            "50": 0.028260165797255755,
            "51": 0.020477956865438175,
            "52": -0.008345958572191703,
            "53": -0.010926267772308824,
            "54": 0.001107083574636137,
            "55": -0.09429967009975541,
            "56": -0.004298835066782162,
            "57": 0.05598012682492978,
            "58": -0.09421711600726289,
            "59": -0.08747753374744331,
            "60": -0.0754684081782419,
            "61": -0.034090243548090496,
            "62": 0.033553733276359785,
            "63": -0.04123831348735859,
            "64": -0.04859525306412935,
            "65": -0.003066730449068968,
            "66": 0.05799374290361262,
            "67": -0.13298959140386146,
            "68": -0.06254022242195606,
            "69": -0.004442428564416409,
            "70": -0.07623843195349567,
            "71": -0.11047703973444314,
            "72": -0.06562859193041823,
            "73": 0.017427743756796822,
            "74": -0.0815532322641761,
            "75": -0.007296868827142138,
            "76": -0.11254577681967469,
            "77": -0.008994061011686049,
            "78": -0.046747144269449745,
            "79": -0.08358692706975833,
            "80": -0.0517024404579382,
            "81": -0.015480487152587654,
            "82": 0.05456125730426664,
            "83": 0.06945847909916378,
            "84": -0.007328267332182673,
            "85": -0.05515563724423365,
            "86": 0.09007790876031867,
            "87": -0.033088861083476334,
            "88": -0.02345961133249736,
            "89": -0.004389357353759743,
            "90": -0.12399768344337958,
            "91": -0.10128074332760953,
            "92": 0.08583418389127953,
            "93": -0.04153032065229797,
            "94": 0.01246031718818214,
            "95": 0.09020475746379031,
            "96": -0.07725984787426247,
            "97": -0.05430058343874057,
            "98": -0.08403729973419738,
            "99": -0.032047346065408454,
            "100": 0.03764903840698065,
            "101": 0.05010154949110832,
            "102": 0.03715918973811993,
            "103": 0.03295148690483836,
            "104": -0.01919167222557832,
            "105": 0.03326215154143044,
            "106": -0.04670761079305483,
            "107": -0.01218163873535616,
            "108": 0.0004959550038491818,
            "109": -0.03124475509554631,
            "110": -0.007528886736101238,
            "111": -0.042292116713423644,
            "112": 0.04251301465367352,
            "113": -0.12376264644266818,
            "114": -0.006120127439324481,
            "115": 0.008394882337303565,
            "116": -0.012179165318125736,
            "117": -0.10648228641399587,
            "118": 0.008274924360027051,
            "119": -0.056666966196181195,
            "120": -0.008532266780322567,
            "121": -0.020790935513120622,
            "122": -0.09413460899514178,
            "123": -0.04711380464273427,
            "124": -0.035410937171251225,
            "125": 0.05415946751356689,
            "126": 0.02134839507835583,
            "127": 0.06698198313403682,
            "128": -0.09982571077361473,
            "129": -0.15824719729237496,
            "130": -0.06274071063427376,
            "131": 0.04862632560781121,
            "132": 0.004891511100388688,
            "133": -0.05683438208334808,
            "134": -0.04689681626617738,
            "135": -0.0757001657557616,
            "136": 0.03220068604415493,
            "137": 0.013412519503142081,
            "138": 0.0010756378290045611,
            "139": 0.033750125146182926,
            "140": -0.03828373163299125,
            "141": -0.008326633826619283,
            "142": -0.11161220004291682,
            "143": -0.023732468395476134,
            "144": 0.0019827184551561624,
            "145": 0.07070979917661996,
            "146": -0.039081719937640994,
            "147": -0.04761834520875963,
            "148": -0.028319283552881342,
            "149": -0.06190015996394898,
            "150": -0.025210633971905604,
            "151": -0.04846184659241467,
            "152": 0.014301746737026966,
            "153": 0.014627872140218127,
            "154": -0.04294588300354931,
            "155": 0.02878729604389235,
            "156": -0.03135306558308549,
            "157": 0.008307830671744235,
            "158": -0.017915462873052936,
            "159": -0.05203176667044805,
            "160": 0.08348596486145288,
            "161": -0.07810248830489157,
            "162": 0.0307728091333972,
            "163": -0.012316732232346061,
            "164": -0.08416391334995336,
            "165": -0.07311480217872875,
            "166": -0.04641245533467248,
            "167": -0.031123578921719748,
            "168": -0.12781054414800053,
            "169": -0.05474300189116834,
            "170": -0.07194162194338816,
            "171": -0.049737007712858466,
            "172": -0.0002639811750644732,
            "173": 0.0366965992754378,
            "174": -0.0666180160771964,
            "175": -0.013588871349751487,
            "176": 0.00321101084011969,
            "177": -0.01022766116135092,
            "178": 0.027568979860052918,
            "179": -0.10054948261911087,
            "180": -0.07531770300521744,
            "181": -0.02289459009320105,
            "182": -0.07928113814075781,
            "183": -0.029162612516087504,
            "184": 0.006387428844611226,
            "185": 0.0066245386639034575,
            "186": 0.06400537240931081,
            "187": -0.030714309411626506,
            "188": 0.06389921005404954,
            "189": -0.11746489424672302,
            "190": -0.03733710267082337,
            "191": -0.10689277729236334,
            "192": -0.03110850147946753,
            "193": -0.05888867395873831,
            "194": -0.03456217491486841,
            "195": 0.026911181298773634,
            "196": -0.05678878513594687,
            "197": -0.1880299365742084,
            "198": -0.07287509876341886,
            "199": 0.018414576684551036
          }
        },
        {
          "sx": 5,
          "sy": 5,
          "depth": 8,
          "w": {
            "0": 0.0967513077242431,
            "1": 0.024394796151750518,
            "2": -0.1568593108969857,
            "3": -0.04371942743376986,
            "4": 0.018566338036883803,
            "5": 0.07185047960473556,
            "6": -0.08717588290428893,
            "7": 0.2429186595697464,
            "8": 0.15157280008159651,
            "9": -0.14180880221334669,
            "10": -0.1658929018188378,
            "11": 0.12195021639272668,
            "12": 0.09069029543715891,
            "13": -0.24431378273556195,
            "14": -0.07735675716132423,
            "15": -0.0019957558774620116,
            "16": -0.015620543141056275,
            "17": -0.06520368734289611,
            "18": 0.11002080898259164,
            "19": 0.2970564646272385,
            "20": 0.21080932045951825,
            "21": -0.3129068321932136,
            "22": -0.23766049362288094,
            "23": -0.17783103907129413,
            "24": 0.017749741946629306,
            "25": 0.017930312403395487,
            "26": 0.22631655026868505,
            "27": 0.02886979630468994,
            "28": 0.03544518953366742,
            "29": -0.11463415534981707,
            "30": -0.3143711399975493,
            "31": -0.03867913342662294,
            "32": 0.010133906447698625,
            "33": -0.24274248064924256,
            "34": 0.10540895353818491,
            "35": -0.3906392229338154,
            "36": -0.01413721909367119,
            "37": -0.18353939977392905,
            "38": -0.6721654962572488,
            "39": 0.07979725870761514,
            "40": -0.10813315005024107,
            "41": -0.18453106232529162,
            "42": -0.12985282273348045,
            "43": -0.032899422350918056,
            "44": -0.11694836192225813,
            "45": -0.28315939042057314,
            "46": -0.16714217884891758,
            "47": 0.007837712889515102,
            "48": -0.24649178689955578,
            "49": -0.338499446779957,
            "50": -0.08763617471094125,
            "51": 0.044924487348922536,
            "52": -0.011785434247646522,
            "53": -0.0911478833436628,
            "54": -0.14440438419456655,
            "55": -0.06708669286308591,
            "56": -0.2671370834036558,
            "57": -0.1235753235976214,
            "58": 0.035058998733872276,
            "59": 0.23614049826972922,
            "60": 0.0989302405745369,
            "61": -0.10788806052028065,
            "62": -0.16790204877857776,
            "63": 0.007585803321697185,
            "64": -0.1583333988691477,
            "65": -0.09267604842969195,
            "66": 0.17122606030107504,
            "67": -0.09380275108908635,
            "68": 0.062085133565120264,
            "69": -0.25833659523770486,
            "70": -0.19643012226606138,
            "71": 0.014269466712575857,
            "72": -0.014369135427184593,
            "73": -0.22293745625945016,
            "74": 0.15467254863795712,
            "75": -0.32730985923174083,
            "76": -0.23347492643237638,
            "77": -0.49973912366912115,
            "78": -0.17955960975478694,
            "79": -0.07560582290058437,
            "80": -0.11216707713999259,
            "81": -0.25287181708564116,
            "82": -0.13615323521093714,
            "83": -0.14501234980080172,
            "84": -0.16134734668960227,
            "85": 0.05559966078068733,
            "86": -0.0887050187639716,
            "87": -0.09301978146465957,
            "88": -0.3031751626564638,
            "89": 0.043077068397976405,
            "90": -0.1708099230646158,
            "91": 0.1503073971893423,
            "92": 0.006632662957598625,
            "93": 0.09463737475437965,
            "94": 0.08859203805444263,
            "95": -0.21735862391396638,
            "96": -0.07151261633586367,
            "97": 0.2780093077352948,
            "98": 0.013283601499767012,
            "99": 0.19251433367992524,
            "100": 0.1815737867920413,
            "101": -0.07786294608078018,
            "102": -0.14180688089605473,
            "103": 0.12797073483798205,
            "104": 0.050192395284121435,
            "105": 0.12198973127558509,
            "106": 0.2023644984356068,
            "107": -0.00891780051850899,
            "108": 0.12050667016899921,
            "109": -0.1212131773030884,
            "110": -0.14909783666387375,
            "111": 0.050529778516532946,
            "112": -0.0839010063003646,
            "113": 0.09011819579062581,
            "114": 0.18589416695744637,
            "115": -0.3534737723237524,
            "116": -0.2252867245163976,
            "117": -0.25153577113561604,
            "118": -0.12016578474124745,
            "119": -0.08775759215515787,
            "120": -0.2719659742784827,
            "121": -0.20330385470676626,
            "122": -0.005585873046041173,
            "123": -0.14340263621011293,
            "124": -0.07944513166775623,
            "125": 0.07663196675637932,
            "126": -0.12000593883861445,
            "127": -0.031802870657013795,
            "128": -0.20169891710199872,
            "129": -0.02855068652084516,
            "130": -0.08777222121112,
            "131": 0.21705772462553846,
            "132": 0.10726454976394853,
            "133": 0.06584149792821788,
            "134": -0.13255720789699754,
            "135": -0.06521823883087241,
            "136": -0.08944369450748178,
            "137": 0.28550752853243105,
            "138": -0.010127440414188553,
            "139": 0.18028086482435024,
            "140": 0.1075802213666148,
            "141": 0.05798676910857899,
            "142": -0.030316270121412914,
            "143": 0.014164025090680822,
            "144": 0.005854530095303975,
            "145": -0.06478987416587535,
            "146": 0.335462418223895,
            "147": -0.01512211180471113,
            "148": 0.05654258216807726,
            "149": -0.1028102092297795,
            "150": -0.1600467778068736,
            "151": 0.12245420503381241,
            "152": -0.2206875136381167,
            "153": 0.17802957662412072,
            "154": 0.2198313733510604,
            "155": -0.17185841044333497,
            "156": -0.034592520666101946,
            "157": -0.14287714364439916,
            "158": -0.03408129304417195,
            "159": -0.07411428871932942,
            "160": -0.2455152570686444,
            "161": -0.06619453355181448,
            "162": 0.050836387992513984,
            "163": -0.1617699370219947,
            "164": -0.0834195064144258,
            "165": 0.06661643729546501,
            "166": -0.36651655118375315,
            "167": -0.057471688088303746,
            "168": -0.06730933648549142,
            "169": -0.07961725466149214,
            "170": -0.01784230759672774,
            "171": 0.036788884823623275,
            "172": 0.002447325512314839,
            "173": -0.057752634454747084,
            "174": -0.11768518485525825,
            "175": -0.2621917423836558,
            "176": -0.12256097563659213,
            "177": -0.018355881456425943,
            "178": 0.34981119157659285,
            "179": 0.2141498611015327,
            "180": 0.18444400154034227,
            "181": 0.03940510433135969,
            "182": -0.26908491261619516,
            "183": -0.10759779405008145,
            "184": 0.21616823056147996,
            "185": -0.08104292747463245,
            "186": 0.438917587329381,
            "187": -0.03458466923329389,
            "188": -0.10533271194762756,
            "189": -0.17695910206169171,
            "190": -0.043619647017747044,
            "191": 0.1482209214430218,
            "192": -0.016918198208008176,
            "193": -0.08965792409409455,
            "194": -0.08501671328198435,
            "195": -0.046227271561545394,
            "196": 0.013296308877915266,
            "197": 0.05977239560057909,
            "198": -0.048483092501019516,
            "199": -0.2422128768603584
          }
        },
        {
          "sx": 5,
          "sy": 5,
          "depth": 8,
          "w": {
            "0": 0.09433571662293419,
            "1": -0.11123941020885539,
            "2": -0.04670237539238683,
            "3": -0.08863022058035752,
            "4": -0.029856884303691888,
            "5": -0.1449381410093051,
            "6": 0.04050320585047419,
            "7": -0.060859774934774,
            "8": -0.04563723613832976,
            "9": -0.26599927507418053,
            "10": 0.11406760808005673,
            "11": -0.10941968141962248,
            "12": -0.1640972201911907,
            "13": -0.10934021888790132,
            "14": -0.053638027089585476,
            "15": -0.05023531924205529,
            "16": -0.03994993937779418,
            "17": -0.037527103954888986,
            "18": 0.06588908059152097,
            "19": 0.246950374463565,
            "20": 0.027639034461248595,
            "21": 0.08842444976948412,
            "22": -0.0704972631249167,
            "23": -0.5468114159325986,
            "24": 0.06847532154295409,
            "25": -0.09739498385013515,
            "26": 0.34275815520263325,
            "27": 0.11607529157578295,
            "28": -0.12681623015003932,
            "29": -0.029404635153466273,
            "30": 0.2249116428785539,
            "31": -0.633536031952513,
            "32": 0.06581207021616539,
            "33": 0.06720990090342298,
            "34": -0.07121845261996297,
            "35": 0.006471858889049651,
            "36": 0.05357922100470931,
            "37": -0.08818679995539483,
            "38": 0.3192516537184997,
            "39": -0.3188751182624853,
            "40": -0.1588792235303818,
            "41": -0.014120292607254288,
            "42": -0.15086324628335304,
            "43": -0.05339079708648374,
            "44": -0.08742960303757621,
            "45": -0.18898807931456013,
            "46": -0.1099004656534293,
            "47": -0.09494039496545716,
            "48": -0.09875430125972992,
            "49": -0.0995128003169376,
            "50": 0.06617186241276078,
            "51": 0.08158818676204721,
            "52": -0.09199960159015058,
            "53": -0.08718953260328914,
            "54": -0.0032926745349993107,
            "55": -0.08976018947229412,
            "56": -0.09156778605509192,
            "57": 0.009264421908470793,
            "58": 0.30351915924959993,
            "59": 0.2114343463428613,
            "60": 0.13978297037705092,
            "61": -0.10559913150024615,
            "62": 0.07419129270388303,
            "63": -0.13503953459333304,
            "64": 0.07138322340994586,
            "65": 0.17640416845699766,
            "66": -0.008199055651975177,
            "67": 0.10237752910784284,
            "68": 0.018418003993528467,
            "69": -0.13936136341535038,
            "70": 0.07611366252515803,
            "71": -0.13457683893590214,
            "72": 0.07948840989092161,
            "73": 0.21049193217766238,
            "74": -0.25760962289250494,
            "75": -0.006734297507051869,
            "76": 0.10565947614628556,
            "77": -0.23449820068438254,
            "78": 0.033837282062778314,
            "79": -0.08069033673539415,
            "80": -0.10391558350581362,
            "81": -0.3478445522888663,
            "82": -0.183256127652961,
            "83": -0.05355628646797143,
            "84": -0.0738151529935388,
            "85": -0.12001821914758039,
            "86": -0.28234099405811053,
            "87": 0.24858859220577942,
            "88": -0.2189507448378472,
            "89": -0.09083526273673338,
            "90": -0.1046565012793124,
            "91": 0.1100689000543638,
            "92": -0.034785155442912614,
            "93": -0.133504485139664,
            "94": -0.13331091898479286,
            "95": -0.015375823610348041,
            "96": -0.17069073570545915,
            "97": 0.15376521368760304,
            "98": -0.16238948700299152,
            "99": 0.14826636007354632,
            "100": 0.1846590924954711,
            "101": -0.27366814168404746,
            "102": -0.005752694321432886,
            "103": -0.04961878284216685,
            "104": 0.030005935747980175,
            "105": 0.1048990427868567,
            "106": -0.32674988796178966,
            "107": -0.10519610485460114,
            "108": 0.04923450288320503,
            "109": -0.144992484907531,
            "110": -0.02758980367048985,
            "111": 0.18185179422679856,
            "112": 0.1747369795993521,
            "113": 0.41333828924622323,
            "114": -0.45622792660467576,
            "115": 0.13511209725261272,
            "116": 0.19377999924598557,
            "117": 0.2414269241917935,
            "118": 0.008115383169264809,
            "119": 0.2849722459625903,
            "120": -0.1079876212122199,
            "121": -0.1742847164306671,
            "122": -0.15694770726446272,
            "123": -0.18694935667564197,
            "124": -0.3747939158700337,
            "125": -0.2591803571697135,
            "126": -0.22911859926907693,
            "127": 0.2129426330253275,
            "128": 0.08495467380159556,
            "129": -0.09489487692593897,
            "130": -0.2729392147839899,
            "131": -0.09040385575803732,
            "132": -0.06790363382378933,
            "133": -0.3653675715750993,
            "134": -0.1526642223917658,
            "135": 0.3432970054532273,
            "136": 0.19576807290479045,
            "137": -0.46792580083433133,
            "138": -0.3078281581579048,
            "139": 0.055764350949381467,
            "140": 0.30977172255146385,
            "141": -0.4682541984170266,
            "142": -0.013935858957129055,
            "143": 0.5679755697568061,
            "144": 0.29047910464661775,
            "145": -0.3251491894077834,
            "146": -0.40846626535127584,
            "147": -0.08577949195547367,
            "148": 0.2434886645799209,
            "149": -0.30976245868215785,
            "150": 0.06213020564083676,
            "151": 0.24701132807115952,
            "152": 0.44232546753285085,
            "153": -0.10879558121176533,
            "154": -0.40654405223221934,
            "155": -0.03907146178679665,
            "156": 0.2062094170957972,
            "157": -0.2688210953059586,
            "158": -0.3644518165390514,
            "159": 0.04016647920811154,
            "160": -0.2530409908745005,
            "161": 0.14412070644936495,
            "162": -0.3056382926367984,
            "163": -0.12545202328724456,
            "164": -0.23452523678456785,
            "165": 0.23208501028886674,
            "166": 0.05949262690930686,
            "167": -0.07416478471262149,
            "168": -0.2889176416068578,
            "169": 0.3237639399048706,
            "170": -0.12200000148416523,
            "171": -0.2258495978199657,
            "172": -0.38613501193984245,
            "173": 0.2557991391829982,
            "174": 0.12520945182908416,
            "175": -0.021724212730618298,
            "176": -0.16039803163615338,
            "177": 0.05812694492771216,
            "178": -0.263888918665697,
            "179": 0.001873588399622008,
            "180": -0.440122701050193,
            "181": 0.2826679393808067,
            "182": 0.11193217022702212,
            "183": -0.08171073502477627,
            "184": 0.07562825931553571,
            "185": -0.15621063192322066,
            "186": -0.4041971107168419,
            "187": 0.16019683437656537,
            "188": -0.37241959135220465,
            "189": 0.24553111791382143,
            "190": -0.15478163602991363,
            "191": -0.27229199037037716,
            "192": -0.01406443505286859,
            "193": -0.12639900206186558,
            "194": -0.23077867839008936,
            "195": -0.027493706156119933,
            "196": -0.47387807825167755,
            "197": 0.1853653080358249,
            "198": -0.09367771498060615,
            "199": -0.52502332158044
          }
        },
        {
          "sx": 5,
          "sy": 5,
          "depth": 8,
          "w": {
            "0": -0.3547472029257757,
            "1": -0.0552970775498659,
            "2": -0.20975292861746855,
            "3": 0.19980351511358813,
            "4": -0.40003527829136437,
            "5": 0.32418927314112744,
            "6": -0.035912775518543355,
            "7": 0.15105773989233753,
            "8": -0.04658022166804599,
            "9": -0.06229681480276204,
            "10": -0.04539498693713891,
            "11": 0.12201573449309887,
            "12": -0.1655551612184157,
            "13": -0.18674748115423906,
            "14": -0.05620898166262983,
            "15": -0.05306179631181248,
            "16": -0.07209700210310005,
            "17": -0.16681937825883492,
            "18": 0.11908662080762808,
            "19": -0.13310869046385357,
            "20": -0.3439893026124963,
            "21": -0.3294676256999498,
            "22": 0.04261832582766288,
            "23": -0.025319921165042336,
            "24": 0.02199051208053709,
            "25": 0.0024403128030390064,
            "26": 0.11990180109797033,
            "27": 0.17166473955712433,
            "28": -0.17875000651121842,
            "29": -0.0104839483915545,
            "30": 0.11734462476650316,
            "31": 0.1529248823905589,
            "32": 0.05929421422975869,
            "33": -0.18577481853458466,
            "34": 0.1248515912193884,
            "35": 0.37137852904035784,
            "36": 0.052492595218201446,
            "37": 0.08753855383459574,
            "38": 0.0828245865448593,
            "39": 0.2662973671701841,
            "40": -0.1569117680576391,
            "41": 0.14798095596901673,
            "42": 0.04936634291998877,
            "43": 0.02407567558461967,
            "44": -0.0055960366515176874,
            "45": 0.3900462826859096,
            "46": 0.32621515397656925,
            "47": -0.1085199173424689,
            "48": -0.07209543890925393,
            "49": -0.026265198552467447,
            "50": 0.0011682959952134199,
            "51": -0.1218139590642821,
            "52": -0.0543285362278581,
            "53": 0.2735970444861167,
            "54": 0.0065346965097326385,
            "55": -0.16887437996416144,
            "56": -0.09813223574210034,
            "57": 0.015716234367132084,
            "58": -0.009796679020085373,
            "59": -0.14064249477897825,
            "60": -0.3000470450556312,
            "61": 0.08685036564056646,
            "62": 0.1534746804480527,
            "63": -0.02404233530490609,
            "64": -0.17913453843663188,
            "65": -0.07293732189371235,
            "66": -0.12389983255920804,
            "67": 0.20755569712127564,
            "68": -0.23994476259210637,
            "69": -0.1071901275438543,
            "70": -0.13675371724536095,
            "71": 0.1469506269026534,
            "72": -0.11050905228155586,
            "73": -0.19421663756671048,
            "74": -0.13440771733414772,
            "75": 0.002485229266890736,
            "76": -0.3832755883449817,
            "77": -0.5165665904649318,
            "78": -0.22851296565633614,
            "79": 0.17843552775371035,
            "80": 0.05305293041763467,
            "81": 0.19397034149171177,
            "82": -0.011459006777139276,
            "83": -0.0739493494297013,
            "84": 0.0653370395570873,
            "85": 0.06652815004750814,
            "86": 0.36265750116606826,
            "87": -0.34541910784352053,
            "88": -0.15677368171235034,
            "89": 0.13237952032685965,
            "90": 0.035560174290890825,
            "91": -0.01654780315845449,
            "92": 0.05572781956613142,
            "93": -0.04329808247501879,
            "94": -0.10017783291592149,
            "95": -0.09631038703612929,
            "96": -0.32208236215241304,
            "97": -0.027119376575625943,
            "98": 0.03855991357489669,
            "99": -0.057879693573490425,
            "100": 0.09160116565244789,
            "101": 0.02636292615971922,
            "102": -0.11310136835730922,
            "103": -0.11271475980935713,
            "104": -0.3718976178051288,
            "105": -0.2116744241871757,
            "106": -0.2063685435100284,
            "107": -0.08399489087032432,
            "108": -0.08742457840621973,
            "109": -0.11771967691014815,
            "110": 0.017827278151073763,
            "111": -0.2558110148523044,
            "112": -0.3469515224923544,
            "113": -0.018356271622201426,
            "114": -0.14377399757827222,
            "115": -0.30372617814354214,
            "116": -0.10806881669156168,
            "117": 0.07768343384011252,
            "118": -0.13632458415592025,
            "119": -0.26954730590914433,
            "120": 0.07315901018540985,
            "121": 0.20958204803760172,
            "122": 0.16456080095261735,
            "123": -0.0911473733850389,
            "124": 0.21671739876777388,
            "125": -0.2829102097307008,
            "126": 0.04779658506482806,
            "127": -0.19917642645680517,
            "128": -0.10400761809972894,
            "129": 0.15982238841911278,
            "130": 0.09450461757351383,
            "131": -0.06351506392068147,
            "132": 0.10626151889611868,
            "133": -0.24130081827221184,
            "134": 0.07600483894935664,
            "135": -0.08697409851628322,
            "136": -0.14790871107586392,
            "137": 0.1247008745818945,
            "138": 0.10645870334068068,
            "139": 0.15977309797734238,
            "140": 0.08121487594261843,
            "141": 0.14875689639800893,
            "142": 0.0034099458076459438,
            "143": -0.19912274102677516,
            "144": 0.06210126981361502,
            "145": 0.04556152475313709,
            "146": -0.0014533814803678892,
            "147": 0.15476010680461005,
            "148": -0.009790169658348143,
            "149": 0.019514009046253666,
            "150": 0.22146657347414617,
            "151": 0.04133567559387009,
            "152": 0.20623242436967507,
            "153": -0.08332488558322956,
            "154": -0.11289351804971032,
            "155": -0.12051759563383632,
            "156": 0.17380851240500175,
            "157": 0.12043493162412079,
            "158": 0.1123036230371914,
            "159": 0.20116277361333015,
            "160": 0.07451419397709644,
            "161": 0.026379275805106413,
            "162": 0.0827418905467897,
            "163": -0.053801892858606565,
            "164": 0.07206362581953703,
            "165": -0.1310944095618799,
            "166": 0.03765757567900302,
            "167": -0.16587282385480262,
            "168": -0.025718559609747584,
            "169": 0.13227243997812732,
            "170": 0.0791132083147672,
            "171": 0.25233340384172775,
            "172": 0.2070090877194553,
            "173": -0.0557516008295314,
            "174": 0.3338690758861656,
            "175": -0.04393690046029189,
            "176": 0.004581038207589368,
            "177": 0.20190046564977307,
            "178": 0.21772641037997328,
            "179": 0.25744419425258347,
            "180": 0.04189745873041614,
            "181": 0.0023053829460897356,
            "182": 0.17574580022457495,
            "183": -0.13279769212148598,
            "184": -0.10177478993204875,
            "185": 0.1797350490683503,
            "186": -0.09968304514850536,
            "187": 0.017117521625813092,
            "188": -0.05596625434654163,
            "189": -0.08545465089630949,
            "190": 0.09707850505886403,
            "191": -0.168515772732247,
            "192": -0.08366386843680677,
            "193": -0.06407236024554393,
            "194": -0.27645786047116183,
            "195": -0.05099835452962682,
            "196": 0.012529479552275829,
            "197": -0.08185351646944893,
            "198": -0.14731851934100035,
            "199": -0.14855309337124606
          }
        },
        {
          "sx": 5,
          "sy": 5,
          "depth": 8,
          "w": {
            "0": -0.02296825667661426,
            "1": 0.19312298634777555,
            "2": 0.4474221066536814,
            "3": -0.37574257102286884,
            "4": 0.0004183923066514237,
            "5": -0.42782379193675213,
            "6": 0.17175045755467752,
            "7": -0.034446633890528114,
            "8": -0.44112681872447596,
            "9": 0.03482814121502797,
            "10": 0.07899282615756899,
            "11": 0.004354418467003182,
            "12": -0.25113619380433344,
            "13": -0.10805772912223799,
            "14": -0.1356205606936441,
            "15": -0.1326838377819141,
            "16": -0.34101951725231866,
            "17": -0.24238988259746988,
            "18": -0.102557823592167,
            "19": 0.04453172912844179,
            "20": -0.016167148594974708,
            "21": -0.014562679345957194,
            "22": -0.15149142672124877,
            "23": -0.05281976679250847,
            "24": -0.170853373515188,
            "25": 0.1171004783195603,
            "26": -0.034511289265748035,
            "27": -0.18509040260795714,
            "28": -0.03741987765581012,
            "29": 0.07982700524887641,
            "30": 0.061667114999872964,
            "31": 0.1424907776128094,
            "32": -0.324323443841803,
            "33": 0.02656309300835403,
            "34": 0.05397178760363408,
            "35": -0.17662741426937006,
            "36": -0.17886560959077816,
            "37": 0.16120645861352062,
            "38": 0.29940428561796273,
            "39": 0.12999555490703055,
            "40": -0.05760276631420324,
            "41": 0.1865751257247081,
            "42": 0.5421194376701336,
            "43": -0.037396871653306005,
            "44": -0.11984108037304177,
            "45": -0.28009665563329034,
            "46": 0.1600670923642869,
            "47": -0.16489226945166002,
            "48": -0.07990627647964946,
            "49": -0.05086595571753793,
            "50": 0.22301629318570773,
            "51": 0.10675462110854636,
            "52": -0.27173475013646725,
            "53": -0.22149997439188293,
            "54": -0.04617347110925734,
            "55": -0.07192201712788983,
            "56": -0.32622500870521737,
            "57": -0.19264478408164357,
            "58": 0.04269123543085766,
            "59": 0.13416098731390727,
            "60": -0.09171355687803819,
            "61": -0.04042642403377495,
            "62": -0.09998969935237684,
            "63": -0.08328034431746277,
            "64": -0.2039985329860721,
            "65": 0.08467995536051036,
            "66": 0.017673797304735242,
            "67": -0.0774195532398812,
            "68": -0.05779957668414082,
            "69": 0.1523435921008843,
            "70": -0.09208147924335891,
            "71": -0.06727276189110036,
            "72": -0.10754111867456048,
            "73": 0.05066498519806322,
            "74": -0.08756252877391618,
            "75": -0.04834483982224259,
            "76": -0.030557106376145487,
            "77": 0.365572415044634,
            "78": 0.24086452805045314,
            "79": -0.20738216250744052,
            "80": 0.07157222489668602,
            "81": 0.18449078316828033,
            "82": 0.34740086620116506,
            "83": 0.16225136712987565,
            "84": -0.041831151947007074,
            "85": -0.055643839367895284,
            "86": 0.24465412840768727,
            "87": 0.16646175295619647,
            "88": -0.2998740049520951,
            "89": 0.1386599781560479,
            "90": 0.2719806858136233,
            "91": -0.10882009234807002,
            "92": -0.2486747227431188,
            "93": -0.1327440758894103,
            "94": -0.02701297940050609,
            "95": -0.127498719044549,
            "96": -0.30913045497355157,
            "97": -0.1272088310692203,
            "98": 0.10712590110334205,
            "99": 0.20929670412526002,
            "100": 0.11275934019208401,
            "101": -0.06883499457914434,
            "102": -0.006648627128399162,
            "103": -0.17438006990632524,
            "104": -0.27187403515833547,
            "105": -0.014074132278725808,
            "106": 0.06190251514822107,
            "107": 0.09988090223273142,
            "108": -0.0438070134052117,
            "109": 0.2522090406566902,
            "110": -0.08143530120398026,
            "111": -0.3116326585660517,
            "112": -0.011109238933440365,
            "113": 0.1775664737417585,
            "114": -0.04379643479015326,
            "115": 0.15922917560621644,
            "116": -0.08287667948019393,
            "117": -0.048568098495200246,
            "118": -0.12490327958064681,
            "119": -0.38381497689222227,
            "120": -0.31783848423736594,
            "121": 0.09781805054454067,
            "122": 0.1887080935048761,
            "123": 0.1477537140281011,
            "124": -0.08290840768961351,
            "125": -0.1920811403410867,
            "126": 0.12207975195141625,
            "127": -0.08528305157427361,
            "128": -0.13525659010258878,
            "129": -0.0657307051545594,
            "130": 0.15587867732379915,
            "131": -0.2045229978121204,
            "132": -0.022140048399264832,
            "133": -0.06942063521951165,
            "134": -0.09415622172418806,
            "135": -0.34244311957979223,
            "136": -0.45892266144225485,
            "137": 0.06097686928495337,
            "138": 0.03676915665465034,
            "139": 0.19120325478874947,
            "140": 0.022975752948302508,
            "141": 0.04072018956438283,
            "142": -0.18639421884472282,
            "143": -0.15714004092541284,
            "144": -0.2572612510475064,
            "145": 0.2295296077677075,
            "146": -0.012332828014857447,
            "147": 0.04644717583357827,
            "148": 0.11930136130555115,
            "149": -0.0958569988022005,
            "150": -0.25212442685563724,
            "151": -0.2144199454404371,
            "152": -0.2320017923239969,
            "153": 0.056528278928588485,
            "154": -0.02006772751642067,
            "155": 0.1799857819866836,
            "156": 0.20410604202048774,
            "157": -0.20863365606392179,
            "158": -0.1841778925722808,
            "159": 0.026096566010578005,
            "160": -0.20958870009933944,
            "161": -0.0803254198478747,
            "162": -0.01964068215058864,
            "163": 0.0887806184702781,
            "164": 0.005615358810955024,
            "165": -0.11608164843411072,
            "166": -0.04109056960058403,
            "167": -0.3028038357602197,
            "168": -0.1582482488949961,
            "169": 0.1274939865498274,
            "170": -0.20000592724923041,
            "171": -0.10189154976233061,
            "172": -0.06229422848799282,
            "173": -0.0272797237429124,
            "174": 0.05844582648232294,
            "175": -0.311702903235935,
            "176": -0.1555550061356237,
            "177": 0.2774821936529249,
            "178": -0.031601913036404965,
            "179": 0.13275132139811024,
            "180": 0.20479785866234662,
            "181": 0.08052136549491275,
            "182": -0.03652524778519272,
            "183": -0.19728449869186784,
            "184": 0.023413286626723043,
            "185": 0.19435328679717195,
            "186": 0.013276764874297154,
            "187": 0.08644328407801248,
            "188": 0.2385216054800673,
            "189": -0.047913801406844946,
            "190": -0.07191786495940258,
            "191": 0.057719865525125924,
            "192": 0.11081559181490762,
            "193": 0.2105742202298101,
            "194": 0.06518894498623112,
            "195": -0.06700984185300139,
            "196": 0.35201429712271654,
            "197": -0.2879056798592908,
            "198": -0.04077013120267493,
            "199": 0.25811708962604546
          }
        },
        {
          "sx": 5,
          "sy": 5,
          "depth": 8,
          "w": {
            "0": -0.1936926371813704,
            "1": -0.22700551918088882,
            "2": -0.1828685907738654,
            "3": 0.2891192305286557,
            "4": -0.2525840420002803,
            "5": 0.3339315423894198,
            "6": -0.056775932280052656,
            "7": -0.11009670667399757,
            "8": 0.03268550575443348,
            "9": -0.12685627568962796,
            "10": 0.044308263909085384,
            "11": 0.2982650986751512,
            "12": 0.11330088048442469,
            "13": 0.2515267176295813,
            "14": 0.013942769054516224,
            "15": 0.05247944134199781,
            "16": 0.15371228749687485,
            "17": -0.1014079614034272,
            "18": 0.230287192270942,
            "19": -0.0034948908981261772,
            "20": 0.07791078256087025,
            "21": 0.1718077002779596,
            "22": 0.2769128638741253,
            "23": -0.029546338767362946,
            "24": 0.22913686248410095,
            "25": 0.19396991607912095,
            "26": 0.13526923613468028,
            "27": 0.06282552025286829,
            "28": -0.05878368000002066,
            "29": 0.2283054837389026,
            "30": 0.3162385940100559,
            "31": 0.09676748326782138,
            "32": -0.09693852556278662,
            "33": 0.04168524726306957,
            "34": -0.28135746246147314,
            "35": -0.12324092373786759,
            "36": 0.14758249890760544,
            "37": 0.009008322799328398,
            "38": -0.16038361176816587,
            "39": -0.02061362982666868,
            "40": 0.056378559804307844,
            "41": -0.1683414043573145,
            "42": -0.09810203338492102,
            "43": 0.07681894331108348,
            "44": -0.19607442575926098,
            "45": 0.24413190096618892,
            "46": -0.02560143603047984,
            "47": 0.08228639895432474,
            "48": 0.04344003311564841,
            "49": -0.21957641570299816,
            "50": 0.24117670637526822,
            "51": 0.1444295852810386,
            "52": -0.1286348671005754,
            "53": -0.19291033250479003,
            "54": -0.06476858279479893,
            "55": 0.1782940255944762,
            "56": 0.21037969394792763,
            "57": -0.21699979615389806,
            "58": 0.11927350278494454,
            "59": -0.013337807761485621,
            "60": -0.06951844979666998,
            "61": 0.06818270479960731,
            "62": 0.20877700715749756,
            "63": 0.18229686770161302,
            "64": -0.050133135555425284,
            "65": -0.16994664018489938,
            "66": -0.1693185583595145,
            "67": -0.09071340534374513,
            "68": -0.08573978584375028,
            "69": -0.2437756509996121,
            "70": 0.1698378331079007,
            "71": -0.15704115617789355,
            "72": -0.19971295485104373,
            "73": -0.07984180397289196,
            "74": -0.5511490497430579,
            "75": 0.254815676488637,
            "76": -0.0018289019149000329,
            "77": -0.012776721556939706,
            "78": -0.42452167290299647,
            "79": -0.29532108351162567,
            "80": 0.1458315656381179,
            "81": -0.11431495322348917,
            "82": -0.15718996399823268,
            "83": -0.0749052534327054,
            "84": -0.3628983582902237,
            "85": -0.2681674357461868,
            "86": -0.09344455428540295,
            "87": 0.13790611338460262,
            "88": 0.1873874792936963,
            "89": -0.3413173482428583,
            "90": -0.10981513815615976,
            "91": -0.24525628770575378,
            "92": -0.3226873040488197,
            "93": 0.007448189014973471,
            "94": 0.19291620680351762,
            "95": -0.17608046139483083,
            "96": -0.1722315491321635,
            "97": -0.3035992823886889,
            "98": -0.016354864855003665,
            "99": -0.07103837628711664,
            "100": -0.43937281818271623,
            "101": 0.03163967568138608,
            "102": 0.017374710495783808,
            "103": -0.1670793909941966,
            "104": -0.3189587882983332,
            "105": -0.26332800908883197,
            "106": -0.350663176387942,
            "107": 0.04569131190764281,
            "108": -0.27326529353645973,
            "109": 0.1963351837348197,
            "110": -0.20027766225986512,
            "111": -0.421824677877349,
            "112": 0.04601666060308446,
            "113": -0.11951341007049383,
            "114": -0.08252248038778535,
            "115": 0.2750959512800036,
            "116": 0.018634381170354496,
            "117": 0.21999179245749398,
            "118": -0.1112272863370317,
            "119": -0.5736130876138978,
            "120": -0.33337073945086876,
            "121": -0.3461987917008244,
            "122": -0.27698257596145087,
            "123": -0.18043871341687942,
            "124": -0.6162131595620192,
            "125": 0.053516209542383376,
            "126": 0.081611697714813,
            "127": 0.05656262606567503,
            "128": -0.274606017105459,
            "129": -0.2582816672636251,
            "130": -0.06532868802462917,
            "131": -0.05189051171943956,
            "132": -0.3000118524468039,
            "133": 0.16037014550369044,
            "134": 0.2651448010937095,
            "135": 0.10914143757700737,
            "136": -0.057540144727886024,
            "137": -0.2824456701326443,
            "138": -0.2262424848988339,
            "139": 0.14145574647073375,
            "140": -0.15466452528072494,
            "141": 0.25327830418270253,
            "142": 0.14704342804487985,
            "143": 0.272964586560721,
            "144": -0.0441448165419487,
            "145": -0.29970346953367377,
            "146": -0.1356933333642297,
            "147": 0.12388483175285325,
            "148": 0.045563747146607464,
            "149": 0.08521775084530259,
            "150": -0.20161920701375663,
            "151": -0.19675026400591142,
            "152": 0.05735922110359059,
            "153": -0.047035387278865845,
            "154": -0.08973127757704821,
            "155": 0.19647594473228586,
            "156": -0.07868800554552194,
            "157": 0.08983768227412818,
            "158": -0.1592192263525387,
            "159": -0.30297102114039204,
            "160": -0.31243160923511126,
            "161": -0.3179347752344264,
            "162": -0.2556653091801511,
            "163": -0.031000013096073684,
            "164": -0.3645240679466086,
            "165": 0.06028247720286268,
            "166": -0.07911137215266424,
            "167": 0.09165171526854489,
            "168": -0.18871866262784906,
            "169": -0.3462643001511443,
            "170": -0.18027844468155094,
            "171": 0.0015795907024657285,
            "172": -0.07544203986820533,
            "173": 0.005421780268550887,
            "174": 0.06997558460365118,
            "175": 0.3309115261589907,
            "176": 0.034691296541485755,
            "177": -0.3023315285362297,
            "178": -0.05083101814113229,
            "179": 0.17774733268198445,
            "180": -0.11245214315337931,
            "181": 0.041934693351090534,
            "182": 0.01329839466163283,
            "183": 0.14209478363322914,
            "184": -0.15301089221467673,
            "185": -0.11435533239494898,
            "186": -0.011669192876788172,
            "187": -0.03430005363044237,
            "188": 0.009719563423598193,
            "189": 0.164922598612199,
            "190": -0.005141226796767573,
            "191": -0.2066105458954739,
            "192": -0.13915921065670644,
            "193": 0.06781469854707489,
            "194": -0.17331921067855285,
            "195": 0.07104174888448637,
            "196": 0.10444319529636899,
            "197": -0.06986213469343465,
            "198": -0.050752654740552204,
            "199": -0.13734893179196123
          }
        },
        {
          "sx": 5,
          "sy": 5,
          "depth": 8,
          "w": {
            "0": -0.24719434257118722,
            "1": -0.013819409328342679,
            "2": 0.07910408969528607,
            "3": -0.1594521084836731,
            "4": -0.1299794247967816,
            "5": -0.05808416420697588,
            "6": -0.14233532343583694,
            "7": -0.22887299851583043,
            "8": -0.09248395479545976,
            "9": -0.0863421392346032,
            "10": -0.023314731550827462,
            "11": -0.16830640790774817,
            "12": -0.3047162313328406,
            "13": 0.07405461338944144,
            "14": 0.2010412414439959,
            "15": -0.032526742326757896,
            "16": -0.30944106201687055,
            "17": 0.011485076739457286,
            "18": -0.16532590051708065,
            "19": 0.2648311693048124,
            "20": -0.20021084797597694,
            "21": -0.06964903265518793,
            "22": -0.20019673643164815,
            "23": -0.17862510497957923,
            "24": -0.10454517474697783,
            "25": -0.1367068421033823,
            "26": -0.19589716732662896,
            "27": 0.09159777443826733,
            "28": 0.0642647339679909,
            "29": -0.27405202529303485,
            "30": -0.4950641569791785,
            "31": 0.09925334359194779,
            "32": -0.14186633322550865,
            "33": 0.011597073714335816,
            "34": 0.06644119328739727,
            "35": -0.09619515810366774,
            "36": 0.1999035494556156,
            "37": -0.23959287812757452,
            "38": 0.23467835591091163,
            "39": 0.04701100144741024,
            "40": -0.010404173910378343,
            "41": 0.04737181524383165,
            "42": 0.06182498806547761,
            "43": -0.5711145918899965,
            "44": 0.01324621268713998,
            "45": 0.10269047807306102,
            "46": -0.08563059710890752,
            "47": -0.003910410424755141,
            "48": -0.03225646211789504,
            "49": 0.06468900112399363,
            "50": -0.014520548555758583,
            "51": -0.3555233621257671,
            "52": -0.021142060267313825,
            "53": -0.09953411641446432,
            "54": -0.16827413082817483,
            "55": 0.18291815760761274,
            "56": -0.07001864044699652,
            "57": -0.05597705123504629,
            "58": -0.14969947172228049,
            "59": -0.17845801810420978,
            "60": -0.030886894506845338,
            "61": 0.033615114300995674,
            "62": -0.2087400319300996,
            "63": -0.043756157274226014,
            "64": -0.1189447022977538,
            "65": -0.11714341631735367,
            "66": 0.01480050716287998,
            "67": 0.11437302042727329,
            "68": -0.2257606672947106,
            "69": -0.08470372543622641,
            "70": -0.09546977589848592,
            "71": -0.08268308436440897,
            "72": -0.04858103744955136,
            "73": -0.06005769364020075,
            "74": 0.16427182703098064,
            "75": 0.02085283694839696,
            "76": 0.06826874762613189,
            "77": 0.029017459537435782,
            "78": 0.10426524282130459,
            "79": 0.006219968570693409,
            "80": 0.27444379409860165,
            "81": 0.23267156250871224,
            "82": -0.11792442350258606,
            "83": -0.33258201354763156,
            "84": 0.32607433650810763,
            "85": 0.002418220648107556,
            "86": 0.0753208118711507,
            "87": 0.04022365398986687,
            "88": -0.02449083108636831,
            "89": 0.03450962949872207,
            "90": -0.14539073793316157,
            "91": -0.33046996104771764,
            "92": 0.1531129014781178,
            "93": 0.1567731200064993,
            "94": -0.15950913957567983,
            "95": 0.0626845918698552,
            "96": -0.05959045218142929,
            "97": 0.10731860815163516,
            "98": 0.09874599337439584,
            "99": 0.03706364336877743,
            "100": 0.015244033278029775,
            "101": 0.28915200230080185,
            "102": 0.06571699222848869,
            "103": -0.13506755638866438,
            "104": -0.12020118048951144,
            "105": -0.23665942610317944,
            "106": 0.13454522543589298,
            "107": 0.24400758512286108,
            "108": -0.10032344985915616,
            "109": 0.05971673297501988,
            "110": 0.24837485696250913,
            "111": -0.0637590949038547,
            "112": 0.055502962937509254,
            "113": -0.23929017278701142,
            "114": 0.12458524154951012,
            "115": 0.057645636472257726,
            "116": -0.035856141157029855,
            "117": 0.10323122802285402,
            "118": 0.03929187958887174,
            "119": -0.23266463567989462,
            "120": 0.4897213860506583,
            "121": 0.05785499270174374,
            "122": 0.0285746620807927,
            "123": -0.1862346818975669,
            "124": 0.1571798613584903,
            "125": 0.03986137293948369,
            "126": 0.1181597189232497,
            "127": 0.2171347074822492,
            "128": 0.22223209171766878,
            "129": 0.03961678958818244,
            "130": -0.05579075558718902,
            "131": -0.09828714803310586,
            "132": 0.17186990881076827,
            "133": 0.21964626957222583,
            "134": 0.44930373677876684,
            "135": 0.11181685808102931,
            "136": 0.13923855428604023,
            "137": -0.07190671312883469,
            "138": -0.03306474357297107,
            "139": -0.20406635656851227,
            "140": 0.03352931649821616,
            "141": 0.13600992090618236,
            "142": 0.2450971534070268,
            "143": -0.13602588432605103,
            "144": -0.01513780727178368,
            "145": -0.055647835973492155,
            "146": 0.03905176269429682,
            "147": -0.05264361693196463,
            "148": -0.16968794578151597,
            "149": -0.05364493323454746,
            "150": 0.032399339223954944,
            "151": -0.22369059516997036,
            "152": -0.252471853273693,
            "153": -0.12142272820621328,
            "154": 0.047625733242697664,
            "155": -0.027718577352755305,
            "156": 0.03231802055021294,
            "157": -0.18130384893682086,
            "158": -0.07592107572400542,
            "159": -0.13693920590878708,
            "160": -0.14576889797194476,
            "161": -0.1537533386284358,
            "162": -0.004090167010691696,
            "163": -0.20069718401353107,
            "164": -0.32698267011662124,
            "165": -0.12324449157940666,
            "166": 0.013050711032266411,
            "167": -0.1319714795743769,
            "168": -0.09281327941873835,
            "169": -0.15543320321482387,
            "170": -0.12910032164183516,
            "171": 0.13934986718707176,
            "172": -0.07794860068896133,
            "173": 0.07733496956309588,
            "174": -0.11635971165906146,
            "175": -0.033013648195711565,
            "176": 0.07073673480081714,
            "177": -0.17707299068542112,
            "178": -0.019194317995668998,
            "179": 0.01072073063188753,
            "180": -0.09560009036251083,
            "181": -0.06778541008929194,
            "182": 0.11207378164176746,
            "183": -0.24340557659251788,
            "184": -0.20253599872760464,
            "185": -0.18255161370796313,
            "186": -0.09398574927834216,
            "187": 0.029159724413228318,
            "188": -0.10333491172490222,
            "189": -0.1567123224821778,
            "190": -0.011317304697468573,
            "191": -0.20999994233259456,
            "192": -0.27353537127788297,
            "193": -0.03374167491660055,
            "194": -0.14723468082767704,
            "195": 0.2415045309323755,
            "196": -0.17046507464279625,
            "197": 0.011125573507857341,
            "198": -0.3459661263691797,
            "199": -0.38693553938124475
          }
        },
        {
          "sx": 5,
          "sy": 5,
          "depth": 8,
          "w": {
            "0": -0.2003715143862411,
            "1": -0.06424879045346274,
            "2": 0.11678204331465268,
            "3": 0.16130784315695487,
            "4": -0.32505992521059623,
            "5": -0.1286714580712337,
            "6": 0.01926873577038486,
            "7": 0.03187905929393809,
            "8": -0.17799034423020688,
            "9": -0.26529422381252415,
            "10": 0.16655900852951605,
            "11": -0.26157343804805927,
            "12": -0.484125253259854,
            "13": -0.15720223119409965,
            "14": -0.06790236576313327,
            "15": -0.015750024434274645,
            "16": -0.3883647940076035,
            "17": -0.20600258445271655,
            "18": -0.10882517245311836,
            "19": -0.04056589128964402,
            "20": -0.248143709380757,
            "21": 0.07057874889627878,
            "22": -0.10079011769840841,
            "23": -0.007232978120339474,
            "24": 0.0225581467662995,
            "25": -0.07194227326650268,
            "26": 0.026858023999331876,
            "27": 0.1580112487144525,
            "28": -0.31011135538454976,
            "29": 0.10289927662288982,
            "30": -0.08063371201508907,
            "31": -0.058611687706911414,
            "32": 0.10618694493970675,
            "33": -0.26049547954425506,
            "34": 0.12049306529468073,
            "35": 0.22631515676046668,
            "36": -0.2960266744202529,
            "37": 0.13668964978035578,
            "38": 0.03209683344162077,
            "39": -0.2432402845487319,
            "40": -0.03526658295904321,
            "41": -0.2742872065614502,
            "42": 0.20757675862473612,
            "43": -0.46142459916595635,
            "44": -0.3840442837109993,
            "45": -0.33322066331605804,
            "46": -0.1698153776234975,
            "47": -0.004537362853589889,
            "48": -0.34806603477111053,
            "49": -0.29537684801866293,
            "50": 0.18625504754541733,
            "51": -0.2696463469977664,
            "52": -0.27385479879561436,
            "53": -0.10953098849106496,
            "54": 0.0774622613285615,
            "55": 0.057094323240957916,
            "56": -0.14152559221235045,
            "57": 0.13750821916977476,
            "58": -0.1631658312050239,
            "59": 0.12572514925664552,
            "60": -0.08897226371796316,
            "61": 0.1325393788704991,
            "62": 0.09379679570527712,
            "63": 0.18107600623407205,
            "64": 0.020664970389388502,
            "65": 0.269406112438369,
            "66": -0.0007920366902087191,
            "67": 0.15017256914246804,
            "68": -0.051194672069072335,
            "69": 0.23667212558213013,
            "70": 0.20040251882329793,
            "71": -0.02318171519364418,
            "72": -0.10750514595722369,
            "73": -0.07291233044529093,
            "74": 0.225182785763039,
            "75": 0.11763454471139159,
            "76": -0.28007554766837955,
            "77": 0.053921310990070956,
            "78": 0.30498076978032523,
            "79": -0.2322303501833783,
            "80": -0.25064092739176386,
            "81": -0.3424218078040783,
            "82": 0.2647119936162486,
            "83": -0.23906944825761575,
            "84": -0.3052323000511778,
            "85": -0.1939952289178152,
            "86": 0.010260470622723526,
            "87": -0.2774106183094228,
            "88": -0.20805200082242148,
            "89": -0.23544433770937964,
            "90": -0.07591142507773477,
            "91": 0.0072331699903269864,
            "92": -0.16495813115133956,
            "93": 0.02375150034798788,
            "94": 0.12770944392873246,
            "95": -0.057378800071987236,
            "96": -0.07736999781560862,
            "97": 0.1299921428527128,
            "98": -0.11805334382275898,
            "99": 0.08970410282090159,
            "100": -0.22930578491320822,
            "101": 0.1421072890665102,
            "102": 0.10562016700137791,
            "103": -0.09723559124452155,
            "104": 0.18102404230830743,
            "105": -0.031164360942591444,
            "106": 0.27351489430802306,
            "107": 0.03716892094154533,
            "108": -0.00499726598588499,
            "109": 0.06485098366809722,
            "110": 0.182289934989608,
            "111": 0.09501157506131214,
            "112": -0.02880488231889631,
            "113": -0.01747251509271327,
            "114": 0.40072077642781195,
            "115": -0.1108021566853255,
            "116": -0.21149439087598024,
            "117": 0.04785400029052056,
            "118": 0.22255396564138824,
            "119": -0.028673696596265164,
            "120": -0.32453298209425996,
            "121": -0.245795506767485,
            "122": 0.1642531704432334,
            "123": 0.02662157433874357,
            "124": -0.07702827763413816,
            "125": -0.06188309888188465,
            "126": 0.04413887417192556,
            "127": -0.25681854318236547,
            "128": -0.10610245124008366,
            "129": 0.12336349874979334,
            "130": 0.08583993896034503,
            "131": 0.2791449589675864,
            "132": -0.08598848310391075,
            "133": 0.27663905911289277,
            "134": 0.15212830862627114,
            "135": -0.49629305899051995,
            "136": 0.12305208416563551,
            "137": 0.0656022001348473,
            "138": 0.13597141589536668,
            "139": 0.014924505307531491,
            "140": -0.141799871032289,
            "141": 0.08574630378635903,
            "142": 0.16715344810019775,
            "143": -0.2787073599787626,
            "144": 0.03332796151702452,
            "145": -0.13124097183360361,
            "146": 0.20230414093883897,
            "147": -0.02193285850419348,
            "148": -0.3384431910868459,
            "149": -0.19513911938490616,
            "150": -0.09397262774552413,
            "151": -0.003815307803927345,
            "152": -0.055500590615461386,
            "153": -0.3741599529966625,
            "154": -0.1259954053111281,
            "155": -0.06020675560611768,
            "156": -0.2027348369328173,
            "157": 0.26733623105188614,
            "158": 0.27443170127153543,
            "159": 0.0975257859699086,
            "160": -0.16217273625259865,
            "161": -0.03294220898963017,
            "162": 0.0411925558441064,
            "163": 0.19803465113709953,
            "164": -0.24041979069692704,
            "165": 0.1739140516068536,
            "166": -0.004726856439405867,
            "167": -0.5231772745849645,
            "168": 0.02147923608447519,
            "169": -0.0202820870911222,
            "170": 0.15763448666320434,
            "171": 0.22098789558964835,
            "172": -0.012080556160236164,
            "173": 0.0118407118285097,
            "174": 0.010442450366824582,
            "175": -0.40661882539445177,
            "176": -0.01065222541944491,
            "177": -0.12093143382391447,
            "178": 0.04751158475791124,
            "179": -0.04395886813507612,
            "180": -0.17498368856411706,
            "181": -0.32840415745139484,
            "182": 0.15786904360024406,
            "183": 0.007204983528887686,
            "184": -0.17222825248719942,
            "185": -0.18788104566299776,
            "186": -0.06368692931052605,
            "187": -0.43118906400826196,
            "188": -0.29688067100301196,
            "189": -0.18050132489002074,
            "190": 0.12122510647694422,
            "191": 0.05485560710696963,
            "192": -0.23298271845580149,
            "193": -0.03777009303515217,
            "194": -0.3583925330093472,
            "195": -0.033198461489132795,
            "196": -0.24783177232391895,
            "197": 0.16550157814640282,
            "198": -0.09654744727056525,
            "199": -0.10503842745748655
          }
        },
        {
          "sx": 5,
          "sy": 5,
          "depth": 8,
          "w": {
            "0": 0.1599406049391553,
            "1": 0.09439644070827928,
            "2": -0.2130049571145596,
            "3": 0.1142888594513557,
            "4": 0.11136684286395204,
            "5": 0.16430609274400101,
            "6": 0.24329101357903068,
            "7": 0.09078794304139894,
            "8": 0.10236261221354644,
            "9": 0.2187279663570631,
            "10": -0.0331601446756067,
            "11": 0.15482728029896692,
            "12": 0.18012134430857035,
            "13": 0.14307961423317483,
            "14": 0.09485846969588056,
            "15": -0.17833069680991925,
            "16": -0.07345039785672679,
            "17": 0.08897309349036546,
            "18": -0.00283590625811654,
            "19": 0.006002051014771682,
            "20": 0.229316229079967,
            "21": 0.12587264793135472,
            "22": -0.024350519238819927,
            "23": -0.05095089173518412,
            "24": -0.31619575444076636,
            "25": -0.0572548752244702,
            "26": -0.04772432361801729,
            "27": -0.35801519503179385,
            "28": 0.13517573561363536,
            "29": 0.06805995548754616,
            "30": -0.1379019391703525,
            "31": -0.34803837456930503,
            "32": -0.11156478571383809,
            "33": -0.1141135125292506,
            "34": -0.13594359146746135,
            "35": -0.11766782581956885,
            "36": -0.11866984296173551,
            "37": 0.11742607731229926,
            "38": -0.1992775817837309,
            "39": -0.26522578277669123,
            "40": 0.1283996768064227,
            "41": -0.010094175929250913,
            "42": -0.005617850146090054,
            "43": 0.26943258824576155,
            "44": 0.0493623024389764,
            "45": -0.02001110925562108,
            "46": -0.06185130484260567,
            "47": 0.34778443016573635,
            "48": 0.07563284842542797,
            "49": -0.000649195467480857,
            "50": -0.016161563815241475,
            "51": 0.1112564953586302,
            "52": 0.09797709548047283,
            "53": 0.07719751635954875,
            "54": 0.10775883519933926,
            "55": 0.13789286156447725,
            "56": 0.029132083512754037,
            "57": 0.03817708975182711,
            "58": -0.047695265946509434,
            "59": 0.09715451874869471,
            "60": 0.23336911456156997,
            "61": -0.04766015542297177,
            "62": -0.11371538890585113,
            "63": -0.20709596526581875,
            "64": -0.14018931994408493,
            "65": -0.2366906315056715,
            "66": 0.16524571927338338,
            "67": -0.1893431014785231,
            "68": 0.13948189779204023,
            "69": 0.033374064205367905,
            "70": -0.15288581764355236,
            "71": -0.1343699415800722,
            "72": 0.0004526741102663,
            "73": -0.18386366388017877,
            "74": -0.18991080086265844,
            "75": -0.18411130232402473,
            "76": -0.06777059003353442,
            "77": 0.16931314654937868,
            "78": -0.33693873443668754,
            "79": -0.1350382794559137,
            "80": -0.22078910457634218,
            "81": -0.2822825198121341,
            "82": -0.09974493564857949,
            "83": 0.17204425646457255,
            "84": -0.3620573908371883,
            "85": -0.14448359460427795,
            "86": -0.25955195519263546,
            "87": 0.1410569648045158,
            "88": -0.09541905846159857,
            "89": -0.06943176200494933,
            "90": -0.030639687583877123,
            "91": 0.20809064928974375,
            "92": -0.05751897058002906,
            "93": -0.042192743649327916,
            "94": -0.004919807230173935,
            "95": 0.0026365405903727743,
            "96": -0.2840733216150365,
            "97": 0.023998954373970996,
            "98": 0.1203321507778536,
            "99": 0.11883086677347063,
            "100": 0.07022246549398828,
            "101": -0.01245983898861288,
            "102": 0.08045908530913112,
            "103": -0.1803020603881971,
            "104": -0.15818051391251098,
            "105": -0.021083648081905215,
            "106": 0.22048584847120625,
            "107": 0.013628976443230627,
            "108": 0.1042845389134542,
            "109": -0.0638479173172035,
            "110": -0.215998980140233,
            "111": -0.22332555240017196,
            "112": 0.1716965104277163,
            "113": -0.16704419873176557,
            "114": -0.14460222410082363,
            "115": -0.028671086081873902,
            "116": -0.0883599205372274,
            "117": 0.2204813706703177,
            "118": -0.23396387971122976,
            "119": -0.12505179928073865,
            "120": -0.15939559602257533,
            "121": -0.20215463105766837,
            "122": -0.08843448919268182,
            "123": -0.05773059916602826,
            "124": -0.21280522285038475,
            "125": -0.07748103774650192,
            "126": -0.2908760777090605,
            "127": -0.1161314885066406,
            "128": -0.1394207441757547,
            "129": -0.27960323221602323,
            "130": -0.26100007878610215,
            "131": 0.07903477818474494,
            "132": -0.1208506193463873,
            "133": -0.34514301834708927,
            "134": -0.08107736231837953,
            "135": 0.09073181647021643,
            "136": -0.23644274959703745,
            "137": 0.06517054826872182,
            "138": 0.09885557729383118,
            "139": 0.18064856537051138,
            "140": 0.18379966842854242,
            "141": -0.22931935618733815,
            "142": 0.04949341403144476,
            "143": 0.14831697216901985,
            "144": -0.1835415529070712,
            "145": 0.19851469985070946,
            "146": 0.1968603218758829,
            "147": 0.07686314931225309,
            "148": 0.046431318749114936,
            "149": -0.12460075937345653,
            "150": 0.1087948265325035,
            "151": -0.18723814320331125,
            "152": 0.272626999206988,
            "153": 0.19857990304369938,
            "154": 0.10221796628553027,
            "155": -0.1255561164992161,
            "156": -0.22128779095760373,
            "157": 0.02195431182337588,
            "158": -0.13793302988802777,
            "159": 0.06712782971659256,
            "160": -0.30511917985672515,
            "161": -0.15362639380934115,
            "162": 0.10167001065028751,
            "163": -0.003985255824493286,
            "164": -0.210516720733837,
            "165": 0.14934764711738804,
            "166": 0.2635800615430975,
            "167": -0.35448679514926923,
            "168": -0.2561325841903412,
            "169": -0.3027777624093513,
            "170": 0.01756232271263574,
            "171": 0.12165697440169003,
            "172": -0.4075688467396693,
            "173": 0.11850850484728065,
            "174": -0.1405368845795817,
            "175": 0.11510929987658304,
            "176": -0.037319023310428925,
            "177": -0.26663348137707965,
            "178": 0.09228680030649132,
            "179": 0.0919194767262031,
            "180": 0.07276030106331545,
            "181": -0.053880628387066545,
            "182": -0.24420565714289683,
            "183": 0.1161418147051909,
            "184": -0.1395108984034301,
            "185": 0.04644082615038057,
            "186": -0.09949588043105552,
            "187": 0.16432455734019863,
            "188": 0.30778297671249655,
            "189": -0.04625572843287258,
            "190": 0.3297127749145419,
            "191": -0.30714507307087363,
            "192": -0.03720558394433874,
            "193": 0.496835390832556,
            "194": 0.13749853096097,
            "195": -0.12791640386052425,
            "196": 0.0897545076816309,
            "197": -0.2528639951693079,
            "198": 0.022019437397110285,
            "199": -0.42576119820572733
          }
        },
        {
          "sx": 5,
          "sy": 5,
          "depth": 8,
          "w": {
            "0": 0.22859833229400403,
            "1": -0.09181729778714935,
            "2": -0.21705481823257602,
            "3": -0.1658544873472528,
            "4": 0.10102576827586086,
            "5": 0.302225057343318,
            "6": 0.010571802883070514,
            "7": -0.12377657816371218,
            "8": 0.009584831280224899,
            "9": -0.072690208143284,
            "10": -0.18660016949495392,
            "11": -0.025031362387941857,
            "12": 0.25224409666121533,
            "13": 0.3049098404471913,
            "14": -0.13164722266086076,
            "15": -0.0891432885015278,
            "16": 0.018698085765724473,
            "17": -0.10696318271786683,
            "18": -0.12192556543430497,
            "19": -0.013245281092833763,
            "20": 0.2658141737187165,
            "21": -0.06858639060621306,
            "22": -0.326246493174513,
            "23": -0.3230919236309733,
            "24": -0.08127473186748041,
            "25": -0.10161157406601062,
            "26": -0.18329831598919505,
            "27": -0.03468400427114918,
            "28": -0.025222794165213155,
            "29": -0.09230139775356296,
            "30": -0.45359191218580924,
            "31": -0.015757127357137888,
            "32": 0.07356341597234298,
            "33": -0.28050352541941326,
            "34": -0.046746318034865876,
            "35": 0.0649046724976585,
            "36": 0.1648782430753298,
            "37": 0.04527616611165004,
            "38": -0.3305381528759969,
            "39": -0.215568101964127,
            "40": 0.08616175486610508,
            "41": -0.2639979893401526,
            "42": -0.33547519495419303,
            "43": -0.04927614855408822,
            "44": -0.06995914058484083,
            "45": -0.0035747410294112996,
            "46": 0.13230021260818506,
            "47": -0.08152310577409505,
            "48": -0.01558324056353412,
            "49": -0.18335532529930113,
            "50": 0.14259762906785167,
            "51": 0.13235714617338307,
            "52": 0.10544396282622927,
            "53": 0.046743870842783614,
            "54": -0.12753332222239727,
            "55": -0.23954492458862575,
            "56": 0.14982499425647414,
            "57": -0.10819361283572083,
            "58": 0.1386017236353169,
            "59": 0.023402188490425985,
            "60": 0.1295578272504085,
            "61": -0.028136717183708106,
            "62": -0.08065820063940272,
            "63": -0.14328568397325056,
            "64": 0.024764004375732562,
            "65": -0.30458059261699655,
            "66": 0.0165189993764163,
            "67": -0.14385634444825499,
            "68": 0.004143739373011181,
            "69": -0.19169582362976453,
            "70": -0.2842019135622556,
            "71": -0.1530709695536653,
            "72": 0.05325163336166964,
            "73": -0.23228451032421654,
            "74": 0.05140421009577368,
            "75": 0.2525541271198882,
            "76": 0.0036472932117596994,
            "77": -0.22584771092930703,
            "78": -0.23543841971668208,
            "79": -0.09126735204888194,
            "80": -0.34792602123811606,
            "81": -0.049237650005953024,
            "82": -0.19554423764658438,
            "83": 0.1793779190924549,
            "84": 0.08282953809226226,
            "85": 0.05471005294509053,
            "86": 0.1984997066873152,
            "87": -0.36758965058135357,
            "88": 0.16320548261048087,
            "89": 0.02659475435049802,
            "90": 0.100524449312109,
            "91": 0.11844565117565474,
            "92": 0.1163254173452737,
            "93": -0.02558829485425193,
            "94": -0.1435805560462002,
            "95": -0.18692449386112425,
            "96": 0.15180658261408195,
            "97": 0.021546922367067522,
            "98": 0.297043382769516,
            "99": -0.09939129070170952,
            "100": -0.003918840582575742,
            "101": -0.11992579092191595,
            "102": -0.12126578019257782,
            "103": -0.04440709192943333,
            "104": -0.0204525165538022,
            "105": -0.14470700787287774,
            "106": 0.2084855168835638,
            "107": -0.011602380691006898,
            "108": -0.118695816344127,
            "109": -0.12366484099832634,
            "110": -0.03653889712800333,
            "111": -0.053263650383861695,
            "112": -0.01751369044423955,
            "113": -0.13469127111137916,
            "114": 0.15544825536549745,
            "115": 0.28731415549357703,
            "116": -0.044243052767017614,
            "117": -0.3069975718112151,
            "118": -0.09456216013061328,
            "119": 0.2946216912147119,
            "120": 0.031703052136980735,
            "121": 0.13046265077377592,
            "122": 0.1970594647616926,
            "123": 0.23748154464005106,
            "124": -0.17633146822452925,
            "125": 0.07703346926233555,
            "126": -0.3394115493472925,
            "127": -0.2752966469166195,
            "128": 0.07981132633265188,
            "129": -0.12964649121228908,
            "130": 0.07261354843991846,
            "131": 0.10682387119814436,
            "132": -0.048364042581681956,
            "133": -0.11090088572149276,
            "134": -0.05528460989914091,
            "135": 0.0776079293300555,
            "136": 0.1341514426692699,
            "137": -0.04643903910117123,
            "138": 0.18948438276162105,
            "139": -0.2866159300092895,
            "140": 0.03765870102407674,
            "141": -0.36826897574952583,
            "142": 0.0811773598729923,
            "143": -0.11659303801342871,
            "144": -0.056473470561162524,
            "145": -0.04877489507039368,
            "146": 0.18886980185237479,
            "147": -0.18302084275349215,
            "148": -0.31065733028009684,
            "149": -0.4396392668428191,
            "150": 0.014395396431678392,
            "151": 0.04135449729557049,
            "152": -0.16165552068607303,
            "153": 0.0932694114168657,
            "154": 0.17283776533016815,
            "155": 0.08081243162563327,
            "156": -0.2878687822076182,
            "157": -0.28512490307864174,
            "158": -0.1782712789515131,
            "159": 0.17421710520560615,
            "160": 0.22658043295408622,
            "161": -0.2084849836762609,
            "162": 0.38565129649649676,
            "163": -0.283467179667416,
            "164": -0.055569166615455114,
            "165": -0.35614260833064665,
            "166": 0.21809174658262578,
            "167": 0.07347133746339964,
            "168": 0.04913527279462266,
            "169": -0.10706604858768358,
            "170": 0.09621515977282531,
            "171": -0.10195683725372273,
            "172": -0.010911516899285075,
            "173": -0.3724547903280836,
            "174": 0.2141498129323467,
            "175": 0.27870218503109173,
            "176": 0.13354233187652975,
            "177": -0.22060511768966415,
            "178": 0.17268604227001652,
            "179": -0.2935982035861516,
            "180": -0.09428076327867942,
            "181": -0.18355202502983076,
            "182": -0.038501890033484275,
            "183": 0.04384961439824553,
            "184": -0.1995415402607697,
            "185": -0.08530544472815724,
            "186": 0.08329262065596331,
            "187": -0.0996526905166077,
            "188": -0.20971610900094334,
            "189": -0.1313154797941653,
            "190": 0.04404227954674855,
            "191": -0.0670294800183095,
            "192": -0.29023723380591243,
            "193": 0.17231059372623445,
            "194": 0.13598617458157042,
            "195": -0.18645472144630632,
            "196": -0.44414290818332663,
            "197": -0.23022071718430548,
            "198": -0.034937932501805,
            "199": -0.06889558689363816
          }
        },
        {
          "sx": 5,
          "sy": 5,
          "depth": 8,
          "w": {
            "0": -0.24714481421065654,
            "1": -0.0979509968543424,
            "2": 0.02422363769167551,
            "3": -0.04401739693588631,
            "4": -0.23997118692124916,
            "5": -0.1979711743417781,
            "6": 0.12342229296870404,
            "7": 0.1764318128192271,
            "8": 0.056574241843043174,
            "9": -0.13344882944450573,
            "10": -0.024560634785371648,
            "11": 0.16260112116266656,
            "12": -0.2681706692028346,
            "13": -0.2480678256857606,
            "14": -0.03997696781117511,
            "15": 0.22418707007878028,
            "16": 0.029320548387336096,
            "17": -0.4117735110469627,
            "18": -0.2663156580718166,
            "19": -0.013090199110796317,
            "20": -0.17179439049304615,
            "21": -0.4987330245339335,
            "22": -0.18941493098398718,
            "23": 0.2333798314119795,
            "24": 0.008380771041976971,
            "25": -0.16596258386369833,
            "26": -0.36955449382939526,
            "27": -0.2548751267833776,
            "28": -0.09997394786648102,
            "29": -0.5207715766275707,
            "30": 0.12151402447649941,
            "31": 0.15981011250226293,
            "32": -0.3731356023640217,
            "33": -0.08660603693689084,
            "34": -0.13463262507614915,
            "35": -0.27706779713472374,
            "36": 0.11094350504210983,
            "37": 0.08131528852143728,
            "38": 0.36267120092526767,
            "39": -0.28286303300819615,
            "40": -0.1181093398845743,
            "41": -0.09516723230050614,
            "42": -0.06398528304851393,
            "43": -0.11236659413437165,
            "44": -0.10700041526953025,
            "45": 0.05725425113692459,
            "46": 0.009000711774032872,
            "47": 0.1291687598614242,
            "48": -0.12318074588125644,
            "49": -0.1796887463953399,
            "50": -0.17586635422516966,
            "51": -0.24225946267433443,
            "52": -0.06424381366020522,
            "53": 0.002799100730491678,
            "54": -0.10734380181687582,
            "55": -0.032430857904146654,
            "56": -0.46178304637586237,
            "57": -0.23392115445753484,
            "58": -0.40671540633943626,
            "59": -0.16419349768861757,
            "60": -0.10450789723109967,
            "61": 0.09292626741755221,
            "62": 0.049319996488751155,
            "63": -0.1943665978612432,
            "64": -0.19778606379709932,
            "65": -0.04376822726830305,
            "66": -0.47148956647304735,
            "67": 0.0015740625469361559,
            "68": 0.1508538183154776,
            "69": 0.2278445604081871,
            "70": 0.12988069143313366,
            "71": -0.37570075036474954,
            "72": -0.01835717908680458,
            "73": 0.03207195329821444,
            "74": -0.3568044019347618,
            "75": 0.09476954158272845,
            "76": 0.10575489972596698,
            "77": 0.13631918783773295,
            "78": -0.05986411148546041,
            "79": -0.16303459507873277,
            "80": -0.08414146192962266,
            "81": -0.09184241390650455,
            "82": -0.19807831377973492,
            "83": -0.06269912244143618,
            "84": -0.2701091495214307,
            "85": 0.10530241321672996,
            "86": -0.17331727772192962,
            "87": -0.1700764828149438,
            "88": -0.20288914326440846,
            "89": 0.029464174819218036,
            "90": -0.07901370051817211,
            "91": 0.026644834735119482,
            "92": -0.024826657628352945,
            "93": 0.14218122955607446,
            "94": 0.20450678264148367,
            "95": -0.182050717507208,
            "96": 0.24073955372602604,
            "97": 0.1466751224456723,
            "98": -0.07078304158358881,
            "99": 0.20969362632331975,
            "100": 0.041699136807408735,
            "101": 0.20579152425814934,
            "102": 0.2447708288196754,
            "103": -0.13036832920476346,
            "104": 0.27418108391616436,
            "105": 0.13392003017337503,
            "106": -0.1588464095682126,
            "107": 0.09077566283268618,
            "108": -0.027425026917085003,
            "109": -0.010505079858766052,
            "110": -0.034422926918132986,
            "111": -0.15687554691155686,
            "112": 0.32596383605060764,
            "113": -0.1312069503328988,
            "114": -0.1639674186232893,
            "115": -0.14091866701446698,
            "116": 0.205323785405055,
            "117": -0.2279604260327677,
            "118": -0.1599700635745943,
            "119": 0.07796941298306855,
            "120": -0.0012337125869931035,
            "121": 0.015661353052273112,
            "122": 0.04163010607568138,
            "123": 0.2828941474303356,
            "124": -0.11469557378534803,
            "125": 0.154109409527077,
            "126": -0.11307467357932109,
            "127": -0.1077612657804387,
            "128": 0.2254684913869574,
            "129": 0.05444270129672228,
            "130": -0.10050241663264259,
            "131": 0.2939535894440588,
            "132": -0.12002773083432444,
            "133": 0.07135408118473971,
            "134": -0.15941012978139174,
            "135": -0.08709576198872022,
            "136": 0.06514072343023532,
            "137": 0.05046414825807937,
            "138": -0.08582201645886846,
            "139": 0.11130478943185498,
            "140": -0.11392962945875176,
            "141": -0.2431291026836854,
            "142": -0.12518328278197186,
            "143": -0.0891698495064897,
            "144": 0.07034448017817976,
            "145": -0.29084497431350687,
            "146": -0.2407243930542307,
            "147": -0.10162068530930757,
            "148": 0.0010558667645895155,
            "149": -0.27044097832642977,
            "150": 0.2201605348043945,
            "151": -0.056494695604147716,
            "152": 0.021311024030519085,
            "153": -0.07524465200317754,
            "154": -0.29797912586679404,
            "155": -0.009679589607545022,
            "156": -0.10242119908329846,
            "157": -0.12781511394513634,
            "158": 0.0026146846602228195,
            "159": -0.09534092527482978,
            "160": 0.11453819508177923,
            "161": 0.2144915743383464,
            "162": -0.1428256720601792,
            "163": 0.009728903814152952,
            "164": 0.07799085255532932,
            "165": -0.05842186063366756,
            "166": -0.26419152392452816,
            "167": 0.057787677384083434,
            "168": -0.05861000240421114,
            "169": -0.11238449368460836,
            "170": 0.09919620725696454,
            "171": 0.027258808140351736,
            "172": 0.016186656919448834,
            "173": -0.4261209866698072,
            "174": -0.053357273323114615,
            "175": 0.11195757159163897,
            "176": 0.06133293497664347,
            "177": -0.11567103851555204,
            "178": 0.05607598102022742,
            "179": -0.051073984668152696,
            "180": 0.07278203920707091,
            "181": -0.13554953823920607,
            "182": 0.20450984569145186,
            "183": 0.2840215399891326,
            "184": -0.008653925616204794,
            "185": 0.11381649209590071,
            "186": -0.36972008889241187,
            "187": -0.18155316529301235,
            "188": -0.09557388437239935,
            "189": 0.1630967358438307,
            "190": -0.04949731995901922,
            "191": 0.11278551723734957,
            "192": 0.12368308636151142,
            "193": 0.22610231113835874,
            "194": -0.2829493438464696,
            "195": -0.12220992641442352,
            "196": -0.12110204324970639,
            "197": 0.24913212927501685,
            "198": 0.21360260909808695,
            "199": -0.1950238856068948
          }
        },
        {
          "sx": 5,
          "sy": 5,
          "depth": 8,
          "w": {
            "0": 0.016022523774262738,
            "1": 0.014625353392814988,
            "2": 0.125909703425639,
            "3": -0.1502157673300465,
            "4": -0.050853247912210964,
            "5": -0.14399934615483792,
            "6": -0.16882847827498157,
            "7": 0.04917294891910628,
            "8": -0.26238576860317797,
            "9": 0.013650138760625123,
            "10": 0.27347283711729603,
            "11": 0.19195694733216345,
            "12": 0.04155310855661377,
            "13": -0.025751259329628344,
            "14": -0.13100900480523595,
            "15": -0.05105799454258628,
            "16": -0.1091718312229083,
            "17": 0.16234258198349008,
            "18": 0.18923671825768795,
            "19": 0.42603889899525527,
            "20": 0.04707802282356872,
            "21": 0.17944142640619073,
